0.835805
0.929226
-0.409118
-0.0139632
-0.13264
0.601575
-0.639161
0.371843
0.554883
0.891286
0.165717
0.0621934
-0.335894
-0.916291
-0.189507
0.379044
0.932517
0.413482
0.262502
0.525825
0.681868
0.334672
-0.426902
-0.205868
0.113702
-0.496488
-0.301936
-0.516591
-0.653515
-0.410064
-0.427948
0.207669
-0.86294
0.217895
-0.16913
-0.128466
-0.554052
0.755662
0.454205
-0.166172
-0.191565
0.615649
-0.117702
0.365229
0.589651
-0.948978
0.899151
0.574005
0.216715
0.569226
0.560726
-0.951697
0.753304
0.657597
0.0920312
0.856247
0.355807
0.40213
0.718773
0.261973
-0.90935
-0.988011
-0.124494
0.776249
-0.204025
0.0123443
0.137612
-0.270814
-0.596458
-0.574424
0.282586
-0.322171
0.852462
0.649879
0.256734
0.113327
-0.897191
-0.229476
-0.956873
0.0296993
-0.705368
0.875511
0.83515
0.470176
0.214354
0.323722
-0.174103
0.0756556
-0.948993
-0.0861431
0.863849
0.242523
-0.294953
-0.984151
-0.0990915
-0.850924
-0.298498
-0.684511
0.401478
-0.754033
-0.582524
-0.925718
-0.682965
-0.282984
-0.142298
-0.842719
0.021834
-0.092866
0.974855
0.372217
-0.33511
0.312804
0.0639913
0.717337
-0.442322
0.735625
0.76658
0.846922
0.910923
-0.192744
-0.744822
0.563406
0.693592
0.13489
0.807192
-0.881399
0.448663
-0.245899
-0.0572019
0.177863
-0.562717
-0.765967
-0.33184
-0.0294967
0.657517
-0.280834
-0.843868
0.358252
0.729043
-0.772529
0.144964
0.887826
0.870652
0.22949
0.499801
0.781165
0.178877
0.0487774
-0.138405
0.305712
-0.524604
0.979698
0.11089
0.278631
-0.55648
0.142758
-0.271136
-0.217705
-0.605106
0.100071
-0.802865
-0.929412
0.186653
0.0616079
-0.904783
0.693224
-0.825775
0.0403993
0.832299
-0.433019
0.423822
0.762791
-0.279968
-0.973026
0.969644
-0.0216632
-0.227075
-0.849902
-0.0557604
0.812584
-0.0610521
-0.117668
0.519887
0.767096
0.684516
-0.478814
-0.256461
0.721741
0.463394
0.283112
-0.738499
-0.454889
-0.409697
-0.305478
-0.171346
0.989375
0.0416787
-0.0964908
0.618229
0.166796
-0.447085
0.179779
0.861515
0.800209
0.639975
-0.707689
-0.270273
-0.42978
-0.0246968
-0.792531
0.228065
-0.0291959
0.585267
0.8033
0.949762
-0.554979
0.923749
0.789897
-0.320756
-0.117042
0.78738
-0.163346
-0.0109232
0.529478
0.837426
-0.988656
0.783623
-0.702406
0.583608
-0.78639
-0.113896
-0.616029
-0.33484
-0.795058
0.290124
0.542581
-0.812512
-0.737518
-0.271434
0.0195006
-0.946034
0.995364
0.809228
-0.079312
0.419894
0.166672
-0.498578
0.552525
-0.685139
-0.565037
-0.490818
-0.572962
-0.826466
0.357371
0.475739
0.927104
-0.502064
0.31682
-0.373015
0.960084
0.740063
-0.527594
-0.227324
0.934741
0.206391
-0.889755
0.906274
0.625364
0.124246
-0.34458
-0.280605
0.108159
0.828349
-0.0260536
-0.544858
-0.514701
0.840221
0.199396
0.0637853
0.539372
-0.967377
-0.761497
-0.543759
-0.781747
-0.220247
-0.137557
-0.261447
-0.380575
0.838563
0.643218
-0.780108
-0.865533
-0.237099
-0.489745
-0.779955
-0.336393
-0.967152
0.744833
-0.878695
0.638289
-0.224754
-0.123992
0.698098
-0.282602
0.62803
0.501162
-0.0254157
0.510293
-0.819588
0.845889
-0.160518
0.476126
-0.693248
-0.351956
0.379299
0.726695
-0.951644
-0.972246
0.174923
-0.547054
-0.114772
-0.341
0.65599
0.232175
0.412952
0.300397
-0.197858
0.729556
0.52315
-0.585516
0.743736
-0.185405
-0.477584
0.97746
-0.447247
-0.745509
0.515913
0.168571
0.35022
-0.618425
0.460802
-0.181901
-0.68353
-0.4169
0.596872
0.556693
-0.961266
-0.72201
-0.756705
-0.787342
-0.463439
-0.908478
-0.113409
0.0412838
0.57497
0.172158
-0.698103
-0.675041
0.902112
0.884623
-0.912775
-0.557986
-0.657709
0.237573
0.375706
-0.383599
-0.579183
-0.909239
0.988251
0.531227
-0.0206304
0.605798
-0.555402
0.354796
0.183916
0.416561
0.402625
-0.534715
0.45292
-0.941688
-0.73087
-0.778164
-0.801583
0.64754
-0.975862
0.598085
0.0899562
0.195282
-0.27282
-0.668495
0.441168
-0.147982
0.193362
-0.716834
0.440544
0.465171
-0.119481
-0.388009
0.658946
-0.999864
