0.595209
0.00218209
0.990096
0.311856
-0.726329
0.902459
0.476161
-0.484509
-0.857571
0.129242
-0.573154
-0.651817
0.902361
0.59569
0.201922
-0.111117
0.206941
-0.601591
0.905098
-0.269557
-0.726712
0.0895397
-0.734992
-0.126578
-0.370117
0.652844
0.938685
0.155002
-0.385032
-0.762642
0.208486
-0.317232
0.79511
0.718147
0.0604273
0.892778
-0.760225
-0.0382044
-0.632735
-0.765003
0.966135
0.925912
0.534541
0.111738
-0.29982
-0.612508
-0.265304
-0.112312
-0.72509
-0.0793107
0.0805415
0.0541505
-0.397285
0.715272
0.249126
0.671878
0.43879
0.262052
0.0509042
0.169457
0.184561
-0.853077
0.00962457
-0.165355
0.472097
-0.671208
-0.388641
0.657222
0.62945
-0.912821
-0.722287
0.69905
0.364137
0.0285556
0.290474
-0.779006
0.792482
0.113286
0.688545
-0.239654
-0.547473
-0.249499
-0.616039
0.38492
-0.513498
-0.958097
-0.567115
-0.309224
0.225697
-0.58036
-0.392375
0.174215
-0.917385
-0.769573
-0.403337
-0.641598
-0.846268
0.604596
-0.0587103
0.303915
0.0391289
0.280338
0.211041
-0.987616
0.77518
-0.781658
-0.233262
-0.701347
-0.202026
-0.89723
0.711308
-0.753833
0.0779089
-0.499107
-0.603677
-0.975173
-0.173187
-0.878019
0.7045
0.551255
-0.260394
0.083173
-0.635559
-0.0510461
0.457594
0.316458
0.63392
0.102726
0.865084
0.766075
0.124238
-0.874733
0.11587
0.866493
-0.672649
-0.452882
-0.780268
0.703705
-0.737656
0.265541
0.581429
-0.22871
-0.130583
-0.15534
0.272109
-0.533179
0.628851
-0.496291
-0.432199
-0.981071
0.726011
-0.954623
0.348744
0.965422
0.575483
-0.886306
-0.286229
-0.525928
0.551821
0.375378
-0.739089
-0.0315035
-0.660608
0.805234
0.230092
-0.940198
-0.920235
0.46619
0.501853
-0.099825
0.839711
-0.153264
-0.776493
0.75157
-0.782969
-0.945981
-0.0643761
-0.943936
0.773781
0.219265
0.677605
-0.744868
0.297322
0.554143
-0.389406
-0.172932
0.0815518
0.903262
0.82161
0.342019
-0.969915
0.126892
-0.348182
0.00615114
0.30251
0.31154
0.377832
-0.70881
-0.786337
-0.337934
0.147142
0.375389
0.282431
-0.363848
-0.769176
0.908391
-0.796421
-0.0911788
0.456616
0.235479
0.891001
-0.293165
-0.18667
-0.530529
0.800422
0.00399665
0.627548
0.374368
-0.832843
-0.32713
-0.22391
0.374238
0.0294649
-0.422458
-0.216154
-0.0528963
-0.984918
-0.798288
0.942711
0.548423
-0.0736765
0.636095
-0.120133
0.96732
-0.26445
-0.124887
0.913558
-0.973182
0.473969
-0.711894
-0.583222
0.8046
0.829418
-0.055043
0.579035
0.945319
-0.835214
-0.298636
0.410015
-0.503736
-0.68894
0.628972
-0.559153
-0.671897
0.322004
0.0715998
-0.0981506
-0.338909
-0.955
0.357252
0.794294
-0.85644
-0.934725
-0.491812
-0.551151
-0.975653
-0.569932
0.556187
-0.797317
0.194054
0.608595
-0.206306
-0.111464
0.869825
-0.247551
-0.0244496
-0.500446
0.324058
0.203625
0.255434
0.655333
0.264141
-0.553346
-0.0291737
0.873932
-0.20413
0.403713
0.130362
-0.497156
-0.880684
0.699908
0.857177
0.357929
0.38998
-0.371189
0.402233
-0.187713
-0.892437
-0.856389
-0.863203
0.500187
-0.736866
0.502537
0.697222
0.713695
0.802747
-0.679902
-0.307658
-0.0719983
0.122737
-0.0920885
0.315151
0.440452
0.195024
0.863202
0.465625
-0.50853
-0.557626
-0.124965
-0.127536
0.185742
-0.265756
-0.978176
-0.106476
-0.98889
0.981314
0.0187575
-0.725317
-0.513172
-0.00933753
0.821311
0.902086
0.672234
-0.516737
-0.88231
-0.839365
-0.987986
0.27899
0.825813
0.287055
-0.58977
-0.853075
-0.761867
0.428677
-0.222464
-0.0501532
0.32112
0.252122
0.506583
-0.988203
0.416871
-0.602748
-0.597063
-0.960339
-0.969687
0.235285
-0.917913
-0.747541
0.568056
-0.886112
-0.96692
-0.7913
0.488848
-0.40912
-0.905825
0.022726
-0.933659
-0.683831
0.918312
-0.559772
0.932302
-0.388533
0.15512
0.946111
-0.962791
-0.792751
-0.0262893
0.512076
-0.297167
0.46909
-0.738693
-0.168496
-0.539296
0.0758127
-0.609968
0.543266
0.541325
-0.240083
0.978547
-0.16171
-0.860852
-0.573931
0.258955
0.683094
0.931543
-0.563965
0.728691
-0.927541
-0.621398
-0.201904
