-0.63207
0.0661949
-0.500417
0.603192
-0.839764
0.445842
0.250218
-0.906282
0.689192
-0.921395
-0.47221
0.624196
0.683954
0.765804
-0.421223
0.3796
-0.671606
0.424229
0.703276
0.384484
-0.200798
0.803351
0.600821
0.465409
0.830975
-0.418251
0.739306
0.172101
-0.432988
0.5279
0.904439
-0.82443
0.821426
0.362675
-0.430692
0.114976
0.226353
0.0808853
-0.734024
-0.0635034
0.44942
0.628677
-0.826577
0.660118
-0.494059
0.219686
-0.206695
-0.820065
-0.54198
-0.0721758
-0.238915
-0.71535
-0.383405
0.515844
0.389404
0.648016
0.792575
0.54524
-0.00924546
0.00176243
-0.673555
-0.66
0.234064
-0.326671
-0.787478
-0.248045
-0.0539873
0.590511
0.647882
0.287717
-0.867008
-0.615955
0.146531
-0.694758
-0.657099
0.331501
0.0570342
0.658662
-0.737174
0.631086
0.124686
0.488944
-0.353294
-0.584073
-0.341534
0.476423
0.238233
-0.369526
-0.25511
-0.16612
-0.916875
0.81823
0.396216
-0.485707
0.137245
-0.914555
0.712187
-0.361567
0.577313
-0.387514
0.520096
-0.320874
-0.650019
0.312025
0.70562
0.782542
-0.0513459
-0.241905
-0.211484
-0.117317
0.486286
-0.818125
0.596113
-0.735067
-0.407214
-0.489094
0.912766
-0.029753
-0.880548
0.441912
-0.464991
0.230207
-0.825167
-0.624961
0.712154
0.729492
-0.147712
0.834065
-0.287068
0.147902
-0.46881
-0.00595924
-0.834464
0.890991
-0.068658
-0.785181
0.150101
0.132552
0.360318
-0.125542
-0.844981
-0.389923
-0.274831
-0.731419
0.254156
0.648004
0.649531
0.852211
0.265148
0.18235
-0.64785
0.682764
0.527082
0.109104
0.623125
-0.560266
-0.511353
-0.420659
0.219529
0.0460614
-0.838972
-0.717449
0.0489819
0.597759
-0.638198
-0.286712
-0.506396
0.919146
-0.49902
0.319389
-0.754197
-0.477779
-0.540804
0.761486
0.583265
-0.681817
0.342987
-0.465219
-0.0573833
0.639637
-0.319927
0.91503
-0.555477
-0.449306
0.022819
-0.0905157
0.27818
0.819889
0.298759
0.500205
-0.763666
0.559504
0.231978
-0.143975
0.771268
-0.241287
-0.684958
-0.311638
-0.499984
-0.854246
-0.751764
0.400668
-0.354893
0.268082
0.72786
-0.00669686
-0.837871
0.886772
-0.464774
-0.341294
0.337967
-0.107882
-0.611339
-0.122734
0.213509
0.412038
0.0133684
-0.36673
0.457091
-0.521814
0.218688
-0.45152
0.877671
-0.0763565
0.869086
-0.624786
-0.164583
0.491518
-0.614607
-0.331337
-0.883819
0.404484
-0.0344322
-0.217586
-0.910839
0.0190644
0.664125
0.0733343
0.323029
-0.303774
0.139569
0.0634748
0.269318
-0.296088
-0.898822
-0.00380542
0.54733
-0.704452
0.269253
0.894688
-0.0482337
0.601121
-0.62065
0.123983
-0.433907
0.165193
-0.740949
-0.450077
-0.454185
-0.825491
-0.903441
0.798226
-0.895575
-0.831109
0.0808676
0.484143
-0.0554897
0.0983379
0.591202
0.731347
0.0443518
-0.281322
0.665008
-0.292847
0.843663
0.602985
0.616734
0.115196
-0.240876
-0.797145
0.339248
0.548925
-0.39261
0.72179
-0.169396
0.361145
0.639157
-0.637489
0.522405
0.0240557
0.364352
0.0817261
0.685438
-0.326838
-0.181212
-0.501137
0.92171
-0.141064
0.192396
-0.0658417
-0.16065
-0.56831
0.466149
-0.300392
0.147641
0.718433
0.725147
-0.430144
-0.288794
0.787859
-0.560928
-0.303301
0.758619
-0.253946
-0.331642
-0.486551
-0.581093
-0.903908
0.855216
-0.322468
0.0531199
0.398285
0.745513
0.612176
0.42553
-0.325618
0.830851
0.701985
0.372642
0.359625
-0.291994
-0.149884
-0.917142
-0.783068
0.832564
-0.258016
-0.699785
0.208204
-0.290772
-0.755108
-0.765206
-0.229802
0.0254889
0.0479617
0.396
-0.108553
0.0103558
-0.317873
-0.847889
0.388769
0.569896
0.0199865
-0.27963
0.150849
-0.133124
0.659803
-0.73735
0.149714
0.450603
-0.352021
0.0495771
0.763095
0.437618
-0.0687628
-0.681794
-0.19884
-0.617973
0.687229
-0.174945
0.174789
0.0171432
0.767772
-0.661081
-0.66556
0.446538
-0.641352
-0.313097
0.200118
-0.798093
0.908899
0.107876
0.527844
0.353987
0.792937
0.0136114
0.172143
-0.798699
0.522581
-0.69197
0.042661
-0.40237
-0.501278
0.0992125
0.676177
-0.186031
0.871319
0.113191
-0.439267
0.885982
-0.768585
