0.630823
-0.0647884
-0.911636
-0.349064
0.881082
0.353035
0.287897
-0.429132
0.757597
-0.570346
0.308317
0.41367
-0.541658
0.185305
0.10739
-0.492604
-0.444073
0.69426
0.795626
-0.653737
0.373407
-0.698085
0.786364
0.498951
-0.757309
-0.292306
-0.402626
0.341406
0.39155
0.691885
-0.454021
-0.870953
0.172977
0.740415
-0.219393
-0.912289
0.666719
-0.212409
0.133715
-0.633363
-0.707915
0.690983
-0.747199
-0.763392
-0.785175
0.548223
0.631029
-0.692351
0.900224
-0.518471
-0.573773
0.118015
0.546045
-0.21619
-0.116352
0.199028
0.689294
0.222078
0.450388
-0.686725
0.404439
0.0593679
0.122223
0.212744
0.742041
0.250664
-0.107699
0.0536248
-0.552535
0.10988
0.248067
-0.342119
0.222255
-0.520422
-0.8384
0.629133
-0.360157
0.454662
-0.409993
0.0342313
-0.496621
-0.462589
0.413381
-0.243189
-0.333906
0.526937
0.452376
0.51767
0.352974
-0.462014
0.156822
-0.509204
0.191307
0.163586
0.143897
0.0677078
0.17442
-0.654443
-0.215225
0.827097
0.020317
-0.62289
0.619428
0.283956
0.740073
0.337903
-0.785885
0.36639
0.663448
0.156707
-0.798181
0.435395
0.210514
-0.583685
0.0265832
-0.577255
-0.724873
-0.300342
0.765812
0.692327
0.771906
-0.151305
0.836366
-0.913352
-0.125242
-0.135639
0.885612
0.238249
-0.0436399
0.35396
0.268451
-0.502711
-0.708753
0.103311
0.782722
0.475652
0.641546
-0.0507842
0.74785
0.221564
-0.0045796
-0.197989
-0.266976
-0.855299
-0.402131
-0.702241
0.255274
-0.914916
0.814119
-0.500856
0.305081
0.655199
0.28101
0.369594
0.153473
-0.766793
0.195341
-0.554863
0.458761
-0.877339
-0.677581
0.143031
-0.306879
0.129268
0.0956947
-0.308526
0.669775
-0.615186
-0.147483
0.134949
0.912436
-0.477903
-0.0548623
0.359782
-0.77205
-0.480239
-0.249683
0.125206
-0.649357
0.825362
0.812252
-0.543498
-0.118147
-0.472051
-0.681826
0.630929
-0.439431
-0.763827
0.474294
0.558326
-0.514431
0.169499
0.443565
-0.86019
-0.398716
-0.776764
-0.686842
0.224574
0.0147777
-0.88392
0.657661
0.346971
-0.424308
-0.323999
-0.34047
0.87563
0.230184
0.827295
0.29186
0.852155
-0.853791
0.704965
0.618506
-0.195038
-0.384959
0.566975
0.116383
-0.89559
0.21283
0.478204
-0.867513
0.269261
0.121575
0.637885
0.867735
0.368824
0.702231
0.668556
0.0884861
0.902819
0.718489
-0.852377
0.121326
-0.395264
0.0627452
0.224234
0.0159854
0.337739
-0.609709
-0.843818
0.0990355
0.830972
0.86827
-0.860522
-0.0468104
0.335193
-0.769919
-0.200773
0.556162
0.34814
-0.55818
0.327431
0.288571
-0.873937
0.661542
0.82615
0.843812
0.292425
-0.591151
-0.65692
0.0335993
-0.878389
-0.372331
-0.663431
-0.530213
-0.457826
0.3318
0.465116
0.613633
-0.921318
0.685389
0.0955702
-0.240477
0.0137594
0.437676
-0.749868
-0.0536226
0.254168
0.171606
0.780079
0.206828
0.874949
0.276589
0.407558
0.194183
0.35956
0.428355
0.697173
-0.313871
0.486716
0.319317
0.224576
0.885816
0.281433
0.108956
0.776356
-0.504502
0.0635999
0.760166
0.443617
-0.452584
0.693323
-0.896468
0.098488
0.174374
0.679031
-0.225538
-0.322327
-0.381329
-0.373698
0.885743
0.780744
-0.295221
0.758429
0.804913
-0.028369
-0.823526
-0.786353
-0.585085
-0.0276835
0.193461
-0.442527
0.337344
-0.273755
0.817059
0.0515561
-0.645765
-0.699865
0.834484
0.604042
-0.645999
-0.0967454
0.678746
-0.86074
0.718381
-0.392848
0.476837
-0.122659
0.171397
0.176695
-0.682808
0.467499
-0.299309
-0.537014
0.0369042
-0.604839
0.696015
-0.0334896
0.0112987
0.764965
0.563763
-0.779214
-0.635537
0.79602
0.875437
0.0215861
0.565295
-0.812468
-0.665291
0.640105
0.64276
-0.0582445
-0.499997
0.1661
-0.643173
0.487772
-0.686823
0.885594
0.509296
0.349152
-0.0551482
-0.158015
-0.241839
0.671621
-0.446695
-0.472095
-0.0514011
-0.432167
-0.592044
0.733579
0.404147
0.133216
0.0147051
-0.272852
0.526731
0.884144
0.15824
0.0925528
-0.275435
0.414818
0.734762
0.0325734
0.283469
0.192352
-0.922999
-0.404313
-0.0715998
0.537207
-0.658635
0.340238
