-0.291129
-0.0894236
0.0579079
-0.61506
0.141186
0.721835
0.105088
-0.48985
-0.164346
-0.126853
-0.268562
-0.813297
0.974781
0.726994
-0.190103
-0.28877
-0.508243
0.967928
0.819048
0.0816494
-0.100027
0.734206
-0.869978
0.700573
0.345926
-0.989268
-0.210711
0.521642
0.66522
0.537275
-0.919629
-0.330622
-0.118921
0.708311
-0.469157
0.835672
0.428554
-0.0185714
0.202187
0.495656
-0.37125
0.294643
-0.273142
0.195067
0.292118
0.226055
0.493184
-0.120974
0.283261
-0.289631
0.502361
0.77272
0.512971
0.417441
-0.156274
0.821175
0.852315
-0.0217952
-0.733236
0.779884
-0.277457
0.493773
-0.654758
-0.733554
-0.773066
-0.700313
0.985872
-0.662818
0.550004
0.856188
0.583153
0.598833
-0.0167974
0.310528
-0.139625
-0.0179422
0.121606
-0.648252
-0.455848
0.326508
0.827974
-0.888437
0.645734
-0.497213
-0.288042
0.672971
0.0983245
0.317359
-0.244068
-0.203849
-0.596559
-0.974773
0.522796
0.0291528
-0.544952
-0.639503
0.53864
0.466971
-0.899612
0.632623
-0.700356
-0.0457693
0.820867
0.505567
0.815301
-0.427691
-0.343072
-0.590848
-0.96493
-0.116778
-0.67785
0.639256
0.0818375
-0.233699
-0.237209
0.922755
-0.239297
0.137787
0.239146
-0.470781
0.0899088
0.299934
-0.739093
0.73332
0.739289
0.616061
-0.479114
0.399621
0.452267
-0.574504
-0.889511
0.0464093
-0.420319
0.328009
0.902474
0.71642
-0.399031
-0.913279
-0.25105
0.11675
-0.304373
-0.0395894
-0.787264
0.883836
0.0291111
-0.853422
0.24766
-0.0342703
-0.841454
-0.604694
-0.11669
0.190377
0.406271
0.662143
-0.0507204
0.566408
-0.612408
-0.620102
0.839528
-0.57066
-0.260273
0.302845
-0.266975
0.0130501
-0.0969078
0.661307
0.945743
-0.183756
0.370945
-0.424192
0.163582
-0.0965069
0.307245
0.0691615
-0.878244
-0.402079
-0.343551
-0.789339
0.582759
-0.272674
-0.172924
0.793636
-0.29248
-0.287671
0.851059
0.494502
0.405069
-0.622831
0.796471
-0.629532
0.226873
-0.710892
0.439691
-0.916439
-0.683024
-0.26712
-0.317256
-0.331542
-0.207648
-0.536399
-0.874443
-0.378447
-0.507828
0.437969
-0.121431
-0.293831
0.805636
-0.806883
-0.792395
-0.682581
-0.922634
0.277486
-0.585228
-0.286705
-0.441075
-0.611585
-0.158949
-0.570427
-0.479981
0.871619
-0.182528
0.444158
0.0793981
-0.948673
-0.727921
-0.548179
0.278391
-0.00741624
-0.591953
-0.656368
-0.279584
0.679413
0.30878
0.0301826
0.427408
-0.0247111
-0.53085
-0.728084
-0.631616
0.445488
0.722038
0.390681
-0.574134
-0.20787
-0.938438
0.329718
0.0198203
-0.362549
-0.78923
-0.411115
0.55973
-0.47821
-0.481495
0.878276
0.278267
-0.534969
0.819846
-0.179998
-0.682659
-0.930812
0.999478
-0.187912
0.327153
0.410648
-0.491764
-0.242494
0.999787
0.676924
0.123967
-0.845735
0.249657
0.125748
0.0256433
-0.228813
-0.999215
0.432263
0.912783
0.409331
0.452192
-0.456495
-0.260965
0.993257
0.154247
0.761686
0.6101
-0.928169
-0.445666
-0.510957
-0.39595
0.48363
-0.775737
0.836377
0.253558
0.00982402
0.90347
-0.731363
-0.178091
-0.368533
-0.945847
-0.0852995
-0.364688
-0.345642
-0.188682
-0.0386579
-0.0895265
0.581112
-0.74456
0.654455
0.198186
0.4304
0.946861
-0.0913776
0.573531
0.102674
-0.503213
-0.57147
0.424584
-0.425031
-0.902699
0.424072
-0.928953
-0.998542
-0.38118
0.0784623
-0.732424
-0.41796
-0.3899
-0.831837
-0.974776
0.754371
-0.188501
-0.234484
0.92463
0.48103
-0.474082
-0.724407
0.0372987
-0.715062
0.467105
-0.45539
0.703819
-0.0887347
-0.328254
0.0999513
-0.689415
-0.282568
0.444265
-0.377818
-0.388191
-0.22171
-0.292273
0.739831
0.0671087
0.150075
-0.389094
-0.275721
0.0561395
0.46752
-0.502687
0.39845
-0.575146
-0.747866
-0.312893
-0.979556
-0.449529
0.810824
-0.501292
-0.653648
0.391119
-0.93718
0.523855
-0.939901
0.804846
-0.0136204
-0.524314
0.656371
0.567879
-0.810881
0.529982
-0.830429
-0.595134
0.925258
0.531114
0.617801
0.0866387
-0.99422
0.650639
-0.591563
0.380541
0.263893
0.234947
-0.183877
-0.90501
0.427161
-0.335866
0.357131
-0.127812
-0.458827
-0.693898
-0.339764
