-0.853496
-0.24502
0.405083
-0.828102
0.340351
-0.731975
0.457596
0.354492
-0.054861
0.641027
-0.40168
-0.968893
-0.507771
0.0421414
-0.581439
0.830899
-0.400987
-0.487232
-0.550371
-0.241082
-0.156901
-0.0765488
-0.764164
0.211926
0.110848
0.878465
0.302479
0.577444
0.091765
-0.491214
0.211039
0.345813
-0.33833
-0.430351
-0.230487
-0.390679
0.368487
0.674502
-0.444084
-0.759215
0.919422
-0.169253
-0.851276
-0.435351
-0.643588
0.752768
0.986905
-0.347911
0.694152
0.905783
-0.559397
0.205046
0.218274
0.328768
-0.315707
0.492975
0.740435
0.902007
-0.735828
0.377709
0.246193
0.248782
0.813888
0.413543
0.890792
-0.203636
0.673411
0.571922
-0.891756
0.698768
-0.0865998
0.544227
0.144308
0.834868
0.00635341
-0.526478
-0.572861
0.481689
0.246201
0.87422
-0.81781
-0.438906
-0.694913
0.98213
0.766309
0.603247
0.347934
0.826446
-0.386679
0.712726
-0.671142
0.184136
0.00972625
-0.598682
-0.76143
-0.409579
-0.955563
0.268741
-0.203755
-0.768617
-0.216346
0.160242
0.578964
0.457009
-0.788899
0.38096
-0.390252
0.010128
0.736436
0.507818
0.200405
0.85323
0.315898
-0.238676
0.437742
-0.283287
0.962049
0.160041
-0.64292
-0.219325
-0.58425
0.60251
-0.0849336
-0.366701
-0.358754
0.918098
-0.452852
-0.732792
-0.229933
0.71304
-0.548378
-0.727222
-0.935322
-0.134148
-0.917867
-0.0718515
-0.0504254
-0.526979
0.201644
0.257743
-0.687029
0.175193
0.363033
-0.971296
-0.0966168
-0.0231224
-0.04573
0.00825281
0.648041
0.354083
-0.380678
0.216557
-0.344665
0.705166
0.270055
0.369907
0.716984
-0.129503
0.867317
-0.359425
-0.355975
0.886995
0.395125
-0.0432053
-0.986096
0.591923
-0.0859253
0.0470848
-0.609331
0.823196
-0.264984
-0.880317
-0.911889
-0.223521
0.209612
-0.651138
-0.349372
-0.0112273
-0.522923
0.389697
-0.491581
0.376424
-0.0228129
0.1611
0.320837
-0.902983
0.634719
-0.211128
-0.105247
0.338202
0.156532
-0.191682
-0.642234
0.415266
0.359197
0.324529
-0.408356
-0.00598057
0.509641
0.226131
-0.0949854
-0.5005
0.704292
-0.218312
0.654706
0.227411
-0.616814
-0.906172
-0.96569
-0.708149
0.983939
-0.248994
0.568644
0.122412
-0.0756882
0.726082
-0.298328
-0.820401
-0.621722
-0.297085
0.845935
-0.930203
-0.299831
-0.304586
-0.452319
0.238981
0.459732
0.0544194
-0.719616
0.749201
-0.644539
-0.925578
-0.366256
-0.151612
-0.385933
0.981987
0.396356
0.491443
0.519123
-0.405749
0.00746396
-0.960401
0.842566
-0.94933
-0.472915
-0.167832
-0.733985
0.268141
0.227085
0.234347
0.61511
-0.512854
-0.184325
0.276719
0.30101
-0.011505
-0.253644
0.521219
0.619006
0.586012
-0.2074
-0.172222
0.369648
-0.716397
0.335315
-0.423126
-0.397599
-0.363308
-0.264845
-0.0512721
-0.701653
-0.126873
-0.175138
0.554768
-0.057974
0.523413
0.691747
0.380786
-0.908621
0.0568046
0.942262
0.869288
0.398107
0.936269
-0.399426
0.282369
-0.275399
-0.474297
0.968889
-0.0325333
0.172187
-0.731011
0.773072
-0.586589
-0.913642
-0.233717
0.926433
0.806283
-0.461768
0.146325
-0.427177
0.88826
-0.610858
-0.0629804
0.226945
-0.871101
-0.873326
-0.108912
-0.266744
-0.908558
-0.94381
0.82588
-0.15726
0.371254
0.181594
0.52087
-0.33901
-0.10386
0.428769
-0.357359
0.221238
-0.793127
0.0615206
-0.875746
0.0349216
-0.947328
0.0398903
-0.587121
-0.273031
0.114955
-0.467301
0.340092
0.765532
-0.103994
0.202653
-0.736566
0.503372
-0.692692
-0.434745
0.334776
-0.975491
-0.744573
-0.368879
0.523009
-0.87712
0.522673
-0.133203
-0.405907
0.447755
0.00882559
0.809413
0.839022
-0.405485
0.380568
-0.239329
0.601295
-0.825078
-0.0876951
-0.0444994
-0.348552
-0.412303
-0.937432
-0.178529
0.467228
-0.131511
0.19348
-0.649887
-0.104418
0.719579
0.484635
-0.8183
0.679531
0.492876
0.130723
-0.10974
-0.165823
0.0981053
0.870722
-0.793322
0.580052
0.483325
0.0892619
0.977043
0.694299
-0.463991
0.5377
-0.0387909
-0.571474
-0.740001
-0.557496
0.0863563
-0.899953
-0.324215
0.402436
-0.614981
0.116453
-0.711867
0.142721
0.0428839
-0.897048
