0.83891
0.374066
-0.0980404
-0.869039
0.493851
-0.155206
-0.798043
0.575118
0.661327
0.672474
-0.0351306
-0.0977464
-0.0316452
0.189399
0.72361
-0.777154
0.381568
-0.3038
-0.709667
-0.19488
-0.190728
-0.249694
0.631933
-0.508859
0.0904276
-0.831984
-0.869749
0.7527
0.644264
0.84694
0.241391
0.156581
-0.016462
-0.424002
-0.654163
0.593767
0.512109
0.34375
-0.45865
-0.708103
0.244983
0.769806
-0.648685
0.574576
0.54867
0.403941
-0.835934
0.621869
-0.58138
-0.342177
-0.28812
0.885399
0.840898
0.192642
0.877361
0.754448
0.883208
0.740596
0.422146
-0.683529
0.621
-0.754825
-0.0897529
-0.228621
-0.200039
0.735243
-0.644426
0.0157903
-0.113363
-0.402878
-0.483617
-0.607578
-0.495593
-0.799366
-0.249458
0.0384794
-0.0653684
0.319942
-0.324014
-0.303622
0.822055
0.109084
-0.274008
0.716544
0.718381
-0.655899
0.578427
-0.883268
0.666279
0.573646
-0.633087
-0.203034
0.357463
-0.10115
-0.646614
0.269815
-0.0273085
-0.735352
0.516283
0.588363
0.843593
-0.41417
-0.172363
0.175766
-0.370758
0.629986
-0.323983
-0.267384
0.699923
-0.0909456
-0.0609319
-0.0619787
0.466046
-0.751302
-0.33094
0.362382
-0.748897
0.206326
0.591115
-0.766533
0.71668
0.358834
-0.749734
-0.148154
-0.532514
0.264628
-0.171551
-0.0685694
-0.308938
-0.0481608
0.358178
0.621101
0.619094
0.241131
0.484381
0.708024
0.117321
-0.494176
-0.0476957
0.339811
-0.457125
0.670642
0.709931
0.325436
0.0240363
-0.726341
0.259626
0.235083
0.487364
0.610473
0.372999
-0.879253
0.382719
-0.0721806
-0.157972
-0.279891
-0.654391
0.395161
-0.870609
0.0100541
0.300008
0.254816
-0.238564
-0.248676
-0.493421
0.368837
-0.268554
0.241561
-0.107616
-0.283735
0.546625
-0.565653
0.588096
-0.745281
-0.0271331
0.337356
-0.859419
-0.474039
-0.22533
-0.346823
0.249347
-0.48218
-0.780877
-0.624399
-0.572199
0.512421
0.33632
-0.616899
-0.143695
0.0171619
0.0410206
-0.510141
0.398208
0.552024
-0.372665
0.39057
-0.420507
0.763138
-0.829193
0.769831
-0.506762
-0.317259
0.584666
0.0572293
0.599972
0.74302
-0.899787
-0.830233
-0.435915
-0.152603
-0.233546
0.398253
0.269078
0.0482906
0.758056
-0.750899
0.255945
0.4485
-0.818847
0.400543
-0.66447
-0.895457
0.790294
-0.52235
0.170163
0.605767
-0.651051
-0.291985
0.924033
-0.6368
0.517982
0.804125
0.656293
0.722451
-0.282155
-0.0735917
-0.282638
-0.338537
0.772903
-0.229402
0.567882
0.853105
0.744029
-0.44902
0.676212
-0.554646
0.744875
-0.776648
-0.794474
-0.78569
-0.271969
-0.148415
0.83336
-0.81993
0.237855
0.841916
0.312063
0.389235
0.568393
-0.578433
0.178185
0.743383
0.139796
0.506138
-0.817985
0.0116027
0.291448
-0.668819
0.00741456
0.79992
0.569324
0.294479
-0.863181
-0.100143
-0.715379
-0.39908
-0.447886
-0.433
-0.842508
0.835094
-0.0515182
0.664426
0.301564
-0.0115414
0.263847
-0.368212
0.405677
-0.393123
0.335394
-0.0889898
0.509894
0.87444
-0.705305
0.873764
-0.194487
-0.714096
-0.77326
-0.339408
0.164996
-0.78078
-0.0266861
0.274657
0.151582
-0.447955
-0.908835
-0.562219
0.655641
-0.592003
-0.255611
0.532571
-0.388833
-0.134282
0.656082
-0.141256
0.735055
-0.0351426
0.816857
0.174016
-0.727224
-0.530295
-0.400911
-0.346394
-0.63189
-0.714974
-0.145491
0.795956
-0.302708
0.490525
0.619991
0.39522
0.4943
-0.270945
0.375188
0.50282
-0.889609
-0.70167
0.286159
-0.900912
0.487511
-0.518819
0.529709
-0.498955
0.459051
0.272461
-0.801276
-0.213503
-0.453557
0.361383
0.810275
0.0154149
-0.466092
-0.134234
-0.581296
-0.138066
0.386215
0.0975876
-0.0892299
-0.578243
0.103306
0.0293601
-0.481247
0.898369
0.846817
0.293687
0.754892
0.605412
0.821424
0.910813
0.851177
-0.660475
0.353133
0.31925
-0.416947
-0.535845
-0.719564
0.496456
0.224074
0.0123413
0.397572
0.388739
0.123679
-0.795526
0.145602
-0.258144
-0.0841677
0.468344
-0.540359
0.148691
-0.354965
0.503896
-0.90437
-0.0526753
0.196699
-0.111233
0.338976
-0.637656
0.489753
0.162987
0.120775
-0.639285
