0.224275
0.488443
0.316441
-0.467149
0.162036
0.0245746
-0.666566
-0.43031
-0.226528
-0.0477854
-0.503768
-0.378834
-0.109254
-0.784298
-0.468895
0.375783
0.436784
-0.87793
0.062044
-0.89172
-0.904802
0.553267
0.392901
-0.428949
0.527005
0.345363
0.851722
-0.0606536
-0.478698
0.848783
-0.0274323
0.230457
0.848092
-0.681038
0.953846
0.952315
0.873114
-0.658173
0.525746
-0.902206
0.916181
-0.692756
0.862219
-0.68693
0.726993
0.895126
0.436278
0.523426
-0.807499
0.445603
0.908122
0.217888
-0.929629
0.394806
0.0602802
-0.0564163
-0.922542
-0.0128744
0.186515
0.546478
-0.922255
0.955988
0.721802
0.803456
0.235397
-0.150976
0.859447
-0.206889
0.425107
-0.0561836
0.922581
0.16573
0.30498
-0.961249
-0.127289
0.319689
-0.0739726
-0.470427
-0.313966
-0.199982
-0.280595
0.640489
0.225955
-0.915005
0.434616
0.747239
0.577761
-0.506414
-0.323217
-0.703676
-0.213945
0.164825
-0.903468
0.0993649
0.353896
-0.278467
-0.380362
0.174166
-0.996095
-0.829802
-0.833486
-0.987226
-0.678775
-0.572051
0.320719
-0.605191
-0.831494
-0.0638655
-0.1465
-0.882135
-0.297128
-0.800817
0.411169
0.395374
0.839791
-0.937941
0.79914
-0.750086
0.153489
-0.380612
0.957605
0.998678
-0.742731
0.455623
0.455127
0.438282
0.628371
0.139841
0.885763
0.980124
-0.872
0.864779
-0.501665
0.668347
0.080387
-0.588953
-0.106943
-0.41634
0.387888
-0.985623
-0.706166
0.847844
-0.477301
-0.201534
0.588409
-0.583184
-0.617135
-0.843131
0.235906
-0.594766
0.0182823
0.164561
-0.43647
-0.144376
-0.465705
-0.926025
-0.261502
0.522141
-0.381917
0.267009
0.878336
0.886017
0.472306
-0.4564
0.0129354
-0.397944
-0.428079
0.249578
-0.134903
-0.353407
-0.940833
0.166884
0.258932
-0.851925
0.0467232
-0.471292
-0.353688
0.976215
-0.0252896
0.560919
0.00629742
0.006174
0.0064024
0.649518
-0.620123
-0.925921
-0.0304583
0.778085
-0.531311
0.170156
-0.780489
-0.398836
-0.459411
-0.493103
0.570352
-0.100627
-0.741078
0.137992
0.653933
-0.974896
-0.547207
0.0720766
0.280671
0.680195
0.193413
0.833187
0.586885
0.846364
0.304817
-0.950277
0.74752
0.153053
0.10938
-0.513054
-0.413767
-0.697734
0.400439
0.140216
-0.133759
0.420223
0.366124
0.0973043
0.828738
-0.368244
-0.6186
-0.693792
-0.858629
0.0528697
-0.908613
0.724714
0.0984258
-0.861154
0.331492
-0.725564
0.178308
0.413429
0.36769
0.646312
-0.33689
0.73262
-0.689351
0.551508
-0.717518
-0.774921
-0.0532253
0.848128
0.807503
0.31885
0.581997
0.212191
-0.358047
-0.95184
0.085357
-0.332134
-0.540865
0.144513
0.372691
0.534001
-0.867496
-0.0857771
-0.0933415
0.771433
-0.157744
0.385877
0.893031
-0.595465
-0.357808
0.239645
-0.997525
-0.256839
-0.639357
0.582858
-0.997446
-0.907303
0.808766
0.637629
-0.427572
-0.396359
0.470407
0.162137
0.077372
-0.252646
0.775699
0.719457
-0.537206
0.239239
-0.557829
-0.405761
-0.114538
-0.909537
-0.307131
-0.632451
0.721598
0.1356
-0.457589
0.404158
-0.350817
-0.273992
-0.571874
-0.998336
-0.0444363
-0.494765
0.25898
-0.238165
-0.989755
0.885702
-0.131889
0.171713
0.201827
-0.604986
-0.446174
-0.341133
-0.0124424
-0.346416
0.550892
-0.942019
-0.0810751
0.428447
-0.386036
0.516894
0.00803786
0.144648
0.274029
0.992043
-0.920885
0.665863
-0.73372
0.152072
-0.896279
0.966291
-0.160578
0.0721695
0.482709
-0.286159
-0.263247
-0.366245
-0.35641
-0.271995
-0.0960742
0.251375
0.0772524
-0.577371
-0.723191
0.112385
0.866383
-0.918623
-0.645298
0.388491
-0.327454
0.743408
-0.803969
0.434287
-0.89415
0.0350411
-0.377974
-0.980812
0.871486
-0.014978
0.515116
0.97683
-0.812414
0.689834
-0.535369
-0.0139058
-0.0129388
-0.213439
0.289152
0.808532
-0.588927
-0.0530805
-0.498177
0.419348
-0.353237
0.0333396
-0.205162
-0.461687
0.115077
-0.868704
0.667316
-0.233274
0.752086
-0.0193963
0.555183
0.706015
-0.573557
-0.249004
-0.814525
-0.991165
0.878592
0.643796
0.154513
0.698828
-0.226832
-0.132531
0.414757
0.581969
-0.730381
0.32585
0.582373
0.242038
