-0.981422
-0.825918
0.499832
0.634653
-0.0782508
-0.323506
-0.0565606
-0.670073
-0.0830572
-0.990133
0.602382
-0.140276
0.835152
0.277575
0.942699
-0.663366
0.637852
0.480379
0.111802
-0.801037
-0.412083
0.279515
0.0920235
0.574801
0.2393
0.227918
0.0240191
-0.687245
-0.10978
0.956701
0.737275
0.914532
-0.467394
-0.486236
-0.52672
0.934305
-0.652763
-0.912849
-0.807211
-0.118997
-0.26905
-0.139287
0.762913
0.933327
0.523545
0.0125087
0.923244
0.0779671
0.686621
0.656886
-0.0432302
0.237978
0.347013
-0.869417
-0.615147
-0.951117
0.165718
0.499479
0.810473
-0.599456
-0.145604
0.978082
0.610199
0.668349
0.903686
0.309394
-0.822876
-0.0814292
0.221482
0.169345
0.828009
0.799416
0.81002
0.590666
0.316715
-0.139896
0.0852422
0.65137
0.013241
0.959943
-0.921078
0.00249257
-0.94328
-0.761702
-0.406592
0.336845
-0.686379
0.231088
-0.994081
0.610642
-0.409727
0.846837
0.948007
0.986572
-0.482954
-0.861185
-0.629512
-0.12214
0.920388
-0.141545
0.29065
0.571795
-0.165669
-0.49242
0.186432
-0.812376
0.0915341
0.0228696
0.332076
-0.567578
-0.0918886
0.381628
0.868875
-0.867812
-0.715266
-0.934703
0.840418
-0.0766495
-0.752265
0.109731
-0.630138
-0.0540274
-0.559808
-0.477051
-0.742404
-0.371007
-0.408953
-0.380563
0.379747
0.381806
-0.529545
-0.916954
0.37248
-0.944345
0.658043
0.738779
-0.406062
0.367673
0.0357314
-0.530173
0.469705
-0.0201734
-0.28517
0.8344
0.07845
-0.251422
0.504773
0.785763
-0.20138
0.222025
-0.806245
0.0605613
-0.38078
0.672057
-0.695478
-0.50033
0.0111783
-0.752317
-0.22449
0.671755
-0.998652
0.724844
-0.971943
-0.196569
0.866257
-0.0653182
-0.500884
0.478255
-0.325177
0.145012
0.139236
-0.470012
0.476411
-0.497545
-0.88057
-0.991688
0.241454
0.837291
-0.170092
-0.931013
-0.262154
0.738776
-0.724683
-0.199803
0.69297
0.186891
0.371583
-0.94198
0.457377
-0.0391444
-0.870054
-0.36912
0.60547
-0.805887
-0.432256
0.804097
-0.616634
0.0672688
0.659933
0.466341
0.478301
-0.0354116
0.981514
-0.942314
0.876932
0.884566
0.241442
0.764169
-0.662461
0.349317
-0.124711
0.526051
0.472773
-0.884561
0.452014
0.40125
0.0963119
-0.0863753
-0.25431
-0.656344
-0.297376
-0.210343
0.994021
0.95696
0.237506
0.416989
-0.989319
-0.599166
0.100227
-0.82763
0.239261
-0.0171158
0.535722
-0.813533
0.814014
0.531785
-0.209103
-0.52114
-0.429978
-0.757837
0.824646
0.63371
-0.980416
-0.857245
0.361053
0.729412
-0.0498267
0.479233
-0.777464
-0.973507
0.527592
-0.557465
-0.604891
0.970844
-0.386028
0.602398
-0.913689
-0.677025
-0.438502
-0.542812
-0.713785
0.185038
-0.955914
0.420208
0.897007
0.928596
-0.282365
0.456972
0.885913
0.389803
0.795954
-0.640548
-0.79914
-0.416228
-0.0740123
0.502241
0.805057
0.497955
0.0493369
-0.853109
-0.770861
0.434831
-0.920498
-0.932318
0.53485
0.44674
-0.348063
0.673135
-0.904139
0.711771
0.355689
0.543596
-0.132069
0.719356
0.297871
-0.590334
-0.740238
-0.953311
-0.732528
0.130926
0.635941
0.11211
-0.808817
0.661971
-0.366534
-0.51912
0.048329
0.271541
-0.864433
-0.235165
-0.258892
-0.216207
0.0267002
-0.523204
0.870585
-0.470602
-0.757155
-0.764229
-0.137826
-0.388718
-0.164363
0.238028
0.078294
-0.372743
-0.407352
0.874921
0.38611
-0.758864
-0.314655
-0.618917
-0.318799
-0.22218
-0.585339
-0.872887
-0.40619
0.683232
0.156562
0.704977
-0.355725
-0.405455
-0.303189
0.668405
-0.208081
-0.0544118
0.557413
-0.358658
-0.803733
-0.811149
0.265169
0.0890275
-0.442763
0.737505
-0.800879
0.313637
-0.545604
0.668805
0.171916
0.996181
-0.204641
-0.24064
-0.338388
0.450034
0.963944
-0.752888
0.840183
0.230006
-0.458515
-0.141224
0.684578
0.601874
-0.79921
0.763891
-0.129268
-0.85226
0.0265848
-0.249861
0.714901
-0.855426
0.488147
0.910062
-0.0840765
0.836363
-0.567449
0.576553
0.639966
-0.448674
-0.617505
-0.408224
-0.746893
0.0397976
-0.0577765
0.520722
0.294143
0.340304
0.24407
-0.555869
-0.566837
-0.908476
0.81806
-0.458488
