0.5445
0.530972
-0.191586
-0.193725
0.959046
-0.421652
0.011795
-0.641842
0.247731
0.128494
0.838664
0.606169
-0.690624
0.379901
-0.50447
0.637554
-0.61702
0.666457
-0.278789
0.886969
-0.719003
0.0517669
0.825181
0.511471
0.861067
-0.990169
0.497182
-0.0756166
-0.308965
0.705375
-0.234681
-0.0599401
0.882944
-0.953591
0.276684
-0.0504596
0.773468
0.896683
0.186882
0.615524
0.768094
-0.681502
0.57343
0.916296
-0.88567
-0.645043
0.382887
0.386998
0.465069
-0.293921
-0.496387
-0.962852
0.355516
0.85378
0.208423
-0.335502
0.0638418
0.698343
0.892802
0.216618
0.389203
-0.480157
-0.747074
-0.632399
-0.0406019
-0.406657
0.677683
-0.25007
0.219416
-0.467941
-0.782917
-0.255138
-0.69266
-0.89015
-0.0848199
-0.621355
-0.242282
0.353655
0.855467
-0.558851
-0.501579
-0.443332
-0.435989
-0.327962
0.77105
0.976003
0.000685668
0.426638
0.642008
-0.64535
-0.419136
-0.313691
-0.923146
-0.64836
-0.839919
-0.197848
-0.370391
0.957032
0.692372
-0.376057
0.878661
0.815258
-0.792583
0.990592
0.901907
0.439218
0.783937
-0.399281
0.951481
-0.271352
0.0980107
0.726335
0.858794
-0.555746
-0.39432
0.0603661
-0.494111
0.896683
-0.696494
-0.391329
0.361169
0.562724
0.252188
-0.0751359
-0.52967
0.983564
0.649877
-0.469444
-0.0576181
-0.612806
0.996342
-0.708684
0.0574525
-0.509033
0.331083
0.761421
0.867652
-0.938195
-0.674897
0.55621
-0.132427
0.096039
0.516895
0.307944
-0.387152
-0.958742
-0.650021
0.647104
0.742927
-0.909952
-0.207065
0.831149
-0.704963
-0.0788702
0.830979
0.676138
-0.920031
0.74055
-0.540873
-0.0317714
-0.329621
-0.826926
-0.847209
-0.916083
0.335163
0.705198
0.238062
0.373008
0.141427
0.102768
-0.353381
-0.946461
0.222368
-0.193944
-0.956028
0.237676
-0.980452
-0.541661
-0.524269
-0.292259
0.020201
0.456197
-0.958937
-0.0844231
-0.0780877
0.92235
-0.848362
-0.446363
0.205738
-0.438138
0.0697814
0.256566
-0.36805
0.0906441
0.700052
-0.163746
-0.881291
0.5493
0.780876
-0.129916
0.413422
-0.115663
0.803237
-0.290161
0.802388
0.418582
0.373416
0.143956
-0.84046
0.936615
0.896123
0.604854
0.238876
-0.949848
0.00277034
0.580242
-0.927855
0.461425
-0.187095
-0.454297
0.0229479
-0.373036
-0.0900998
0.820098
-0.519054
0.235609
-0.239761
-0.0543074
0.0626608
-0.703811
-0.0747273
0.36933
-0.0511791
-0.0756474
0.43582
-0.0566585
0.498202
-0.550381
0.118028
-0.799286
-0.482474
-0.476254
-0.881302
-0.80379
-0.00759304
0.179941
-0.085634
-0.17257
0.314614
0.420072
0.800999
0.947961
-0.322572
0.133824
0.211568
0.673303
-0.611951
0.939967
0.480157
-0.759767
0.477933
0.400347
-0.19002
0.609778
0.701484
-0.898058
-0.583502
-0.116727
-0.995345
-0.0527501
-0.0977974
0.0880868
0.786485
0.439207
-0.373997
0.0328527
0.681549
-0.86523
-0.154722
0.958888
-0.140854
0.827772
-0.953783
-0.66454
-0.672854
0.532381
0.574472
0.211464
-0.378092
-0.559119
-0.206278
0.430479
-0.141916
0.309242
0.751908
-0.679668
0.167629
-0.285943
-0.769315
0.268652
-0.875289
0.731326
-0.487535
-0.584844
-0.77754
0.790336
0.971294
-0.546811
-0.445638
0.466921
0.374523
-0.30721
-0.147246
0.381701
0.497875
-0.19733
-0.338217
-0.325836
-0.766245
0.749764
0.0983325
-0.0565398
0.475835
-0.0422337
0.924105
0.229095
-0.0128214
0.0308307
0.498897
-0.123857
0.0702462
-0.0199616
-0.927401
0.272983
0.518298
-0.885692
0.934902
-0.842686
-0.406675
0.843699
0.753442
0.674778
-0.388187
-0.906361
0.200915
-0.884065
-0.146511
-0.767838
-0.266362
-0.999962
-0.686479
-0.651335
-0.193492
-0.827826
0.237213
0.966984
-0.349845
-0.216453
-0.863611
-0.382665
0.877982
-0.2574
-0.804013
0.708839
0.536351
-0.595067
-0.79289
-0.818301
0.180607
-0.02777
-0.695773
-0.0948763
-0.133491
0.283003
-0.461546
-0.810812
0.69718
-0.0781539
0.256065
0.738988
0.112422
0.00703205
-0.291974
0.168518
-0.134574
-0.392059
0.446285
-0.437982
0.465535
-0.603309
0.807269
-0.455765
-0.432893
0.830698
0.350815
0.970727
0.191259
0.969421
-0.728471
-0.426074
-0.0219497
0.447006
0.442715
-0.93372
-0.0632336
0.604664
0.275786
0.844325
-0.560122
-0.357852
0.226618
-0.324782
0.544602
-0.273895
-0.377625
-0.780127
-0.722649
-0.447455
0.325842
0.817976
-0.625587
-0.0485421
0.0193919
-0.76357
-0.690119
-0.150997
0.157918
0.974035
-0.677426
-0.797813
-0.190479
-0.0763429
0.304136
0.888309
-0.32006
0.449478
0.0554222
-0.278374
-0.0325253
-0.104773
-0.516234
0.238286
-0.819385
-0.667325
0.196572
-0.634379
0.878263
0.921389
-0.831297
0.880945
-0.407747
-0.164872
0.761581
-0.568803
0.982249
-0.974329
0.725366
0.918882
-0.277001
-0.256419
0.394985
0.0386022
0.00722932
0.686871
0.810739
-0.975117
0.358448
0.844605
0.0552563
0.0101276
-0.321003
0.876177
0.435724
0.145182
0.00801207
0.848476
0.272024
0.804427
-0.114388
0.368884
-0.640081
-0.271699
-0.867198
-0.0433932
-0.0357508
0.000646451
-0.114557
-0.89706
0.326361
0.161504
0.526603
0.441521
0.237424
-0.231243
0.0488283
0.349037
-0.205353
-0.993465
-0.715283
-0.0279952
-0.620975
0.325923
-0.498228
0.299654
0.332433
0.832456
-0.510199
0.115488
0.973965
0.708163
-0.758469
-0.240107
-0.921451
0.171624
0.661212
-0.603009
0.816141
-0.944175
0.167712
0.715736
0.92239
-0.988761
0.404079
-0.972989
0.670664
-0.229401
0.260314
-0.771885
0.168237
-0.919819
0.70286
-0.0403035
0.778076
-0.645937
-0.193141
0.0474674
-0.472214
0.233115
-0.478598
-0.72801
0.656496
0.480153
0.974956
-0.916537
0.852323
0.401138
-0.793057
0.041822
-0.805853
0.371064
-0.634168
-0.488933
-0.831447
0.215983
-0.265501
0.415811
-0.103312
0.294982
-0.880034
-0.490618
0.355977
0.820954
0.583356
-0.845099
0.447345
0.845025
-0.313272
0.251141
0.323332
-0.69403
0.384585
-0.405998
0.187474
-0.23887
0.63156
0.0977784
-0.0662974
-0.163823
0.168608
-0.486819
-0.899812
-0.544065
-0.544397
0.833976
0.0222255
-0.388236
-0.23304
0.581622
-0.284065
0.456635
-0.968224
0.173108
-0.622031
0.207123
0.337279
-0.9184
0.917297
0.312006
-0.909148
0.572072
0.395638
0.658083
0.953557
0.179383
-0.890413
-0.472655
-0.576527
0.884992
-0.267375
0.331911
-0.0116434
0.406933
0.40897
-0.838526
0.0519826
0.303629
-0.641797
0.939949
0.901048
0.565549
-0.436405
0.193672
0.712836
-0.322906
0.0923014
0.0716879
0.653269
0.0504897
-0.10638
0.554604
-0.288634
-0.584647
-0.37874
0.599762
0.662192
-0.61009
-0.849179
0.42292
0.231169
-0.339507
0.392963
0.705184
0.615789
0.885384
0.110684
0.863709
-0.339588
-0.527519
0.743246
-0.963702
-0.175923
-0.749586
0.619314
0.820857
-0.0429869
0.905461
-0.63234
-0.0394584
0.607108
0.962152
-0.699103
0.570299
-0.167743
0.850426
-0.996227
-0.196003
-0.380162
-0.160855
0.393764
-0.148532
-0.553489
0.376222
-0.747502
0.308609
-0.0203404
0.816965
-0.383392
0.764341
0.00841838
0.636645
0.8903
-0.151018
0.260812
0.93323
-0.510495
0.720459
-0.584562
0.736563
-0.616274
-0.417418
0.646897
0.616895
-0.422952
-0.725988
-0.802122
0.958918
0.605361
0.770147
0.106785
0.620434
-0.00685691
0.557449
-0.00864158
-0.842718
-0.560204
-0.318669
0.263162
-0.880495
0.920439
0.828531
-0.9467
-0.213141
0.428144
0.297676
-0.740444
0.765164
0.119547
-0.0865882
-0.33263
0.481693
0.914835
0.609039
-0.43551
-0.949102
-0.720225
-0.301601
-0.692182
-0.762213
-0.95035
0.786312
-0.0590995
0.81886
0.419684
0.442104
-0.589882
0.481348
0.427852
0.494553
0.291237
0.0849727
0.698055
-0.489724
-0.847779
0.378464
-0.281422
-0.484968
-0.312166
-0.187
0.279379
-0.732478
-0.845907
-0.820189
0.571441
-0.416122
0.680662
0.423071
0.343264
-0.736685
-0.579238
0.943897
0.588465
0.0145028
0.727869
-0.88262
-0.258832
-0.853532
-0.427071
0.42906
-0.748783
0.999825
0.441826
-0.326886
0.994204
0.0220961
-0.0488561
0.960108
0.441741
0.488537
0.0897257
0.769136
0.312724
0.130259
-0.976079
0.988195
0.106116
-0.149867
-0.835379
0.629794
0.141882
-0.848886
-0.804124
0.958132
0.490661
0.755022
0.295913
0.206088
0.576198
-0.229544
-0.438674
0.150104
0.114262
-0.396586
-0.16478
-0.197779
0.558724
0.453334
-0.304479
0.597756
-0.0288477
0.707707
0.173165
0.380803
-0.759559
-0.987035
0.174388
-0.778181
-0.0256656
0.706073
-0.330305
0.153407
0.0172146
0.958856
0.348969
-0.806288
-0.731824
0.860096
0.814257
-0.318586
-0.985027
-0.336599
-0.706169
0.52635
-0.429376
0.163236
-0.821968
-0.472858
0.509227
-0.388458
0.0280281
0.268103
-0.149122
-0.856861
-0.664784
0.507133
0.0324071
0.285507
-0.0739529
-0.596671
0.494175
-0.24747
0.286976
0.262055
-0.573111
-0.545032
0.765807
0.32341
0.866843
0.426235
0.72579
0.96165
0.309864
-0.506189
0.0605954
-0.278403
0.0748031
-0.685967
-0.000462324
-0.0552834
-0.100056
0.186089
0.896661
0.58551
0.409453
-0.335079
0.335397
0.894403
-0.517956
0.350511
-0.708551
0.769951
0.728766
0.546429
-0.191377
-0.981063
-0.935282
-0.975989
0.662907
0.134938
-0.954012
0.541434
0.978649
-0.384623
-0.00661012
0.376494
0.869391
0.718768
-0.575614
-0.368195
0.356231
-0.492536
-0.586468
0.847446
0.604575
0.118964
-0.580915
-0.222804
0.011874
-0.16146
0.699221
-0.838533
0.208322
0.0694137
-0.29979
0.575411
-0.075043
-0.795082
-0.74455
0.528928
0.916957
0.983977
0.165662
0.792335
0.485622
0.551142
0.0161408
-0.292491
-0.226558
-0.852426
0.738986
0.587867
0.450544
-0.617219
0.302055
0.387469
0.0892435
-0.46868
0.833548
-0.506942
-0.890086
-0.540166
-0.898235
0.28294
-0.478972
-0.0561913
-0.975734
-0.489416
-0.0296238
-0.917147
0.289508
-0.0839825
-0.797034
-0.37876
0.259212
0.898776
0.0857952
-0.28208
-0.51551
-0.689611
-0.889802
-0.448807
0.200103
-0.681324
0.949379
-0.845207
0.45837
-0.328954
-0.754805
0.238802
-0.981803
-0.326065
0.780776
-0.488772
-0.322104
-0.298188
-0.588078
0.542827
-0.973915
-0.115306
-0.572562
-0.491226
-0.471694
0.891254
0.844438
-0.524304
0.00150543
-0.880474
-0.0381225
0.75297
-0.9259
0.169691
-0.276018
0.248593
0.497773
0.246558
0.756772
0.395406
0.197641
-0.998453
0.738204
0.32731
0.574741
0.238732
-0.654946
0.162059
-0.897105
0.529526
-0.391207
0.949045
-0.59272
-0.125743
0.448751
0.634395
-0.582235
0.490039
0.303343
0.114168
-0.239131
0.611603
0.873664
0.197728
0.734807
-0.329185
-0.58442
-0.733023
-0.20179
-0.33941
-0.932423
0.304109
0.471197
0.19389
-0.906843
0.373449
-0.414963
0.429468
0.0299725
0.72579
0.859355
-0.986107
-0.35357
0.477339
-0.85151
0.202974
0.593666
-0.606785
0.760193
-0.234848
0.298166
0.0342054
-0.20649
-0.553321
0.0878734
0.90081
0.492132
-0.280834
-0.21775
-0.462109
-0.895195
0.261544
-0.572195
-0.25558
0.75237
-0.499102
-0.0451262
-0.288706
0.337263
-0.952413
-0.270919
-0.623403
-0.482275
-0.60016
-0.551461
0.787121
-0.694735
-0.737815
0.629523
0.899901
0.443933
-0.00315546
-0.426225
0.0818103
0.827152
-0.0874845
-0.528858
-0.317627
-0.0209957
-0.437488
0.708552
-0.11164
0.660189
0.355735
0.112783
0.932961
0.63609
-0.536604
0.794271
0.65146
-0.222955
0.439163
0.497284
-0.641406
-0.98018
0.427992
-0.813443
0.213094
0.0590041
0.816154
-0.44867
-0.313082
0.156994
0.46387
0.591382
-0.617113
0.725638
-0.393463
0.363565
0.22051
0.664796
0.159948
-0.315105
-0.81168
0.397351
-0.661593
-0.85926
-0.638087
0.680952
0.0295529
-0.809964
-0.132498
0.758702
0.416072
0.878255
0.718113
-0.213906
-0.204892
-0.455237
-0.330182
-0.920095
-0.762375
0.6575
-0.0741275
-0.09324
0.9968
-0.70507
-0.0188765
0.211171
0.911565
0.57794
0.251471
0.907181
0.295347
-0.59934
0.286769
-0.00454794
0.98234
-0.811289
0.0765839
-0.984474
-0.022504
-0.815731
-0.447178
0.303444
0.247202
0.341166
0.315335
0.0564057
-0.606814
0.990077
-0.799032
0.876405
0.64324
0.440576
-0.720166
-0.773832
-0.273277
0.618819
0.65645
0.167005
0.307091
-0.923191
0.790585
-0.750754
-0.198144
0.697271
0.630983
-0.15334
0.339586
0.996993
0.841198
0.713665
-0.184141
-0.425284
-0.439453
0.166817
-0.457572
0.397553
-0.292668
-0.158925
0.231684
0.338586
0.949633
0.590911
-0.395226
-0.897025
-0.318742
0.769001
0.609321
-0.0642126
0.536062
0.360572
-0.32047
0.0191053
-0.225723
-0.173238
-0.282269
-0.89004
-0.473917
0.821622
-0.357953
-0.542252
0.127585
0.176202
0.528837
-0.0204637
0.210777
0.370241
-0.603933
-0.346802
-0.500282
0.668473
0.934991
-0.421281
-0.700231
0.675622
-0.250002
-0.0339966
-0.642336
-0.827174
-0.500297
-0.490029
0.43481
0.668854
0.324036
0.832755
0.902402
-0.176459
-0.731093
0.96685
0.739488
0.645095
0.635295
-0.343375
-0.0181204
-0.995912
-0.152068
-0.227907
-0.316069
-0.55881
-0.173389
-0.988008
-0.616689
-0.373757
-0.233445
0.76049
-0.647987
0.67974
-0.262576
-0.0852346
-0.625013
-0.913944
-0.712408
0.475292
-0.0512683
0.954581
-0.139498
0.13764
0.287068
-0.924096
-0.330518
0.610441
-0.54572
-0.200138
-0.717303
0.963686
0.614878
0.0614589
-0.0791821
-0.823957
-0.497669
-0.300973
-0.850131
-0.29825
-0.0712308
0.00102446
-0.491505
-0.0433951
-0.261659
-0.346882
0.739189
-0.160863
0.866449
-0.552552
-0.441699
0.153735
-0.193607
0.356932
-0.144211
-0.45512
0.520681
-0.459628
-0.481981
0.926472
0.125658
0.778316
0.935989
0.0648868
-0.999769
-0.242906
0.228909
0.949439
0.741895
-0.592832
-0.282537
-0.634959
0.192103
0.726124
0.259191
0.832038
-0.949326
-0.583535
0.254425
0.227587
-0.23385
-0.482505
-0.39019
0.364553
-0.405701
0.979472
-0.758397
0.330513
0.724721
0.627092
-0.457316
-0.466176
-0.863839
0.854549
0.669924
0.412232
-0.839702
0.531368
-0.717876
0.605179
0.15149
0.226787
0.398231
-0.242881
0.44009
-0.356925
0.99435
-0.521529
-0.688308
0.843194
-0.711706
0.142478
0.736102
-0.850853
-0.0681534
0.811295
0.669466
-0.985078
0.514796
-0.619279
0.0352723
0.707136
-0.378402
0.847862
0.54286
0.494998
-0.815394
0.200151
0.0294504
0.958268
0.815017
-0.515803
-0.0347804
-0.801968
0.752479
0.986089
0.382739
-0.568613
-0.812643
0.16278
0.781333
0.175022
-0.646146
-0.526844
-0.24753
-0.777312
0.0651324
0.649653
-0.0055393
0.416446
-0.845581
0.493271
0.833219
0.0537319
-0.623874
-0.132918
0.23172
-0.794902
-0.405775
0.861131
-0.240043
-0.855031
0.353186
-0.669153
0.128491
-0.450814
-0.348944
0.160613
-0.812752
0.065696
0.646925
0.684288
-0.765487
0.707082
-0.202401
0.732103
-0.296476
-0.53951
0.870209
-0.677621
-0.66789
0.278335
-0.781716
-0.569898
-0.0929743
-0.235757
0.908937
0.57358
-0.832291
0.287371
-0.163349
-0.54866
0.120315
-0.738351
-0.171389
0.0961691
-0.805654
-0.450732
0.997023
0.393696
0.391548
-0.45355
-0.41328
-0.0708072
-0.0852069
-0.853416
-0.442876
-0.0727436
-0.955562
0.35721
0.0960564
-0.135034
-0.417364
0.839561
-0.675752
0.162473
0.864737
-0.81466
0.908716
0.0657165
0.31184
-0.937274
-0.459924
-0.377976
0.997809
0.373956
0.115328
-0.669178
-0.157078
0.727481
-0.907921
-0.621197
-0.612676
0.570995
0.19212
0.999394
-0.473619
-0.553012
-0.619873
-0.993077
-0.294914
0.814764
-0.658487
-0.866191
0.806891
-0.116721
0.223889
0.747155
-0.26488
0.0588576
-0.943251
-0.59063
-0.708535
-0.304418
0.0460906
-0.567803
-0.143645
0.651524
0.303119
0.977056
0.321689
0.263316
0.891172
-0.714833
-0.0390327
0.645124
0.181565
0.418959
0.941508
0.917489
-0.622271
0.514386
0.00490239
-0.387446
0.567592
0.81051
-0.768652
-0.947785
-0.965715
0.00195637
0.103584
-0.161032
0.537051
-0.822124
0.305705
0.974253
-0.575702
0.78498
0.0478948
-0.783539
-0.056079
0.259349
-0.127307
-0.89302
0.966676
-0.984224
-0.943384
-0.891703
0.476886
0.0461195
0.423271
0.470549
-0.776379
0.714408
0.120407
0.991013
-0.915559
-0.893312
0.489206
-0.597206
0.149255
0.127521
0.97144
0.810591
0.372297
0.778756
-0.550226
-0.386612
-0.219586
-0.87487
-0.453667
-0.577584
0.852055
-0.0983636
-0.247237
0.283502
0.977233
0.62892
0.269539
-0.850259
0.21371
0.162192
-0.0839858
0.90822
-0.974967
-0.605161
0.0452566
-0.662402
0.340991
0.197116
-0.92467
0.861835
0.904354
-0.807141
0.105248
0.0306607
-0.592322
-0.371011
0.316524
0.335247
0.493896
-0.729975
-0.646515
0.640226
-0.0162579
-0.0526036
0.552684
-0.324892
-0.646428
-0.988167
-0.618664
-0.309287
0.868103
0.402272
0.387141
-0.440626
0.100381
0.703204
0.501252
0.213905
0.0459477
-0.406665
-0.818632
0.168135
0.681166
0.305542
0.394729
0.93661
0.633712
-0.523498
0.142189
0.690709
0.937839
0.487452
0.662487
-0.773736
0.855824
-0.120643
0.474996
-0.677148
0.292946
-0.0997311
0.798328
0.794555
-0.181572
0.885132
-0.685634
-0.528364
0.340275
0.149678
0.595465
0.744599
0.494116
-0.322987
-0.149714
0.995696
-0.662966
-0.108515
-0.169913
-0.699756
-0.606306
0.615212
0.645337
-0.493357
0.972072
-0.350357
0.967983
0.251909
-0.943146
0.758311
0.344343
-0.809676
0.800659
0.733912
-0.0853437
-0.787142
-0.967844
0.0908435
-0.243214
-0.179285
0.116454
-0.478601
-0.00837779
-0.563222
0.699768
-0.246443
0.0291313
-0.322413
-0.817067
0.40428
-0.994752
0.161168
0.131394
-0.0690456
-0.589705
-0.430681
0.0968305
-0.0524844
0.32102
-0.00780215
-0.512843
0.862139
-0.0784245
0.164277
0.87575
-0.782725
-0.389368
0.614483
-0.0639268
0.997049
0.0393682
-0.375505
0.0938981
-0.73864
0.540285
0.0338642
0.465821
-0.636679
-0.122824
0.147013
-0.416733
0.473983
0.205068
-0.460784
-0.323597
0.496094
-0.33473
-0.201226
-0.771939
-0.466641
0.333252
0.147049
-0.494304
-0.35842
0.493745
0.0741359
0.298751
0.813909
-0.0862227
-0.226689
0.728296
0.693503
0.789251
0.528608
0.291406
-0.840763
-0.303307
-0.00251089
0.484626
0.205137
0.437998
0.884847
-0.178792
0.543294
-0.467201
0.667618
-0.652548
-0.0736313
0.296872
-0.95545
0.339843
-0.14507
-0.265502
-0.253686
-0.0324094
0.782994
-0.788405
-0.81878
0.512504
-0.917551
-0.187768
0.786962
0.358746
0.188978
0.950413
-0.82574
-0.151749
-0.372991
-0.660493
-0.187058
-0.273488
-0.493205
0.144419
0.153201
0.429821
0.423683
-0.0558255
-0.740856
0.766691
-0.0411494
0.121548
0.424328
-0.769184
0.758618
-0.199698
-0.823178
-0.993796
0.715577
0.181316
-0.859454
-0.698007
0.0886039
0.603029
-0.793768
-0.185973
0.251464
-0.201541
-0.357426
-0.666527
0.39072
0.0973522
-0.363775
0.209877
-0.116063
-0.0858233
-0.768076
0.878657
-0.922728
0.262284
0.194251
0.195839
-0.935279
-0.749979
-0.613791
0.690156
0.0302369
-0.996062
0.00426156
0.509045
0.0847104
-0.810949
0.153063
-0.627515
-0.471366
0.648083
0.930301
-0.303867
-0.988954
-0.420246
0.348236
-0.628295
0.419082
0.7819
0.0188268
-0.70505
0.396827
0.784662
-0.353542
-0.137115
0.987984
0.513905
0.855181
-0.276034
0.49524
0.0188946
-0.883647
0.463306
0.0205432
0.60291
-0.956858
-0.0552821
0.963108
0.235965
0.167296
-0.868182
-0.666438
-0.687268
0.781331
0.590701
-0.134979
0.269201
0.326549
0.422091
-0.9554
-0.211708
0.747949
0.910037
-0.429839
0.440184
-0.0252072
-0.203005
0.699517
-0.306679
0.173106
-0.452718
0.484948
-0.173238
0.0770524
-0.0360802
-0.45279
0.56475
0.741803
-0.899939
-0.219597
-0.907338
0.807481
0.398255
0.481644
0.308942
0.791836
0.829818
0.811734
0.910118
-0.154337
-0.0838502
-0.658096
-0.234716
0.661404
0.329199
-0.625841
0.958873
-0.861841
-0.0860774
0.805022
-0.216125
0.252957
-0.901374
-0.357084
0.710767
-0.107459
-0.0705491
-0.779002
-0.756795
-0.314732
0.537953
-0.716289
-0.215442
0.499461
-0.0196121
0.131567
-0.982406
-0.766259
0.300024
0.967236
0.0199363
-0.211754
0.148739
-0.581777
-0.384867
-0.855779
0.802913
-0.0284134
0.818318
-0.094787
-0.38997
0.709834
-0.800312
0.595216
0.637144
-0.914505
-0.236522
0.152556
-0.849406
-0.241231
0.968903
-0.65641
-0.263233
0.664679
0.196238
0.968999
-0.48699
-0.711646
0.97221
0.641518
0.982862
0.453474
-0.866855
-0.105053
0.755941
0.00415829
-0.749584
-0.535742
0.859262
-0.688907
-0.973803
-0.533239
0.0434169
-0.292914
0.811604
-0.666598
-0.219926
0.73415
-0.367063
0.478732
-0.320424
0.320651
-0.335095
0.388245
-0.303135
0.703405
-0.721814
-0.448014
0.759902
-0.313378
0.471118
-0.101914
-0.323851
0.893466
-0.614135
