0.122911
-0.882305
-0.807155
0.12866
0.0619076
0.641623
-0.274419
0.881872
-0.874012
-0.85377
-0.189479
-0.895235
0.0959308
0.655744
-0.412212
0.0736562
0.0927256
0.153273
0.167452
-0.00597491
-0.555353
-0.631103
0.0389656
0.536615
-0.0904539
0.361095
-0.307235
-0.000382511
0.698544
-0.42391
-0.0544968
-0.854783
-0.712004
0.0502252
-0.402878
0.693533
-0.182539
0.187071
0.87419
0.713143
0.921208
-0.870197
-0.598845
0.814424
0.141565
-0.738172
0.276044
-0.916196
-0.565182
-0.395702
-0.776231
-0.802963
0.860337
-0.463483
0.227341
-0.350064
0.739843
0.469211
-0.162458
-0.30353
0.478269
-0.0722866
0.691844
-0.212556
0.316768
-0.128636
-0.706037
0.697247
-0.540044
0.719254
0.198735
0.308577
-0.611172
0.199214
0.0773121
-0.420789
-0.630018
-0.726637
-0.751214
0.0968191
-0.214844
-0.153059
0.482526
0.777049
0.633109
-0.165294
0.44636
-0.0342133
-0.467589
0.350641
-0.807184
-0.0670446
0.586422
0.48401
0.345593
0.256618
-0.0970579
-0.364381
-0.270984
-0.382841
-0.548036
-0.0947694
0.487436
-0.00504819
0.411816
0.114265
0.241671
-0.147739
0.8417
0.468748
-0.853478
-0.531634
-0.606059
-0.132841
0.0555401
0.682528
-0.17436
0.298791
0.220056
-0.547902
0.651618
0.370913
-0.119439
0.359694
0.0353686
-0.892474
-0.514873
0.550198
0.541081
-0.176798
-0.610651
0.293787
-0.913366
-0.0922438
-0.138049
-0.303939
-0.859044
0.703061
0.152879
-0.713588
-0.914728
-0.312491
0.694849
-0.58273
0.015354
-0.0814094
-0.718079
-0.634975
-0.358495
0.876294
-0.437448
-0.554375
-0.738273
-0.238481
-0.729679
-0.708863
0.912277
0.771449
-0.863767
0.139796
-0.858701
-0.468758
0.84474
0.633837
-0.395867
-0.817094
0.748193
0.230758
0.323146
0.123977
-0.45507
-0.0830948
-0.712487
0.00429454
0.170891
0.796795
0.275742
-0.255666
-0.0190947
-0.794921
0.135507
-0.302093
0.00714517
0.32726
-0.407654
-0.543355
0.919159
-0.362485
0.0322345
0.285264
0.70779
0.781145
0.892498
-0.287387
0.712102
-0.567752
0.0842115
-0.346043
0.518053
0.50658
0.153318
0.112441
-0.399477
0.574683
0.892768
-0.323539
0.111638
0.0245462
-0.304222
-0.575901
-0.297469
-0.491687
-0.221267
-0.308342
-0.808567
0.397258
-0.611123
0.686657
0.557446
-0.921715
-0.268003
0.0811331
0.219582
0.30627
-0.682497
0.35266
0.109747
0.706497
-0.741008
0.120514
0.803675
-0.923134
0.246824
-0.570386
0.900775
0.414226
-0.822859
-0.595626
0.793854
0.263286
-0.865234
-0.0413852
-0.46356
0.116352
0.233393
-0.457721
0.134103
0.587574
-0.316951
0.378649
0.744919
0.122899
-0.581065
-0.193607
0.0113382
-0.376348
-0.831434
0.902832
0.259156
-0.743871
-0.515646
0.593033
0.193994
0.661785
-0.739665
-0.295462
-0.889996
0.24213
0.753553
0.164094
-0.204621
0.259898
-0.19358
-0.618729
0.301069
0.592197
-0.83133
-0.766743
0.0823584
-0.0989543
-0.177426
-0.0277696
-0.504744
-0.431284
-0.325318
0.578639
0.753303
0.0307779
-0.755581
0.922976
-0.620658
0.190347
-0.699152
-0.062793
-0.00411329
-0.0666083
-0.464133
0.219712
-0.798361
0.914469
-0.230066
0.352179
-0.541022
0.716419
0.511549
0.00551071
-0.504844
0.578745
-0.078341
0.596408
0.447132
0.790371
-0.645269
0.204502
0.911728
0.748043
0.823812
-0.456389
-0.235249
-0.65296
0.118026
-0.0198302
0.134014
0.42448
-0.362305
0.135322
-0.848925
0.543469
0.518855
0.629594
0.898252
-0.650923
0.00922575
0.21314
0.834065
-0.631365
-0.695501
-0.594781
0.424734
-0.29041
-0.00200614
-0.599453
-0.524787
-0.539501
0.654517
0.575734
-0.00584478
-0.639324
0.0574787
0.0637392
-0.788632
0.301567
0.236671
0.550284
-0.890959
-0.454664
-0.8246
0.427704
0.315556
0.719784
0.0134258
-0.306507
0.512168
-0.803261
0.523246
-0.880561
0.597909
-0.271393
0.567803
-0.67797
-0.676482
-0.286748
0.377005
-0.735713
-0.573159
0.628766
-0.187744
0.147511
0.388556
0.0622891
0.761159
0.0683813
0.855627
0.891304
0.232235
0.660895
-0.458168
0.66859
-0.425525
-0.422567
0.796881
-0.636991
-0.237009
-0.13755
0.309918
-0.902647
-0.901302
-0.382343
-0.454149
0.286924
