-0.027198
-0.129848
-0.31581
-0.500256
0.248231
-0.851782
0.41406
-0.481622
0.410242
0.723904
0.45659
-0.697432
0.475011
0.911822
-0.256389
-0.310194
-0.0734114
-0.534997
0.0363994
-0.590455
-0.319755
-0.602475
-0.977389
-0.636722
0.0285353
0.264821
0.26231
-0.0600978
-0.735863
-0.45904
0.867522
-0.264829
-0.0137649
-0.0456392
-0.49519
0.730768
0.778793
0.408456
0.662482
-0.0607703
-0.575677
0.391429
0.466774
0.686941
-0.851073
-0.506454
-0.583507
-0.032736
0.535738
-0.542576
0.220313
-0.867549
-0.586183
0.212317
-0.302837
0.12766
-0.0619826
-0.714313
0.993859
0.629309
0.128631
-0.566535
-0.599266
-0.957905
-0.720857
-0.69607
0.547232
0.576353
0.484611
-0.352808
0.305568
0.186248
0.436381
0.668292
0.775952
-0.510897
0.793107
-0.218914
-0.796777
-0.908095
-0.396763
-0.434181
-0.459639
-0.449015
0.942618
0.260502
-0.899239
-0.639959
0.0266386
-0.694982
0.286623
0.379927
0.278067
-0.753596
-0.882116
0.417477
0.101155
0.371081
-0.161344
0.288546
0.260277
0.177004
0.581668
-0.298956
0.235097
-0.852615
0.702303
0.266091
0.587005
0.450991
-0.118679
-0.54386
-0.490796
0.63953
-0.192315
-0.301453
0.252223
0.0950283
0.204314
-0.118077
-0.425621
-0.107384
-0.462527
-0.163349
-0.261033
-0.654324
-0.354575
0.572642
-0.983874
-0.680721
0.746289
0.278128
0.228181
0.539565
-0.803091
0.00394122
0.259537
-0.340207
-0.499217
-0.405608
-0.245108
-0.417218
-0.459931
0.72555
-0.965375
-0.350846
-0.234126
0.883798
-0.0340746
0.393509
0.866416
-0.0644451
0.858988
-0.512289
0.595677
0.610404
-0.235025
-0.225211
0.0833368
0.6891
0.646687
-0.788967
-0.7086
-0.0730097
-0.318384
-0.322689
0.675099
-0.143937
0.591401
-0.361752
0.589136
-0.944221
-0.458107
-0.985803
-0.221626
-0.181548
-0.442023
0.858307
0.170721
-0.390201
-0.721169
0.45024
-0.0921859
0.422577
-0.513514
0.821905
-0.937503
-0.360573
0.566139
-0.372542
0.928129
-0.511289
0.94824
-0.75896
0.0113192
-0.24435
0.582098
0.128834
0.688868
-0.148282
-0.950737
0.0804832
-0.779948
0.2905
0.501517
-0.129972
-0.537847
-0.551316
0.797543
0.502387
0.881978
0.875969
-0.891515
-0.80832
0.0300942
-0.687039
0.641955
0.610383
-0.160761
0.164878
-0.172964
0.458337
0.256968
0.816235
0.753292
-0.153835
-0.137625
-0.04116
-0.646846
-0.559935
0.977476
0.113202
0.403123
0.00967419
-0.776208
-0.708462
0.408731
0.285374
0.0524022
0.725831
0.384591
0.350439
-0.718186
0.231682
0.790686
-0.837679
-0.605103
0.0176427
-0.618508
0.583026
0.122761
0.523834
-0.425099
-0.0462884
-0.534217
-0.736978
0.397013
0.36391
-0.0220239
-0.636983
0.708955
-0.0789661
-0.380957
0.814773
-0.339572
0.495611
-0.232172
0.200273
-0.612806
-0.710684
0.143711
0.750309
-0.470733
-0.280369
0.845609
-0.829082
0.75709
0.733804
0.335727
-0.668309
-0.485878
0.482643
-0.85646
-0.671321
0.94947
0.114586
-0.949459
-0.279979
0.246681
-0.594731
0.861304
-0.87215
0.254371
0.622645
0.162787
0.106164
0.156761
0.606117
0.94146
-0.535335
-0.476438
0.875717
-0.567501
-0.538921
-0.261022
-0.201028
0.790598
0.461606
-0.0194985
-0.103585
-0.922763
0.636664
0.345388
0.472086
0.251779
0.810785
-0.858914
-0.113163
-0.774087
-0.710116
0.537591
0.827172
-0.57607
0.451376
0.0843271
-0.348453
-0.477922
-0.245368
-0.8784
0.588917
0.417726
0.910761
0.53528
-0.189122
-0.0751706
-0.616936
-0.861152
-0.885961
-0.543296
0.372854
-0.961779
-0.144118
-0.130816
0.212503
-0.131579
0.486753
0.820026
-0.919964
0.10907
0.714666
0.120336
-0.372748
0.860091
0.518738
-0.0583797
0.758721
-0.421055
-0.487435
-0.163737
-0.459835
0.447858
0.336597
-0.383362
0.413206
0.750287
0.308242
-0.826709
0.828902
0.193349
-0.58126
0.735339
0.811549
0.78701
-0.595814
0.689217
0.685188
-0.11738
-0.761083
-0.316159
0.686793
0.683602
-0.676295
0.562075
0.615542
-0.615998
-0.328438
0.559406
0.611264
-0.360151
-0.661379
-0.903378
-0.532467
-0.914971
0.240824
0.494564
0.512326
0.520049
0.90935
-0.782758
-0.976544
0.918739
0.729648
-0.369084
-0.811213
-0.947705
-0.464499
0.80285
0.434607
-0.553252
-0.483876
-0.473445
0.394243
-0.980388
0.878528
0.809618
0.00450883
-0.371188
-0.644748
-0.926965
-0.727329
0.388545
-0.737835
-0.730712
0.842762
0.741616
-0.813906
0.862051
-0.30852
-0.967604
0.67207
-0.930071
0.475378
-0.507234
0.709236
-0.909175
-0.508391
0.0327514
-0.946211
0.234355
-0.147386
0.755268
-0.119359
-0.662557
0.618632
0.120605
-0.468038
0.00960386
-0.0459041
0.442803
0.745685
0.996474
-0.980551
-0.527103
-0.769717
0.584406
-0.730084
-0.448509
0.84783
0.592613
-0.951396
0.16433
-0.445803
0.549665
0.220113
-0.0308314
-0.861596
-0.450884
-0.339249
-0.121767
0.0241278
-0.701848
-0.508306
-0.978739
-0.798411
-0.795434
-0.601147
-0.664194
0.232072
-0.291914
-0.554023
0.963595
-0.347142
-0.0322662
-0.538576
0.530094
-0.226327
0.677823
-0.509302
-0.465824
-0.515996
-0.758155
-0.493235
0.628001
-0.716774
0.438418
-0.258112
0.739059
-0.297383
-0.399001
0.518329
0.811981
-0.582858
0.81198
-0.530134
0.202081
0.0775902
-0.100068
-0.472701
0.975664
0.548533
0.808637
-0.202392
0.225733
-0.869648
-0.726743
0.107568
-0.0742645
0.0297108
0.655848
0.956766
0.55805
0.773748
-0.369387
0.0567942
0.94135
-0.878117
-0.825811
0.929131
0.162053
0.457175
-0.831322
-0.642664
-0.68852
-0.414697
0.902587
0.0905086
0.568075
-0.385782
-0.72519
0.962238
-0.0484447
-0.711955
0.336781
-0.100347
-0.166663
-0.531935
-0.852507
0.581733
0.0715132
-0.309065
-0.418436
0.39681
0.442515
-0.665724
0.252793
0.114025
0.515178
-0.671523
-0.90917
0.974214
-0.483806
-0.446367
0.833447
-0.639021
-0.119869
0.972018
-0.948166
-0.563835
0.904489
-0.68824
-0.551872
0.171949
0.169402
0.496904
-0.225903
0.37831
-0.0013254
0.0323904
0.338429
-0.537345
0.034697
0.247998
0.696876
0.715939
-0.0502791
-0.0207977
0.304543
0.710145
0.351147
-0.595375
0.833962
-0.616872
0.196132
-0.403749
-0.286429
0.425129
0.669778
-0.87312
-0.285563
-0.130009
0.274056
0.394083
0.564545
0.426189
-0.407928
0.540855
0.620465
0.371084
0.869466
0.129074
-0.492397
-0.0471925
0.959051
0.0054711
0.0491517
0.289788
0.496741
-0.601087
0.295688
-0.0930692
0.0742408
0.575181
-0.386585
-0.485032
-0.353555
-0.702408
-0.654282
-0.613325
-0.128705
0.983409
-0.0389639
-0.388086
0.524414
-0.251691
0.210428
0.393576
-0.808757
-0.417424
0.779821
0.196397
0.942241
0.350127
-0.297999
0.988635
0.687012
-0.824804
0.0830445
-0.281085
-0.769162
-0.26679
-0.469085
-0.827904
-0.389359
-0.674348
0.914646
0.218186
0.573361
0.423126
-0.775859
0.0602544
0.0170888
-0.690693
-0.908327
0.579047
-0.525337
-0.399323
-0.567457
0.774631
-0.0244303
-0.328501
0.646509
-0.85281
-0.466637
-0.539952
-0.43205
0.890125
-0.0498133
-0.838955
-0.286657
-0.65653
0.861476
0.247894
0.716512
-0.781055
0.61786
0.361616
-0.687967
-0.918861
-0.707514
0.916528
-0.758463
-0.328658
0.240708
0.828298
-0.788856
-0.187332
-0.984459
-0.623465
-0.154725
-0.708
0.543165
0.531832
-0.355448
-0.666328
-0.0383736
0.592157
-0.255043
0.994259
0.359242
0.115194
-0.658279
-0.199256
-0.626632
-0.788953
-0.964831
0.631156
0.987866
0.611941
-0.323813
0.0500694
-0.895286
0.342892
0.565539
0.5066
-0.90393
0.863331
0.0053773
0.859925
0.356198
-0.859366
-0.620038
0.743956
0.346516
-0.227229
0.377369
0.216099
-0.606783
0.655103
0.678554
0.582968
-0.231425
0.997317
-0.584798
-0.322733
0.504601
0.92926
-0.336297
-0.244803
0.763577
0.94442
-0.512202
0.921133
0.629647
0.371025
-0.139524
-0.813606
0.463241
0.545632
0.686554
-0.0691384
-0.881494
-0.619792
-0.791384
-0.830358
0.816396
-0.976156
0.884503
0.0212666
-0.0621809
0.825576
-0.895222
0.877987
-0.329072
0.857577
-0.473861
-0.0806992
0.599715
-0.361282
0.0109131
-0.591431
-0.285519
-0.562758
-0.382046
0.117439
0.057227
0.749764
-0.304313
-0.800465
-0.889309
0.823427
-0.947448
-0.208913
-0.648416
-0.128949
0.00372865
-0.965702
-0.261138
0.115451
0.382596
-0.0660188
-0.14031
-0.324459
-0.63009
0.787814
-0.353737
0.00540571
0.522957
-0.818221
-0.140518
0.338565
-0.515182
-0.413462
0.511201
-0.690351
0.48627
-0.724712
0.339646
0.589781
-0.479673
-0.811823
0.0615842
0.569284
-0.146238
0.515374
0.86659
0.034422
0.762555
0.801632
0.947999
0.300131
0.362631
-0.523729
0.404066
-0.548976
0.32538
0.195786
-0.927946
-0.738733
-0.941475
0.245273
0.637599
0.910936
0.305496
-0.0948469
0.296664
0.556727
-0.209685
-0.677829
0.999032
-0.751246
0.422649
0.538454
0.798319
-0.102072
-0.644276
-0.211673
-0.592937
0.0368368
0.55823
-0.395054
-0.613103
-0.933205
0.857939
0.556629
-0.602989
0.257301
-0.795745
-0.700303
0.416094
-0.687085
-0.365717
-0.85237
-0.756227
0.529285
-0.540961
0.684185
0.0360782
0.59463
0.711395
-0.958566
-0.647534
0.706887
-0.490733
0.706131
-0.941809
0.250982
-0.318074
-0.85908
-0.683847
0.527948
-0.746002
0.776729
-0.319934
-0.190695
0.115434
0.676796
-0.687489
-0.77114
0.105616
0.551706
-0.759442
-0.571569
-0.566728
0.690419
-0.976479
0.127644
0.34709
-0.0580459
0.630214
0.217374
0.382604
0.802735
-0.708932
-0.0188078
0.949409
0.62183
0.155967
0.269236
0.151453
-0.0417912
0.684402
0.144845
0.0459086
-0.525152
0.182887
-0.600856
0.911678
-0.886082
-0.977284
-0.142243
0.547526
0.286748
0.827757
-0.539137
-0.568448
-0.372071
0.527967
0.607528
-0.684917
-0.810417
0.446885
0.895727
-0.946305
-0.879024
0.213056
-0.613638
0.19658
0.610533
-0.114601
0.779092
0.373671
0.763308
0.333064
0.193938
-0.238408
-0.261037
0.583238
0.282128
-0.03897
-0.708818
-0.932027
0.539744
-0.236987
-0.26947
-0.370836
-0.985071
-0.820958
0.746278
0.345258
-0.663067
0.943655
-0.507663
0.509406
-0.979822
0.535441
0.788306
-0.672639
0.401149
-0.54841
-0.288953
0.786304
0.679851
-0.0210942
-0.801908
0.524863
-0.232368
-0.82266
0.620868
0.748522
-0.92907
-0.775642
0.962459
0.552383
-0.0623966
0.639844
0.146513
0.0305247
-0.102828
0.060826
-0.581344
-0.965881
0.421567
-0.163427
0.312841
0.475716
-0.746806
0.740788
0.678239
0.33603
-0.902801
0.716156
-0.293674
-0.967971
0.563794
-0.399715
-0.136699
-0.172685
0.647907
-0.407297
-0.894095
-0.76813
0.720743
-0.885972
-0.0594378
-0.756806
-0.464014
0.635141
-0.401264
-0.722925
0.318472
-0.53563
0.61619
0.482618
-0.114348
-0.0358133
-0.482853
0.169613
0.285355
0.239851
-0.102324
0.600953
-0.906365
-0.552008
0.446469
0.0211963
0.371823
0.0290358
-0.0934338
-0.354154
-0.296129
-0.0930288
0.18969
-0.651549
-0.230886
0.677808
0.0105793
0.729094
0.952185
0.866211
0.818447
0.277732
-0.5515
0.665421
0.0477548
-0.50005
-0.15247
0.445598
0.712971
-0.60782
0.74354
0.392642
0.216788
0.986167
-0.667587
0.915079
-0.421162
0.0992655
0.478759
-0.162832
0.752193
0.437771
0.365374
-0.954671
-0.0396949
0.329214
-0.915904
-0.440612
0.569751
-0.241303
0.643957
-0.213084
-0.230196
-0.963656
-0.504365
-0.664289
0.280753
0.92534
-0.722756
-0.126726
-0.671392
-0.615364
-0.612635
-0.179697
0.510939
0.137871
0.506961
0.504683
0.478504
0.203346
0.116749
0.119864
-0.474611
-0.861697
0.856179
-0.00526252
-0.622682
0.32906
0.786952
0.278453
0.219621
-0.415989
0.212272
0.671323
-0.926929
-0.204967
0.332944
-0.502354
0.476717
0.638326
0.191151
-0.369836
-0.658964
-0.226818
0.821791
-0.245201
0.794981
-0.520782
-0.93379
-0.55113
-0.678225
-0.169066
-0.128784
-0.98777
-0.711003
0.506234
-0.109265
0.553396
-0.207786
0.446113
0.0219637
0.506861
-0.0382086
0.648672
-0.167681
0.52826
-0.512444
0.15979
0.959547
0.293931
-0.214708
-0.0767087
-0.0616077
0.567356
0.669993
0.532451
-0.434508
0.671349
0.885375
-0.69372
-0.665851
-0.686885
0.549543
-0.113762
-0.178321
-0.835932
0.0335833
-0.0974563
0.386455
0.878901
0.270343
-0.111336
0.460179
-0.0734216
0.0622779
-0.716036
0.0884531
0.75742
0.571426
0.593407
0.592417
0.708772
0.726794
0.374157
0.806394
-0.617326
0.576168
-0.0718149
-0.0403298
-0.942284
-0.834718
-0.358757
0.600934
0.435483
-0.956275
-0.413736
-0.458268
0.188761
0.703182
0.277984
-0.0355662
-0.984877
0.00390505
0.297753
-0.0032941
0.268502
-0.315534
0.826087
-0.10115
-0.052373
0.754446
-0.836386
-0.522914
0.761492
0.99513
0.20011
-0.852302
-0.658416
-0.126561
0.0435271
-0.925038
-0.304088
-0.380223
-0.720701
0.739026
0.448881
0.0314444
-0.402477
-0.0773309
-0.316374
0.0522438
0.0727857
-0.0635788
-0.140702
-0.453429
0.743955
-0.548159
0.861418
0.243314
0.959664
-0.695481
-0.72255
-0.814178
0.927735
0.687035
0.638186
0.282915
-0.617524
-0.929927
0.926686
0.565614
0.559337
0.613259
-0.789037
0.0177824
-0.340261
-0.850285
-0.239708
0.760255
-0.9131
-0.51409
0.992675
0.292496
0.150531
-0.522232
-0.623924
0.465444
0.222775
0.0179919
0.00543634
0.177737
0.998966
-0.221437
0.881735
0.777698
0.254049
-0.0047374
-0.122451
-0.0715353
-0.562337
-0.56284
0.338465
-0.401359
0.834902
-0.398398
0.235839
0.452327
-0.59246
-0.724181
-0.46985
0.533883
0.125942
0.786352
-0.512629
0.0717178
0.12585
-0.0908816
-0.338756
0.859605
-0.357408
0.332101
-0.646081
0.839703
0.672863
0.96885
0.685521
-0.68553
-0.158174
0.526336
-0.118555
0.665184
-0.0242322
0.365343
-0.185065
-0.63753
0.871203
0.407971
-0.0690707
0.284512
-0.979558
-0.805755
-0.929665
0.687447
0.451169
0.0606929
-0.918628
0.979472
-0.854051
0.272666
0.396024
0.359993
0.869693
0.801183
0.364834
-0.848173
-0.645996
0.300804
-0.932999
-0.917579
0.295969
-0.70294
-0.257616
0.601707
0.90337
0.362316
-0.249182
0.259827
0.229827
0.407812
0.357733
-0.315228
0.0778784
0.256568
0.481082
0.775026
-0.505453
-0.116461
-0.892559
-0.442263
0.289113
-0.517183
-0.176861
0.339102
-0.918794
0.275634
0.749459
0.0119526
-0.073312
-0.921494
0.57185
-0.960386
0.109536
-0.850925
-0.570239
0.585345
-0.56386
-0.154104
0.450718
-0.870458
-0.268039
-0.432617
0.900734
-0.711999
0.242805
0.844606
0.769945
0.200627
-0.759838
0.128292
0.367122
-0.715182
0.519271
0.0934422
-0.362492
-0.123764
-0.655713
-0.094912
-0.471109
-0.879764
-0.887647
0.403059
0.113295
-0.93526
0.473066
-0.222686
0.0975154
-0.974913
-0.532851
-0.864137
0.208409
-0.598073
0.222989
0.248724
0.922789
0.344151
-0.515895
-0.546802
-0.0853823
-0.702374
-0.989659
0.113754
0.377915
0.353117
0.452714
0.265112
0.0695251
-0.189534
0.771479
-0.149978
0.903801
0.836563
-0.0578253
0.286705
0.731511
0.291383
-0.8989
0.682754
-0.28902
-0.623626
0.16142
0.792353
-0.973421
0.879753
0.372232
-0.0648885
-0.907391
0.0808138
0.708319
0.212969
0.0460922
-0.596281
-0.364674
-0.29018
-0.183719
-0.519869
-0.349176
-0.839339
0.252827
-0.395501
-0.693831
-0.197357
0.335514
-0.167769
-0.244067
0.456769
0.99227
-0.915978
0.210574
-0.905925
0.75574
-0.613339
-0.542794
0.825504
-0.328243
-0.519025
-0.485031
-0.89383
0.506779
0.587632
0.75068
0.994194
0.555541
0.387973
0.656855
-0.328326
0.824422
-0.104448
0.0254399
0.788239
-0.808282
0.38869
-0.990702
-0.741146
-0.616089
-0.330928
-0.0237691
0.175461
0.630328
0.41219
0.817546
0.905241
0.00314242
0.692592
0.173342
-0.727463
-0.0420897
0.501583
-0.863914
-0.616787
0.251531
0.221721
0.848762
0.0648459
0.461252
0.672092
0.705492
-0.0580787
0.43215
-0.788605
-0.734002
0.934726
-0.43077
0.61827
-0.207479
-0.872475
0.396669
-0.473793
-0.614943
0.577669
-0.143844
-0.231273
-0.703118
-0.819643
0.212556
0.522113
-0.686447
-0.327432
0.256772
-0.485714
0.939378
0.997926
-0.806372
-0.253427
0.523759
-0.253939
-0.687874
0.813438
-0.102822
0.532304
-0.871481
-0.417043
-0.960793
-0.644994
-0.302225
-0.162999
-0.344159
0.435338
0.795397
-0.691379
0.404127
-0.604992
0.12714
-0.34418
0.443809
0.194338
0.284413
-0.457043
0.25905
0.469685
0.132458
0.506053
0.257004
-0.402608
0.607662
-0.135389
-0.164044
-0.737295
-0.525714
0.169417
-0.665672
0.588486
0.187151
-0.862302
0.448154
-0.0838192
0.332128
-0.803847
0.326296
0.619755
-0.834547
0.998738
0.757487
0.997763
-0.0807606
0.122036
-0.00478431
-0.898156
0.235366
-0.0262729
-0.604252
-0.316019
0.384292
0.190824
-0.470837
-0.0121101
0.220284
-0.0268186
0.722357
-0.822158
-0.384467
-0.821014
-0.312483
0.435573
0.287249
0.0296797
-0.773128
-0.0053905
0.358185
-0.401708
-0.390192
-0.257628
0.468517
-0.312231
-0.660111
0.244576
-0.272207
0.23758
0.661656
0.7396
0.233975
-0.222416
0.511682
-0.361064
0.979836
0.34614
-0.158657
0.302564
0.80882
0.27128
0.734205
0.54267
0.948644
0.969104
-0.568136
-0.823047
-0.0261124
0.285405
0.971298
0.0492041
-0.183848
-0.576703
0.939578
0.984502
-0.212737
0.640444
-0.685322
-0.54099
-0.0386278
0.919393
0.140837
0.443693
0.148058
-0.996808
-0.197256
0.615788
0.0248426
0.127654
-0.221794
-0.975338
0.656031
-0.436148
0.278461
0.693631
-0.228943
0.679927
0.277415
0.828941
-0.782373
-0.39005
-0.965124
-0.931399
0.809896
0.465306
0.299613
-0.706022
-0.203534
-0.106189
0.196014
-0.870403
0.971831
-0.214697
-0.070331
0.122739
-0.987242
-0.685505
-0.201917
-0.92445
-0.414145
-0.316069
-0.825354
0.300687
0.200786
-0.804439
0.59524
-0.539302
-0.691711
-0.40109
-0.0810492
-0.463608
0.41986
-0.0519178
-0.480244
-0.819274
-0.588004
-0.263464
-0.998477
-0.408543
0.51414
-0.841047
0.645801
-0.866899
0.665639
0.753282
-0.630408
0.158256
-0.310007
-0.983589
-0.0069408
0.359721
0.579909
0.348409
-0.217849
-0.126753
0.0113223
-0.96355
0.7351
0.0212789
-0.909762
-0.352235
-0.594603
0.255079
0.160884
0.810346
0.84554
0.103734
0.497608
0.876815
-0.701302
-0.170765
0.715632
-0.067227
-0.761366
0.298681
0.978266
0.946639
0.287915
0.968309
0.960003
-0.961725
-0.0896911
0.793431
-0.24602
-0.406729
-0.512632
0.0240438
-0.121058
-0.0720442
-0.955408
0.114593
0.212498
0.426945
0.83037
-0.136198
-0.912775
-0.97622
0.292704
-0.837896
-0.936789
-0.218598
-0.523709
0.605147
-0.576784
0.0538617
-0.855237
-0.563554
-0.115886
0.138746
-0.292618
-0.40535
-0.26134
-0.547169
-0.168131
-0.2269
-0.485187
-0.806203
-0.368391
0.657666
-0.0246546
0.834238
0.0759953
-0.835763
-0.284134
0.272212
0.889999
0.79625
0.193246
-0.448223
0.139553
0.650766
-0.353058
0.240476
-0.396317
0.743436
0.847436
-0.581499
-0.291248
-0.593113
0.74409
-0.352605
-0.077008
-0.132122
-0.636165
0.249882
0.405661
0.124482
-0.712327
0.0406969
0.187091
-0.927093
-0.357819
-0.674971
-0.968239
-0.806248
-0.533874
-0.883109
-0.560459
0.433778
-0.687339
-0.640204
-0.0539607
0.0892818
-0.961296
-0.409769
-0.110504
-0.266645
-0.04982
-0.383806
0.854626
-0.412748
-0.306486
-0.920614
-0.101435
-0.909941
0.689544
0.384336
0.359956
0.263578
0.196057
0.325561
0.692715
-0.69791
-0.152295
0.862778
-0.597325
0.292661
0.76449
-0.445716
-0.201381
0.74062
-0.0276848
0.107708
-0.759165
0.334826
0.779477
0.377415
0.571047
0.857221
-0.292422
-0.697451
-0.381631
0.363745
0.0826513
-0.971749
0.736272
0.891029
-0.0515072
0.869927
-0.900622
0.746957
0.164873
-0.110156
0.186923
-0.796001
-0.871346
0.365856
0.00452303
0.364952
-0.71934
-0.011358
0.466662
-0.612879
-0.411873
-0.705341
0.326653
-0.374189
0.548069
0.207007
0.0900528
-0.892642
-0.529453
-0.188969
0.818641
-0.241329
-0.877314
0.264666
-0.234887
0.220266
-0.0856389
0.722029
-0.798449
0.49097
-0.165215
0.0462002
-0.177943
-0.363662
0.415839
-0.976845
0.680845
0.968354
-0.0923894
0.208043
0.208641
-0.696972
-0.573357
0.373313
-0.47177
0.164278
0.105886
-0.222125
0.0454939
-0.828967
-0.624004
-0.440625
0.963811
0.614027
0.386321
-0.905988
0.915366
0.796689
-0.0351105
-0.8758
-0.439797
0.744468
-0.424834
-0.348677
0.453036
-0.42083
-0.380363
0.821913
0.0858712
-0.169894
0.726141
0.794857
0.159464
0.590837
0.414214
-0.0349587
0.489545
-0.581633
0.970686
-0.53741
0.761908
-0.921852
0.839886
0.976927
0.190002
0.544817
-0.284986
0.828642
0.774448
-0.705763
-0.581514
-0.00420438
-0.514586
-0.718689
0.812764
0.504085
0.900218
-0.434824
-0.149706
-0.190052
