0.323181
0.0233326
0.408177
-0.665394
0.377203
0.156858
0.63452
0.87521
0.159589
0.736689
-0.951415
-0.257325
-0.605217
-0.799885
0.705208
0.44801
-0.323812
-0.773143
0.445164
-0.804269
-0.727117
-0.723824
-0.851708
0.9875
0.44285
0.00217976
-0.302127
0.115104
-0.632411
-0.961594
0.655134
-0.793831
-0.749004
0.266639
-0.499
-0.638496
-0.616585
-0.398853
0.245043
0.826589
0.22355
-0.975097
-0.633815
0.55158
-0.153396
-0.184023
-0.688761
0.508678
-0.908799
0.52807
0.799761
0.801942
0.568488
0.977787
-0.323627
0.252189
0.991904
0.0320146
-0.837166
-0.101288
0.885691
-0.973884
-0.375879
0.584208
-0.424769
0.521334
-0.173971
0.9556
0.118415
-0.179519
0.460777
-0.0104822
0.979533
-0.732627
0.907935
-0.794383
0.489999
0.241412
0.178226
0.235953
0.647572
-0.459801
0.52522
0.0403461
-0.188408
-0.377797
-0.0362447
0.0263829
-0.830593
0.47532
0.744359
-0.993848
-0.11609
0.830467
0.215032
-0.883065
0.704318
0.935024
-0.75617
-0.165992
0.544161
0.190886
-0.18315
-0.458385
0.492135
0.89773
0.0568145
0.730386
-0.449331
-0.823992
-0.325892
-0.00579298
0.172805
-0.51909
-0.161509
0.573515
0.0515732
0.406587
-0.556857
0.124369
0.935163
-0.993291
0.955279
-0.504464
-0.764724
0.538529
0.861135
-0.348896
-0.502997
0.704475
0.366763
0.0131942
0.894823
0.660847
0.568739
-0.50673
0.0591401
0.248975
-0.343305
0.240604
-0.0225342
-0.345112
-0.260232
-0.532971
0.451964
0.486761
-0.907475
0.316467
-0.478446
-0.760283
-0.290103
-0.536537
0.644482
0.402119
-0.694289
-0.911929
0.154566
-0.736388
-0.423176
-0.879261
-0.196506
0.966073
-0.0929915
-0.443718
0.493382
0.642774
0.032278
0.209318
0.0400824
-0.822892
0.807976
0.0565213
-0.526865
-0.694423
0.0558338
-0.404205
-0.556721
-0.952284
-0.0586789
-0.0219213
-0.223156
0.446109
-0.957973
-0.859264
0.223756
0.641768
0.520976
0.488423
0.659933
-0.457541
-0.88704
-0.419811
0.24483
-0.413414
0.348445
-0.728125
0.65721
0.700316
-0.577813
0.388183
0.0992378
-0.190776
-0.82564
0.293348
0.587021
0.602968
-0.369291
-0.787245
-0.450336
0.0540502
0.60384
0.7149
0.473611
0.372751
-0.346902
-0.433947
-0.777187
0.0921353
0.56262
0.289249
-0.558495
0.67875
-0.370018
-0.214248
0.549271
-0.183493
-0.324244
0.775924
0.0621467
-0.911144
-0.100171
0.23666
-0.80056
0.532014
-0.12866
0.752908
-0.539118
-0.987163
-0.178261
-0.157051
-0.746793
-0.211684
0.607948
-0.814537
-0.0670469
0.334151
0.149403
0.79336
-0.930425
0.292198
0.983021
-0.365841
0.000447563
0.804234
0.245773
-0.657863
0.120648
0.224001
-0.0846068
0.901245
0.466201
0.109937
-0.977853
0.254086
0.281013
0.23507
0.540011
-0.113083
-0.0578946
-0.233998
-0.888457
-0.714637
-0.73365
-0.917376
-0.0866716
0.342321
-0.342873
0.586219
-0.825869
0.140961
0.112014
0.732195
-0.584804
-0.460826
0.965089
0.831948
0.385477
-0.491348
0.0393815
0.45124
0.825208
-0.366495
0.999988
-0.652348
-0.0925779
-0.579293
-0.649426
0.770053
-0.653635
-0.0942261
-0.497848
0.630375
0.783769
-0.291443
-0.941099
-0.763392
0.816406
0.69935
-0.793546
0.43546
0.998811
0.0455738
-0.532002
0.567666
-0.762219
0.210132
-0.547312
-0.0165938
0.985024
-0.972939
-0.924163
0.944075
-0.241965
-0.916935
0.580455
0.87707
-0.691474
-0.272801
0.463668
0.135867
0.157429
-0.890585
0.972938
-0.297958
0.885613
-0.830503
0.282944
0.618948
-0.623216
-0.626469
0.753792
-0.543175
0.944595
0.70538
0.339415
0.151602
0.125204
0.290088
0.230793
0.774242
0.919206
-0.353953
0.882208
0.494799
-0.398761
-0.510217
-0.957202
0.597252
-0.501933
0.24472
0.684274
0.987926
0.314737
0.05967
-0.750385
-0.2623
0.167537
-0.342153
0.836353
-0.942368
0.945275
0.989565
0.984931
0.90833
-0.829061
-0.241216
0.114609
-0.441297
-0.739807
0.515581
-0.18476
0.792978
0.809355
0.878331
-0.0764938
-0.453625
-0.483841
0.17122
-0.240163
0.547885
-0.238789
-0.369108
0.696709
-0.257393
0.725244
0.244962
0.591226
-0.851429
0.00716937
-0.296024
11207
0.925281
0.577468
-0.255154
0.644779
