0.725472
0.0764099
-0.199525
0.0623414
0.722046
-0.102112
0.621494
0.0347372
-0.747321
-0.425209
0.65046
-0.440778
0.0389284
-0.614734
-0.392347
0.0341381
0.547285
-0.373444
0.551291
-0.0411568
0.687169
0.0365366
0.448698
-0.330581
-0.571344
-0.239529
0.398696
0.407201
-0.53602
-0.277139
0.651796
-0.449561
-0.339472
0.716488
-0.638004
0.48755
0.623842
0.228935
0.12585
-0.0602552
0.241935
0.114065
0.730017
0.289219
-0.682287
-0.0111716
0.230787
0.658321
0.533697
0.577634
0.558414
-0.676257
-0.0655041
0.337096
0.150787
0.0331836
-0.365357
-0.752557
-0.754634
0.535534
0.541984
0.470387
0.64289
-0.134451
0.0590351
-0.031158
-0.648854
0.413477
-0.399436
-0.287027
-0.152715
-0.124529
-0.628846
0.523639
-0.466722
0.393086
-0.0643975
0.0439667
0.638365
0.0454486
-0.405881
0.238335
-0.216903
0.0316803
0.383119
-0.529498
-0.393546
0.729605
-0.623589
-0.133908
-0.168893
-0.0595846
0.636544
0.134508
0.362498
0.555084
-0.620742
0.175113
0.694122
0.422968
0.58134
-0.691657
-0.372106
-0.0888453
0.579965
-0.313706
0.558449
0.0394057
-0.35652
0.30427
-0.635816
-0.233753
0.310659
0.711899
-0.501514
-0.0792761
0.589155
0.207112
0.256915
-0.37517
-0.686676
0.261402
0.100642
0.447197
-0.346783
-0.411426
-0.745259
-0.580227
-0.0893453
0.712716
0.365016
0.218416
-0.527282
-0.269917
-0.638889
0.68358
0.367708
0.253473
0.0630757
-0.720472
0.32474
0.170828
0.130573
-0.0102212
0.607625
-0.481173
-0.481305
0.485923
-0.488528
-0.220122
0.753271
0.520788
-0.667372
0.240912
-0.241763
-0.60438
-0.316147
0.121063
-0.650997
-0.127962
-0.274696
0.53492
0.487886
0.0582022
0.0838686
-0.382218
0.221961
0.343766
-0.310182
-0.100971
0.0713531
-0.692295
0.434466
-0.512178
0.0902692
0.375891
0.302534
-0.60691
-0.400721
-0.132999
0.408325
-0.439177
0.69689
0.283594
-0.431989
-0.180765
0.575513
-0.544013
0.206575
0.404325
-0.406753
-0.00289109
-0.565929
-0.293719
0.63796
0.198577
0.117059
-0.289416
-0.61665
0.723527
-0.002522
0.124614
-0.0780821
0.386308
0.139641
-0.0420467
0.290855
-0.568256
-0.236425
0.733507
-0.0505451
0.206811
0.654133
0.113954
-0.704702
0.00415829
0.71875
0.193476
0.672752
0.342142
-0.365989
-0.322652
0.378102
-0.518881
0.724614
-0.323455
0.563726
0.382549
0.291764
-0.610921
0.682949
-0.455392
-0.0606696
0.310847
0.637498
0.360491
0.538949
-0.694192
-0.530382
0.530073
0.18293
-0.171571
-0.533268
-0.172509
0.697126
0.699445
-0.443533
-0.430942
-0.673389
-0.720062
0.730516
-0.431142
-0.614677
-0.681503
-0.470514
-0.424925
-0.396828
-0.32651
0.388603
-0.293603
0.102686
0.427437
-0.42469
-0.683129
-0.550047
0.612311
0.104494
-0.703399
-0.021521
-0.448935
-0.385335
0.621235
0.0485491
0.719872
-0.0417585
-0.534946
-0.391348
-0.512616
-0.219816
-0.737337
0.34341
0.501881
-0.126075
0.0447517
0.327427
0.10236
0.621482
-0.173405
0.49367
-0.469479
0.619626
-0.545644
0.170526
0.569908
-0.00847074
0.403133
-0.0180459
-0.697054
-0.568274
-0.214482
0.656717
-0.0124703
0.0434293
0.257666
-0.168019
-0.58813
0.0703335
0.0753291
-0.545059
-0.518877
0.653726
0.406953
0.184766
0.127821
-0.496005
-0.0885287
-0.0655467
-0.339297
0.56722
0.000807234
0.648417
-0.586649
-0.0617071
0.196212
-0.0467509
0.587929
0.437752
0.627213
-0.021499
0.431306
0.0294455
0.674345
-0.46077
-0.453932
0.4777
0.297678
0.288447
0.755382
-0.0982858
-0.405053
0.0299404
-0.485486
0.110404
0.653544
-0.538944
-0.237581
0.0344571
-0.0583525
-0.282201
-0.468661
0.43664
-0.280889
-0.338287
0.176726
0.0449302
-0.11507
0.0408951
-0.63205
-0.0968789
-0.246798
-0.0880804
-0.385573
0.0802446
-0.137216
0.125898
-0.272003
0.31928
0.508554
-0.487315
0.752526
-0.455873
-0.586093
-0.300331
-0.388867
0.565382
-0.165556
-0.523786
0.490817
-0.479127
-0.546829
-0.212644
-0.415137
-0.117702
-0.153215
-0.103948
0.0363856
-0.31454
-0.415122
0.525555
0.170362
-0.526675
0.0618637
0.226117
0.276931
0.0779374
-0.415551
0.0402389
-0.298973
-0.479669
0.590835
0.341573
-0.407744
-0.243322
-0.0919366
-0.735874
0.697136
0.172872
0.694578
0.476907
-0.6237
0.361194
-0.432264
-0.532899
-0.292139
-0.107131
0.0469195
0.0914064
-0.751963
-0.691439
-0.681071
0.700573
-0.177679
0.500961
0.154255
0.386293
0.0345115
0.272131
0.13732
-0.563823
-0.56739
0.00977456
-0.146252
0.752988
-0.15627
-0.309394
-0.521935
-0.0507823
-0.464798
0.0880154
0.0193456
0.0163889
-0.206801
-0.274817
-0.247281
-0.00950932
-0.241218
-0.610863
0.507346
-0.0276977
-0.0873595
-0.668313
0.327248
0.0248486
-0.0566169
-0.557149
-0.283163
-0.318971
-0.583553
0.215891
-0.0528978
-0.558654
0.53984
0.475261
0.614947
-0.116594
0.231154
-0.410684
-0.323545
-0.627997
-0.338371
0.646382
-0.231106
0.589695
-0.148023
0.718839
-0.360723
0.37744
0.629803
0.0148504
-0.645159
0.671093
0.63143
0.30564
-0.179297
-0.0432524
0.138014
-0.177239
0.661646
-0.219594
0.434586
0.0683558
-0.220435
-0.227443
-0.332824
0.122423
0.609898
0.400567
0.289739
-0.163133
-0.478272
0.214115
0.400843
-0.097205
-0.640933
0.676076
0.587003
0.436557
0.0143036
-0.706714
0.717507
0.168142
-0.360663
-0.683402
-0.678965
-0.117282
-0.409314
0.608458
-0.409011
-0.71069
-0.00582286
-0.357132
0.419219
0.175855
0.397295
-0.30435
0.65788
0.389495
0.360644
-0.232678
-0.643744
-0.745425
0.64245
0.259607
-0.0831371
0.667153
0.13084
0.591873
0.40609
-0.438518
0.273719
-0.522266
0.0447142
0.174474
-0.649725
0.705082
0.643803
-0.459539
-0.529716
-0.253271
-0.754318
-0.114257
-0.227117
0.53206
0.185317
-0.383872
0.628228
0.073377
0.232197
0.16214
-0.51184
-0.646096
-0.427263
-0.226343
-0.608485
0.590188
-0.361463
-0.465193
-0.433497
0.354242
-0.695637
-0.363553
-0.606255
0.481617
0.659907
0.632314
0.0212689
0.532804
0.723707
0.14783
-0.345534
0.485642
-0.62171
0.71915
0.472725
0.755179
-0.0592918
-0.34406
-0.0284194
0.31628
-0.366422
0.448938
-0.203642
-0.398358
-0.013684
0.063908
-0.384275
-0.263291
0.723313
-0.449089
-0.351599
0.147326
-0.500389
-0.369429
0.14778
-0.0935533
-0.630069
-0.343297
0.370464
-0.248871
-0.211146
0.324973
0.465492
-0.065237
0.125795
-0.45297
0.671729
-0.528379
-0.383843
-0.167691
-0.201542
0.138811
0.626214
-0.0808357
-0.0720996
0.486714
0.646783
-0.0860579
0.344898
-0.17445
0.498745
-0.324396
-0.442675
0.200023
-0.685759
0.428858
-0.532172
0.206058
-0.223091
-0.550488
0.444345
-0.712514
-0.230617
0.437495
0.0432516
0.628774
0.648433
-0.229342
-0.059001
0.135881
0.267289
-0.283094
-0.476826
-0.552406
-0.301074
-0.330396
0.523183
0.297494
-0.15192
-0.0569067
-0.119704
-0.395558
-0.299278
0.0164598
-0.749445
0.633892
0.0516161
-0.152405
0.66819
0.626181
0.499191
-0.741474
0.404461
0.353665
0.216088
-0.0831065
0.496023
-0.194361
-0.461139
-0.250958
-0.281282
-0.71302
0.473494
-0.471307
-0.168066
0.511281
0.42822
0.31265
0.363887
-0.0920118
-0.546405
0.701679
0.442876
0.0633425
0.733891
0.592537
-0.384684
0.30174
0.645176
0.0506211
0.475608
0.573683
-0.50546
0.0537376
-0.224508
-0.384056
-0.22451
-0.195266
-0.595065
-0.362805
-0.728695
-0.130456
0.486143
0.584106
0.37115
0.592374
0.621966
0.698627
-0.600776
0.465216
-0.343785
0.331299
0.573842
-0.737831
0.484441
-0.141852
0.610935
0.337886
0.0262982
-0.600106
0.366863
-0.431207
0.565681
-0.433599
0.504694
-0.484531
0.182339
0.653045
-0.353806
-0.354608
0.561492
-0.272935
-0.426421
-0.134321
0.579005
-0.0730835
-0.15838
0.741443
0.679414
-0.448611
0.751753
-0.00684918
-0.0249198
-0.173928
0.409271
-0.068099
-0.497352
0.609582
0.734093
-0.600433
-0.202962
0.0546229
0.715349
-0.0573976
-0.735847
-0.443253
-0.181099
0.239901
0.0851049
0.245458
0.743813
-0.181077
-0.300279
-0.368403
-0.350894
0.0742074
0.319404
-0.537498
0.081553
0.576169
0.0840331
0.482621
0.324077
-0.151917
-0.741912
0.267425
-0.448553
0.362366
-0.52948
-0.0963307
-0.193582
-0.123125
-0.0770948
-0.0391135
0.335875
-0.565694
0.294755
0.749214
-0.179879
0.25845
-0.201216
-0.504772
-0.00515806
0.482183
-0.135382
-0.687493
-0.651025
0.114773
0.0656206
-0.519033
0.296791
-0.242956
-0.126325
-0.302508
-0.161524
0.374049
-0.634264
-0.361722
0.590809
0.617498
0.248117
0.266091
0.366095
-0.219361
-0.466729
0.556252
-0.0157986
0.608176
-0.6681
0.0222419
0.713764
0.369304
-0.430151
0.0827144
0.304299
-0.489056
-0.0531433
-0.285829
-0.231773
-0.357834
0.0646219
-0.662051
0.0103264
0.12452
-0.556424
-0.0796176
0.42067
0.147938
-0.168374
0.264296
-0.581655
0.652419
-0.24826
0.598318
0.537651
0.587705
0.0876138
-0.473186
-0.0243429
-0.038835
0.458569
-0.425891
-0.227652
-0.468381
-0.644172
0.304659
0.489829
0.12592
-0.318365
0.287597
-0.0667963
0.19944
-0.150955
0.41403
-0.468669
0.0132781
0.356197
-0.243752
-0.30847
-0.699995
-0.526715
0.697231
-0.321764
0.0660747
0.300599
-0.195201
-0.517578
-0.0567733
-0.195193
-0.519396
0.535588
0.6886
0.228678
0.500283
-0.631621
-0.686111
0.673631
0.665563
0.194536
-0.518331
-0.367561
-0.17271
0.067636
0.621176
-0.0367377
0.582533
-0.441022
-0.174559
0.411564
0.292448
0.148585
-0.646894
0.491352
0.562902
0.526797
-0.653542
0.583173
0.584716
-0.378714
-0.50797
-0.635128
-0.00359681
-0.071114
-0.367554
0.694864
-0.566999
0.479949
-0.546997
-0.713112
-0.39027
-0.331909
-0.272247
-0.0987629
0.0331164
-0.467228
0.24053
0.0202522
0.353041
0.183623
-0.709963
-0.655709
-0.352575
0.161368
0.438955
0.0234098
-0.11923
0.0579906
0.262987
-0.147022
-0.440777
-0.255225
0.0734327
-0.231877
-0.426933
-0.261687
0.2262
-0.555176
-0.65526
0.551552
0.0459944
0.0221697
0.0631706
-0.104551
-0.100732
-0.705146
-0.327236
0.184763
-0.530876
-0.129105
-0.647294
-0.599014
0.322472
0.731595
0.685373
-0.648912
0.338706
0.0113087
0.416904
-0.0884733
0.711297
-0.753263
-0.491182
-0.39083
0.145563
-0.236789
-0.0770434
0.598078
-0.570053
-0.125398
0.0159699
0.295943
0.473213
0.597073
-0.712919
0.191517
-0.0828671
0.212909
0.429201
0.391936
0.0282977
0.192219
-0.376637
0.312909
0.474815
0.199062
-0.358417
0.569966
-0.445936
0.0862028
0.317475
-0.309568
0.310223
-0.539078
-0.213605
0.497383
0.04056
0.738119
0.0490723
-0.571708
-0.725562
-0.71453
0.701775
0.127287
-0.013232
0.190634
0.388832
-0.651331
-0.462755
0.503103
-0.28347
-0.00892258
0.103941
-0.316225
0.283134
0.268268
0.155817
0.114824
0.420338
-0.752668
0.172508
-0.487565
0.36975
0.644938
0.00514072
-0.227541
0.294354
0.28648
0.140005
0.329809
-0.236738
-0.450421
-0.0191106
0.239194
-0.353455
-0.00344406
-0.195977
-0.0829477
0.000479961
-0.375823
-0.54066
0.630821
-0.445223
-0.154411
-0.0468619
-0.308622
0.641196
-0.247264
0.418591
-0.671172
0.422896
-0.550956
-0.691808
-0.419216
-0.0905855
0.456398
0.631027
-0.302309
0.282966
-0.663293
0.0539472
0.648912
0.41226
-0.674357
0.106047
0.71702
0.603492
0.434092
-0.237318
0.429782
-0.178798
-0.0995631
0.337199
-0.160286
0.438032
-0.648759
0.679146
0.754181
-0.539565
-0.708711
0.227441
0.688232
-0.694408
0.0858654
-0.570611
0.626631
-0.0437929
-0.461383
-0.202876
-0.588391
0.586505
0.725033
-0.0432583
-0.0320327
-0.690974
0.691125
-0.723149
-0.544159
0.29316
-0.637208
0.378006
-0.607343
-0.319294
-0.184459
0.244296
-0.16963
-0.434065
-0.595574
-0.210404
-0.105236
-0.66625
0.431663
0.734746
0.29244
-0.145299
0.0606696
0.166128
-0.011113
-0.561944
-0.692501
-0.507136
0.100844
0.0829182
0.695092
0.427714
0.214187
-0.675564
-0.662362
-0.423364
0.177492
0.140328
0.398899
0.336858
-0.196427
0.398649
0.692873
-0.579682
0.139054
0.5821
0.379897
0.13643
-0.122627
-0.18009
-0.703869
-0.369082
0.384025
0.427111
-0.69541
-0.0732792
-0.693026
-0.597035
0.641751
0.554108
-0.15457
0.146548
-0.365849
0.512125
-0.31346
-0.735031
-0.301902
0.581505
-0.0778405
-0.446104
-0.382671
-0.0885663
0.305678
-0.250705
-0.0962273
0.639901
-0.684957
0.373518
-0.747791
-0.117238
0.130423
-0.0196495
0.109727
0.568118
0.540975
-0.380215
-0.645705
0.577932
0.0889271
-0.557752
-0.0961477
0.340176
0.351507
0.318181
-0.190111
-0.157896
0.167778
-0.0775772
0.46673
-0.57708
-0.376403
0.201771
-0.413566
-0.203589
-0.189712
0.0251797
0.485764
0.0719712
-0.578723
-0.457229
0.390081
-0.428539
0.655776
0.0180027
0.489425
-0.737993
0.0712429
0.0666617
-0.677682
0.127985
-0.217207
-0.647301
-0.547474
0.325064
-0.402713
0.254325
0.41668
0.500778
-0.248077
-0.334246
0.522968
-0.376963
0.00735912
-0.0318234
-0.699655
0.210577
-0.0396598
-0.216978
0.33708
0.209363
0.00323201
-0.66018
0.179244
0.0222148
0.00219173
-0.399644
0.692149
0.291235
0.670207
0.456468
0.327017
-0.746538
-0.199351
0.0559648
-0.112559
-0.473093
0.573989
0.0893191
0.462806
0.408919
0.753928
0.725185
-0.592671
0.222954
0.369271
-0.116514
0.216204
0.29047
-0.185434
-0.435927
-0.441898
-0.620651
-0.273546
-0.506876
0.470978
0.707142
-0.675597
-0.713777
0.598555
0.117947
-0.0160836
-0.507965
0.422321
0.563916
-0.281071
0.272296
0.121673
-0.465371
-0.513156
-0.721807
-0.000981558
0.750857
0.204441
-0.464581
0.534162
-0.526736
-0.478303
-0.0534009
0.595132
-0.0477488
0.19723
0.231888
0.0168461
0.563963
-0.180279
-0.241825
-0.651295
-0.241752
-0.0744585
-0.668382
-0.639688
0.517605
0.70896
0.397888
0.206874
-0.433051
-0.212807
-0.402197
-0.435156
0.340234
-0.586985
-0.654032
-0.677948
0.299976
-0.159119
0.715086
-0.539216
-0.0933719
-0.079143
0.718611
-0.151072
0.704793
-0.429145
-0.387084
0.736566
-0.0725648
0.620699
0.68106
0.290631
-0.170922
0.192628
0.0155616
-0.317934
-0.277708
-0.716685
0.297787
0.435131
0.307125
0.172211
0.103931
0.350934
-0.453109
-0.743374
-0.312747
0.0308141
-0.0476786
-0.452463
0.541744
-0.22818
-0.113637
-0.521352
0.689271
0.123587
0.33772
-0.624587
0.373348
0.433924
0.515621
-0.0454023
-0.025364
-0.463276
0.0707373
-0.320826
0.436179
0.453692
0.304847
-0.392507
-0.406107
-0.642842
-0.172506
0.195577
-0.541088
0.305064
0.378612
0.484703
-0.561329
-0.588464
0.512325
0.6835
-0.57156
-0.120375
0.576194
0.107825
0.492181
0.0193491
-0.359745
0.755647
0.626171
0.264443
-0.266672
-0.242353
-0.0484351
-0.61572
-0.198558
-0.421489
-0.266181
-0.54164
-0.295347
-0.693215
0.391548
-0.427945
0.394492
-0.38791
0.471996
-0.380051
0.0371012
0.16817
-0.235717
0.222531
0.441625
0.647402
0.0869597
-0.630825
-0.37464
-0.747197
0.336573
0.499811
-0.644093
0.223273
0.69128
-0.483698
0.612542
-0.639414
0.595515
0.713531
-0.639378
-0.220526
0.429117
-0.49072
0.504734
-0.216501
0.449554
0.0556645
-0.105533
0.202692
0.725206
0.243916
0.501022
0.357909
-0.0370423
0.0120781
0.239925
0.0833106
0.570363
0.0407987
0.0750918
-0.152893
0.612888
-0.734935
0.160902
-0.159783
0.0154698
0.640285
0.212353
0.0848447
0.0209401
0.565824
0.159396
0.0346975
-0.153759
0.599759
-0.395412
0.300309
-0.0972255
-0.472647
-0.128162
-0.613479
0.362283
0.235843
0.0194011
-0.399705
0.194794
-0.709044
-0.313771
-0.706906
0.650699
0.483167
0.366526
-0.37989
0.0350835
0.123386
-0.119905
-0.521694
0.175719
0.140783
-0.0948365
-0.449986
0.688304
0.0542458
-0.355735
0.538826
-0.178802
0.522903
0.154511
-0.462304
-0.399845
-0.0417744
0.546715
-0.470305
0.394759
0.0116146
0.246484
0.103221
-0.632817
0.494874
0.691334
0.660856
0.166899
0.502864
0.0417315
-0.66289
-0.225964
-0.555778
0.543578
0.158077
0.491071
-0.514492
-0.0923571
0.130442
-0.174105
0.0553064
-0.315601
-0.108905
-0.329411
-0.395717
0.254663
0.161153
0.380344
-0.569498
-0.604277
-0.173706
0.218714
-0.594383
-0.359499
0.0600253
-0.185388
0.135496
0.663863
-0.442673
0.407543
-0.191407
0.643344
-0.0158116
0.686013
-0.195595
0.286911
-0.289068
-0.753518
-0.19422
-0.381933
0.697955
-0.476288
0.187608
0.601084
-0.747508
0.0469443
0.526376
0.143006
0.442106
0.592365
0.187023
0.667515
-0.444953
0.422658
0.00433541
0.481666
0.0218017
0.135707
0.466829
-0.198603
0.212951
0.736971
-0.141687
0.4555
-0.024024
0.0789209
0.322578
0.216265
-0.0988858
0.701604
-0.252712
0.183915
0.450387
-0.466563
-0.00428164
0.66937
0.529519
0.0490371
-0.55937
0.188952
0.0224646
0.330559
-0.417084
-0.483535
-0.141185
0.605113
-0.14861
0.630788
-0.26948
-0.156922
0.678196
0.637708
0.129635
-0.419084
0.62362
-0.166629
0.53043
-0.14191
0.552515
-0.697619
-0.186416
0.650195
0.403897
-0.330603
-0.34859
-0.654326
-0.393147
-0.126428
-0.612107
0.322237
-0.392787
0.650244
0.486835
0.153507
0.45646
-0.38347
0.337707
-0.227609
0.490566
-0.114852
0.542128
0.512613
-0.307307
-0.0977458
0.349271
-0.724129
-0.47198
-0.228765
-0.296728
-0.449243
-0.367515
-0.708115
-0.0124008
-0.0754033
-0.752837
0.0493013
-0.531314
-0.144997
-0.271095
0.0885338
-0.285361
-0.340479
-0.209092
-0.649478
-0.269729
0.59209
0.455045
-0.103841
0.618063
0.0411797
0.00308731
-0.558403
-0.41961
-0.358438
-0.688016
-0.291005
-0.179546
-0.221665
0.621779
-0.662352
0.115029
-0.728598
0.107801
0.320588
0.179713
0.266184
0.317174
0.155273
0.0861518
-0.673585
0.18324
-0.561878
0.554126
-0.709153
-0.163019
0.267463
0.0325756
0.462097
0.730069
0.1209
0.378894
-0.30106
0.53211
-0.0561399
-0.695419
-0.03386
0.399084
-0.32585
0.478333
-0.691098
0.0469975
0.417152
0.0610735
0.0922909
0.493839
0.176408
-0.174865
-0.591709
0.447745
-0.13299
0.437606
0.436056
-0.0375871
0.544131
-0.585088
-0.368089
-0.25538
-0.687875
-0.509493
0.156063
0.0957076
-0.11037
0.232401
-0.720391
-0.470288
-0.65738
0.107232
0.590395
0.693386
0.6838
-0.224308
-0.726938
0.485206
-0.687982
-0.300631
-0.554219
-0.0114464
-0.0473252
-0.330537
-0.725564
0.715861
0.335332
-0.537325
-0.588184
-0.253404
-0.747554
0.385504
-0.577535
-0.574445
0.0263568
0.539561
0.48747
-0.249293
-0.100279
-0.450753
-0.420933
-0.439952
-0.422933
0.555945
0.658143
-0.41159
0.328692
-0.175621
-0.356532
-0.740111
-0.376828
0.31979
-0.53712
-0.60206
0.218617
0.256645
-0.384615
0.308956
0.543649
0.114021
-0.0831095
0.136858
-0.303158
-0.139548
0.643093
-0.587301
0.470975
-0.100486
-0.0310806
-0.015988
-0.0724527
-0.42417
0.135246
0.226249
0.316917
-0.485993
-0.460884
0.514054
-0.333672
-0.582604
0.519858
0.329653
0.60889
0.332768
-0.488299
-0.00455504
0.62447
0.117208
-0.436499
-0.526121
0.590532
-0.290915
0.127676
0.680743
-0.326181
0.726113
-0.29419
-0.709561
0.560516
-0.259081
-0.573234
0.672643
0.343082
0.255591
0.15544
0.581856
-0.186531
-0.721032
0.0308491
0.36179
-0.727429
-0.755759
0.747334
0.376237
0.736979
0.714818
-0.301391
-0.534369
0.00545501
0.27034
0.140659
-0.706994
-0.423584
0.578374
-0.149619
-0.175248
-0.522049
0.000385076
-0.490043
0.0238091
0.215684
0.220123
-0.0393586
-0.132005
-0.0594311
0.409699
0.0962366
0.30078
-0.286424
0.477672
0.680185
0.374562
-0.167608
-0.109822
0.580769
-0.18847
-0.515484
0.516653
-0.579589
0.0440319
-0.48372
0.296032
-0.690807
-0.327648
-0.656076
0.156671
0.0333005
-0.380406
-0.120993
0.0975827
0.290774
-0.0190438
0.184348
0.221599
0.0548108
-0.635665
-0.619765
-0.0697019
0.729704
0.515654
0.633641
-0.525466
0.522364
0.52635
-0.437524
-0.0356543
-0.421944
-0.0458388
0.725469
0.716263
0.245194
-0.0720475
0.605142
-0.698306
0.590544
-0.551528
0.08748
-0.426331
-0.306673
0.742532
0.32241
-0.651638
-0.126942
-0.136147
0.431283
0.309073
0.0391133
-0.494885
-0.342074
0.20602
-0.252795
0.477362
-0.372073
-0.226236
0.346061
-0.00431631
0.232948
-0.25721
-0.186223
0.0507283
-0.445307
0.238313
0.461221
-0.0703963
0.106538
-0.0730203
-0.695134
-0.663572
0.696992
-0.423494
0.0847671
0.262207
0.00806005
-0.324489
-0.30719
0.617546
0.591307
-0.242198
-0.201308
0.651493
-0.624047
-0.0741914
0.647042
-0.255383
-0.570879
0.263729
-0.154666
-0.621504
-0.473541
0.25474
-0.259699
0.219372
0.424194
0.717779
0.417263
0.403628
0.307933
0.397169
0.124056
0.427195
-0.669293
0.135099
-0.523709
-0.440423
0.653384
-0.740689
-0.150581
-0.303177
0.46892
-0.501754
-0.628642
-0.0135204
-0.176257
-0.156489
