0.738305
-0.127906
-0.648716
-0.20811
-0.439062
-0.719453
-0.554162
-0.820634
0.0210393
0.703937
-0.80096
-0.26158
-0.246704
-0.512445
0.918871
-0.0306424
0.589403
0.081185
-0.760801
-0.324966
0.299
0.885611
0.211125
0.905295
-0.23889
-0.715732
-0.732999
0.484612
-0.774632
-0.102746
0.493285
0.0440159
0.224661
0.795714
-0.126982
0.236594
-0.91337
0.4235
0.0353825
-0.140066
0.607969
0.373713
0.507079
-0.257328
-0.663464
0.752345
-0.446687
-0.887012
0.180503
-0.634921
-0.704424
0.524845
0.197172
-0.752995
0.0573772
0.0620149
-0.334956
-0.358287
-0.209116
0.436519
0.121805
-0.31656
0.811445
0.60031
-0.778919
-0.414039
-0.709797
-0.170305
0.80225
-0.304708
-0.156922
0.473836
-0.632074
0.740715
0.508962
-0.701085
-0.0364766
0.847184
0.893876
-0.876774
0.175502
-0.555783
0.880653
-0.104882
-0.0124401
-0.167146
0.438214
0.237564
-0.661938
-0.270037
-0.245917
0.159851
0.0630469
0.87329
-0.715383
-0.641802
0.274051
0.27298
0.921091
-0.152053
-0.0817789
-0.768799
-0.324905
-0.520851
0.389712
-0.24925
-0.641307
0.480926
0.401565
0.812382
-0.183879
-0.727137
0.659953
0.890252
-0.152011
0.742007
-0.435338
0.643282
0.787104
0.907885
0.444688
-0.469541
-0.122581
-0.0989679
-0.546531
-0.559395
0.496094
0.197544
0.501757
-0.183856
-0.0646812
0.221491
0.584387
-0.888688
0.293373
-0.436902
-0.920195
-0.445801
-0.708296
0.202237
-0.671028
0.873862
0.0309625
0.538233
-0.848794
-0.351499
0.484086
-0.549599
0.222632
0.740329
-0.233243
-0.210358
-0.213248
0.321086
0.059236
0.876216
-0.347931
-0.182615
-0.811157
0.791215
0.91289
-0.455271
0.406296
-0.182009
-0.405297
0.73855
0.035552
0.0698154
0.63181
0.447281
-0.307595
0.303686
0.540681
-0.223476
0.7143
0.0623612
0.583247
-0.726811
-0.544137
0.497087
-0.584349
-0.449831
0.087118
-0.537903
-0.528606
-0.894317
-0.355435
-0.0609565
0.528189
0.136772
0.326798
-0.437312
0.140126
0.743117
-0.422101
0.342163
0.856161
-0.545759
0.775956
-0.102611
-0.170223
0.806176
0.645663
-0.28358
0.615302
-0.0259963
-0.75174
-0.530705
0.419015
0.0745815
0.117821
-0.225296
-0.524481
-0.0402169
0.714965
0.614788
0.204056
0.904584
-0.118695
0.595933
-0.878759
-0.842082
0.873781
0.474359
-0.258314
0.5002
0.172192
-0.146406
0.769009
-0.704629
0.0645474
0.684028
0.696818
0.646256
0.419832
-0.44776
0.80487
-0.510704
0.591567
-0.143829
-0.150711
-0.40504
-0.311501
-0.57314
0.164071
0.849008
0.60009
-0.448439
-0.833496
0.381262
-0.498812
0.174106
0.632745
0.843768
-0.325515
-0.132718
0.76567
-0.634529
0.124748
0.704635
0.275961
0.4103
-0.498419
0.609206
0.279481
0.287972
0.656015
0.613869
0.409334
0.0226815
-0.913357
-0.830689
-0.545747
0.924205
0.878774
-0.626925
0.36927
0.628432
0.254309
-0.686942
-0.478606
-0.546754
-0.205358
0.541106
0.0300736
-0.434647
0.232261
0.337969
-0.85323
0.705152
-0.849324
0.103671
0.643124
0.641167
-0.680436
0.593301
-0.768209
-0.493629
-0.279143
-0.219284
-0.21842
0.732904
0.751029
0.792588
0.164115
-0.227461
-0.299393
-0.460216
0.0957649
-0.582571
0.0842995
-0.816938
-0.442098
0.352339
-0.582702
0.201901
-0.537745
0.419546
-0.823431
-0.16123
-0.645585
-0.301865
-0.139971
0.917609
-0.225403
-0.680298
-0.771087
-0.450244
0.629847
-0.713079
-0.0894865
-0.834805
-0.501005
0.317833
0.220234
0.244969
0.361151
-0.307644
0.152536
-0.254485
-0.69894
-0.864829
0.59425
0.226471
-0.173133
-0.606236
-0.849765
0.659175
0.891845
0.878962
0.673103
-0.545246
-0.414738
0.300385
-0.748708
-0.634825
-0.0427005
-0.0680738
0.525422
0.475924
-0.494735
0.579299
-0.905727
-0.680877
0.864319
0.730385
-0.130045
-0.271785
-0.217921
0.243328
0.608093
-0.0599917
0.0555131
-0.244457
0.522666
0.778932
-0.781743
-0.596739
-0.297428
-0.251233
-0.670205
-0.860475
-0.0384151
0.850138
-0.882557
-0.839335
0.457639
-0.696521
-0.0871551
-0.163091
0.845923
0.793663
0.01278
-0.524909
0.145964
0.112658
-0.0387739
0.765191
0.308675
0.258796
