0.807584
-0.703624
0.73609
-0.861668
-0.290035
-0.02564
-0.820251
0.895467
-0.0672551
-0.575893
-0.828269
0.984579
-0.0244537
-0.104832
-0.519014
-0.569175
-0.118817
0.905013
-0.444897
0.844782
-0.255397
-0.659918
0.837005
0.779008
0.368313
0.604079
-0.0711827
0.162058
-0.358668
-0.607091
0.0725238
0.175632
0.407754
0.251012
0.824476
-0.305217
0.645045
0.872335
0.776728
0.270464
-0.458138
-0.564542
-0.540004
0.666276
-0.235897
0.910601
-0.474053
-0.495339
0.204534
-0.09102
-0.0948222
0.844799
-0.64555
-0.821137
0.442483
0.524458
-0.496755
0.750385
-0.694847
-0.174455
0.0369331
-0.543466
-0.841458
-0.370184
0.216393
0.558274
0.642506
-0.638434
0.904006
-0.310976
0.274005
0.558644
-0.845747
-0.298916
-0.318651
-0.441628
-0.943366
0.820774
-0.382707
-0.184326
-0.349376
0.946446
0.828721
0.720777
0.889878
-0.205832
-0.450441
-0.444831
-0.387732
0.431658
-0.122635
0.997828
-0.00979282
0.831218
-0.592441
-0.168861
-0.605197
0.174544
0.177493
-0.852668
-0.0494674
0.750293
-0.242239
-0.773194
-0.961554
-0.828044
-0.0910507
0.478551
0.440515
0.124634
0.523929
-0.589458
-0.0135384
-0.913515
-0.884003
0.611329
-0.235835
-0.053397
0.776248
0.711869
0.713713
0.709896
0.242125
0.152439
-0.0684296
0.834613
0.367148
0.0594449
0.397903
-0.285147
-0.66021
-0.441166
0.633421
0.779865
-0.603317
-0.453637
0.0277847
0.712966
-0.639993
-0.376599
0.965892
-0.0739484
-0.4429
0.541794
0.812067
-0.764014
-0.0511337
0.634134
0.304976
-0.917136
0.00186548
-0.682861
-0.157073
0.152139
-0.640718
-0.375226
0.66974
0.666992
-0.685318
0.0316791
-0.488856
-0.392786
0.442231
0.195991
-0.362226
-0.567346
-0.680346
-0.131058
-0.735493
0.814227
0.553099
0.353223
0.403274
-0.910407
0.935306
0.234882
-0.108612
0.939008
-0.811571
-0.771974
-0.0329911
-0.749373
-0.759383
0.115498
-0.222978
-0.48961
0.296091
0.787375
-0.0906354
-0.520761
-0.0590619
-0.421235
-0.128465
-0.826039
0.704092
0.867327
-0.639433
-0.0117849
0.844188
-0.926092
0.392602
-0.741092
-0.350819
-0.839904
0.171341
-0.0479202
-0.777753
-0.727675
-0.443855
-0.392101
0.925978
-0.494031
0.447247
-0.677926
0.936893
0.972884
0.740461
-0.294392
-0.576838
0.349635
-0.614567
0.603527
-0.821887
0.0976694
0.93352
0.0203286
-0.510436
0.843703
0.546281
0.739384
-0.733638
0.461251
0.510273
-0.140472
-0.694822
0.0597035
0.772061
0.544184
0.121701
-0.947415
-0.293783
-0.707889
-0.194423
-0.478565
-0.0679214
-0.999527
0.540124
-0.529684
-0.67056
0.887435
-0.179181
-0.626003
-0.307795
-0.883284
-0.524332
0.0659085
-0.745131
-0.353393
0.909737
0.288482
0.156864
0.597038
0.531106
0.722711
0.0142587
-0.519414
-0.578085
0.371599
-0.919392
-0.0981201
0.550778
0.419213
0.61803
-0.205346
0.141299
-0.121741
-0.411243
0.862054
-0.212535
-0.33979
0.139789
0.238872
0.00622194
-0.357238
0.276856
0.614307
-0.444193
0.301216
-0.443877
0.232655
0.146981
-0.517876
0.831165
-0.0387322
0.18436
-0.173002
-0.552589
0.984362
0.372379
0.843833
0.638337
0.299626
0.881032
0.655095
0.380383
0.111185
-0.195461
-0.423794
-0.712248
-0.344098
0.439742
0.733934
0.430359
0.883997
0.956068
-0.186618
-0.416602
0.376637
-0.366059
-0.0487765
0.101287
0.675759
0.632185
-0.50967
0.130214
0.648104
0.420616
0.936557
-0.441683
0.702822
0.483559
-0.218208
-0.0520606
-0.365434
-0.848332
-0.155346
0.475934
-0.376977
0.0185164
-0.804026
-0.644673
-0.769722
-0.261947
0.267935
-0.459024
-0.673804
0.304551
-0.81703
-0.89257
-0.875933
0.100222
-0.327298
0.266199
-0.788878
0.49217
-0.981458
0.84963
0.221683
-0.319504
-0.432422
-0.226533
0.731825
-0.579699
0.087076
-0.189466
-0.776688
-0.471966
-0.481624
0.905359
-0.947576
-0.589052
-0.146386
0.362461
-0.0430038
-0.154578
0.701495
0.857208
-0.792649
0.876603
-0.331809
-0.721464
-0.313927
0.183779
0.254051
-0.219412
-0.716048
-0.509224
0.914038
-0.404614
-0.0996088
0.430442
0.834399
-0.201942
-0.253289
-0.582536
0.232636
0.729536
0.334113
0.320902
0.119499
