-0.713092
-0.225948
0.0207028
-0.354762
0.154229
-0.0216523
-0.000348037
-0.833141
-0.382858
-0.613641
0.409241
-0.847436
0.735093
0.535288
-0.147393
0.495503
-0.187516
0.568046
0.827938
0.864632
-0.524803
0.0350662
0.410647
-0.41369
0.601152
-0.586258
0.483332
-0.852901
-0.186573
0.4523
0.977785
-0.306819
0.945224
0.094439
0.743409
-0.059993
0.670699
-0.90004
0.123046
0.0510242
0.762681
-0.930806
0.284601
-0.445666
0.308451
0.204946
0.291285
0.130751
-0.25507
-0.150485
-0.201504
0.0377788
-0.206042
-0.690188
0.982684
0.143333
-0.214407
0.936201
0.672432
-0.776139
0.750086
0.604467
0.848695
-0.0280793
0.670867
-0.759832
0.609585
0.963366
0.234879
-0.685292
0.359462
-0.377861
0.929128
-0.456478
-0.747475
0.971737
0.447318
-0.460693
-0.521348
-0.408787
-0.19801
-0.94278
0.709138
0.140546
-0.708316
-0.381086
0.549076
-0.710553
-0.184773
-0.602125
-0.0366624
-0.588056
0.659659
0.368332
-0.460671
0.897578
0.334598
-0.163535
0.356109
-0.761414
0.00317318
-0.182046
0.353894
-0.704396
0.93358
0.176853
-0.898355
-0.934259
0.784704
0.487699
0.168211
0.515442
0.255586
-0.291347
0.507741
-0.337616
0.153451
0.92733
0.689471
-0.836175
0.80154
-0.535743
0.883518
-0.532803
-0.969452
-0.879525
0.424326
-0.863473
0.268208
-0.622164
0.130777
-0.449427
0.289808
-0.909024
-0.507732
-0.966964
-0.2653
0.531775
0.149437
-0.447955
0.703639
0.926192
0.368571
-0.600358
-0.725699
-0.0770437
-0.815714
0.18827
0.703197
0.912848
-0.572029
-0.326837
0.145574
-0.769654
0.603988
0.158548
0.686763
0.287583
0.472065
0.1813
-0.777399
-0.265816
-0.612929
0.92134
0.941579
-0.407081
0.537342
0.638473
0.979268
-0.201835
-0.242434
0.758328
-0.227632
-0.55608
-0.201258
0.367932
0.0806566
-0.449893
-0.654876
0.507233
0.0759728
-0.748965
-0.436664
-0.264056
0.810889
0.189699
-0.527084
-0.96709
0.59573
-0.802818
0.298225
-0.199038
-0.552592
0.951473
0.743923
0.25157
0.893219
0.248894
0.790878
0.431744
-0.490762
0.819562
0.918829
-0.217285
0.328698
-0.581478
0.924595
0.315115
-0.536085
0.521206
-0.0362558
-0.323927
0.122188
0.78822
-0.219868
-0.450582
0.733852
-0.281936
0.207471
-0.382503
-0.343041
-0.393836
-0.420268
0.0771714
-0.78521
-0.364879
0.626094
0.765089
-0.078342
0.531492
0.724008
0.0584386
0.349998
0.793446
-0.819468
-0.340948
0.494396
-0.659685
-0.745198
0.887671
0.317308
-0.400798
0.75374
-0.944514
-0.439674
0.18857
0.276741
-0.666281
-0.373731
-0.994284
-0.898051
0.391762
0.463117
-0.328169
0.639169
0.632211
0.828692
-0.0332169
0.58739
-0.49064
-0.900483
-0.401072
0.166949
-0.307293
-0.686941
-0.733322
0.411256
-0.0833893
-0.136567
-0.404083
0.139573
-0.809564
0.964955
-0.51198
-0.523175
-0.0925149
-0.206377
0.00475475
0.164071
0.357865
-0.67341
0.670513
0.810029
-0.320193
0.0179017
0.00893353
-0.20173
0.791176
0.964609
-0.423528
-0.0723269
0.47465
-0.66845
0.179015
-0.689463
0.404192
0.685059
-0.175031
-0.517136
0.254344
-0.502343
0.091624
0.393932
-0.0071208
-0.885133
-0.9885
-0.468635
-0.0392503
-0.0063642
0.235416
-0.838596
-0.131917
0.791679
0.0349007
0.429189
-0.658428
0.289196
0.873683
0.550093
-0.523544
-0.862348
0.510396
-0.119548
0.164028
0.21949
0.481674
-0.560336
-0.176308
0.992883
0.202216
-0.114581
-0.13082
0.294359
0.503985
0.261298
0.560822
0.882729
-0.0522431
0.178577
-0.582452
-0.347871
0.105149
0.58918
-0.33611
-0.576775
0.275975
-0.603869
0.693364
0.711623
-0.852321
0.0187797
-0.328703
-0.739316
0.282942
-0.338106
-0.743399
-0.741364
0.412547
0.757915
-0.599091
-0.0469012
0.037538
-0.0809079
0.805031
0.268555
-0.429155
0.596335
-0.575341
0.0534274
-0.29111
-0.260596
0.0779084
-0.305791
-0.579152
-0.564625
0.370462
-0.144539
0.635038
0.68727
0.675602
0.81015
-0.642228
0.433733
-0.675325
-0.31418
0.0834159
0.678973
0.524127
0.243037
0.525501
-0.405175
0.58134
0.854563
-0.843227
-0.301208
0.736976
-0.441684
-0.191304
-0.243787
0.616652
0.72198
-0.862875
-0.0985293
-0.307055
0.345361
-0.940538
-0.99577
-0.0729491
0.558565
-0.461714
-0.00966928
-0.497828
0.946473
-0.139437
0.826386
0.00246253
0.320209
0.998919
0.595985
-0.736725
-0.337265
-0.526085
-0.566577
-0.151155
-0.512946
0.315743
-0.404909
-0.983299
0.237031
0.98848
0.582406
-0.253559
-0.336663
0.578612
0.783809
-0.825653
-0.821598
0.89055
0.410506
0.0157188
0.600877
-0.497822
0.157221
0.745529
-0.848194
-0.712549
0.841582
-0.491543
0.386695
-0.660757
-0.942223
-0.243763
0.976765
-0.492055
-0.50937
-0.637758
0.866757
0.434372
0.286708
0.672314
0.291375
-0.972535
0.699811
-0.357502
0.890191
0.431429
0.336387
0.61483
-0.738131
0.877703
-0.748087
-0.573192
0.513669
0.130495
-0.436203
0.827268
-0.879815
-0.624398
-0.796591
-0.0731498
-0.0448251
0.462999
0.544467
0.0839214
0.0728882
-0.0528059
0.276724
-0.830872
0.494607
-0.88019
0.610481
0.571932
0.189669
-0.746753
-0.525053
0.416619
0.34511
-0.817098
0.176078
0.884309
-0.667929
0.854806
0.156169
-0.166785
-0.766098
0.596111
0.104586
0.145732
0.405405
-0.217786
0.0403495
0.783408
-0.83868
0.133789
0.932119
-0.494967
-0.105053
-0.773164
0.751172
0.262729
-0.364172
-0.040869
0.746186
0.0484186
-0.162611
-0.257309
-0.909522
-0.77726
0.66258
-0.0981812
0.838527
0.46336
-0.837113
0.033425
-0.808167
-0.740579
0.764009
-0.568514
0.333666
0.201842
0.645617
-0.109851
0.0225163
0.113642
0.179791
0.136348
0.450531
0.305095
-0.829036
0.0695002
-0.0802149
-0.635139
0.156295
-0.132789
0.441993
-0.0268039
-0.534394
0.0463337
0.632389
0.787656
-0.247057
-0.31288
0.0347098
0.738776
-0.209792
0.911281
0.105184
-0.559314
-0.814114
-0.303877
-0.776767
0.728645
0.870115
-0.688021
0.0904806
-0.892628
0.638239
-0.685837
-0.642127
0.0361191
-0.339767
0.747571
-0.797695
-0.0781484
-0.181292
-0.665187
-0.0543969
0.0329434
-0.0280294
-0.455878
-0.859282
-0.220123
0.662207
-0.816824
-0.900398
-0.584489
-0.495525
-0.0783561
0.127627
0.842569
0.229417
0.815244
0.40322
-0.754951
0.719457
0.694131
0.76807
-0.395248
-0.389947
-0.522383
-0.576818
-0.66446
0.751729
0.796405
-0.360003
0.99645
0.371279
0.490406
-0.540702
-0.685017
-0.870441
-0.954387
-0.372857
0.673152
-0.378783
0.849525
-0.588973
-0.783726
0.15509
0.204322
0.332542
0.145511
-0.460795
0.628483
-0.233183
0.334174
0.189099
-0.631898
-0.397262
0.160312
-0.51244
0.441406
-0.451809
0.980812
-0.357082
-0.930678
0.366289
0.266189
0.402447
0.966435
-0.880639
-0.342931
0.712866
-0.893749
0.0277462
-0.546787
-0.00832241
0.424404
-0.393044
0.726327
-0.377837
-0.136557
0.59802
-0.452051
0.652016
-0.629726
0.79626
0.748941
0.54523
-0.067993
0.690587
-0.226428
0.418876
0.904126
0.799797
-0.672887
-0.387117
-0.855942
0.740969
-0.0887887
0.434254
-0.409954
-0.23993
0.539789
-0.0301851
-0.583499
-0.265238
0.728376
-0.517905
-0.731303
-0.726425
-0.242591
0.0508655
0.322917
0.536268
0.114447
-0.742585
0.678075
0.931563
-0.498697
-0.462093
0.905629
0.177385
-0.205953
0.0165764
0.898016
-0.47843
-0.330894
0.860462
-0.2763
0.650333
0.646345
-0.816564
-0.97491
0.609488
-0.918936
-0.236614
-0.52531
-0.871228
-0.296991
-0.431276
-0.241052
-0.455244
-0.0503593
0.230691
-0.127759
-0.414394
0.0817495
-0.518494
-0.417493
-0.550633
-0.272449
0.698054
0.365433
-0.430986
0.387292
-0.750716
-0.953113
-0.206755
0.221504
-0.267993
0.327662
-0.861275
-0.290745
-0.747649
-0.754485
-0.282731
-0.119724
-0.92564
-0.708841
-0.505734
0.3977
0.904831
0.781425
-0.423647
0.103645
-0.0422354
0.231749
0.210351
0.15402
-0.25339
0.269325
0.217218
0.756179
-0.293178
-0.561366
-0.092199
-0.754685
-0.139879
-0.345372
-0.91376
-0.639783
-0.360315
-0.156526
-0.657351
-0.864893
-0.56264
0.504752
0.615857
0.10444
0.0590688
0.757388
0.80322
0.699146
-0.545912
-0.515914
0.883292
0.235525
-0.725756
-0.526044
-0.392891
0.905244
0.134385
-0.0212036
-0.348159
0.235819
-0.251622
0.806209
-0.440983
-0.207872
-0.970532
-0.342226
0.102094
0.210992
0.0813948
0.157874
0.468987
0.558393
-0.473446
0.522711
-0.0952005
0.0283175
-0.998004
0.722448
0.768953
0.140766
-0.485399
0.474437
0.964497
0.0920464
-0.677516
0.12414
-0.0124001
-0.494474
0.247605
-0.951921
-0.524158
-0.499046
0.576619
0.688222
-0.740428
0.0675147
0.351315
-0.665442
0.709177
-0.979339
-0.340389
-0.679473
0.990885
-0.0320458
0.5622
0.0101479
0.756795
0.62674
0.807225
-0.176729
-0.421345
0.712076
0.729558
0.809056
-0.689783
0.670258
-0.131264
0.520413
-0.621529
-0.153751
0.572053
-0.483101
-0.383016
-0.354548
-0.456587
-0.437771
-0.383909
0.359643
-0.282652
0.077807
0.82203
-0.0978269
-0.672912
0.994246
0.483112
-0.439391
0.118942
-0.825565
-0.372946
-0.360433
0.798852
-0.0495178
-0.990279
0.325464
-0.6908
0.442377
-0.550566
0.130771
-0.490385
0.218556
0.12635
-0.633277
-0.201124
0.370962
0.863326
-0.889793
0.935464
-0.264654
0.866959
-0.540626
-0.358412
-0.219402
-0.761675
0.527807
-0.151993
0.739642
0.946628
-0.465934
0.160141
0.355494
0.725174
-0.480952
-0.97476
-0.576246
-0.210465
-0.26581
-0.216559
0.0420066
0.420506
0.436385
0.892729
-0.371359
-0.421116
0.964791
0.070448
0.520376
-0.623671
-0.67387
0.352171
0.00792669
-0.331328
0.636306
0.737816
-0.785793
0.33503
0.883932
0.555523
-0.0225308
-0.483823
0.0559251
-0.289861
0.603422
-0.0936451
-0.737295
0.44685
0.119459
-0.185879
-0.777075
-0.723836
-0.123637
-0.508055
0.5802
0.483788
0.717355
0.810692
-0.57572
0.35848
0.415928
0.644488
-0.64398
-0.224046
-0.255294
0.22977
0.835046
0.618148
-0.0364288
-0.765003
-0.288957
0.463721
-0.748029
-0.780544
0.235681
0.369425
-0.627764
0.541863
-0.569167
-0.121558
0.110521
0.634047
-0.0080033
-0.619333
-0.09769
0.338144
-0.942907
0.672744
0.535211
0.94192
0.726667
0.458236
-0.230055
-0.172238
0.144448
0.766271
-0.171591
-0.319745
0.724273
-0.516576
0.987458
-0.491316
-0.752319
0.438566
0.824115
-0.112752
-0.597953
-0.634269
-0.848583
-0.112901
-0.536468
-0.0616289
0.149211
0.0281795
0.461525
-0.556162
-0.744011
-0.077865
0.444917
0.361873
0.40276
0.0506861
-0.0586779
-0.0133893
-0.561638
-0.580378
0.0495816
0.967531
0.859568
0.958207
-0.192523
-0.570505
-0.552665
-0.632104
0.153965
-0.315545
-0.871798
-0.237029
0.579131
-0.835101
-0.552036
0.192517
-0.346165
0.626948
-0.833933
0.428696
0.656125
0.908091
0.358064
-0.667495
-0.400989
0.579377
0.774938
-0.0517826
-0.874609
-0.820008
0.437726
0.87583
-0.179134
-0.160109
-0.483521
-0.887693
0.107785
0.353243
-0.0527872
0.632582
0.943133
0.296418
0.833971
0.039425
-0.583751
0.935262
0.115005
-0.0688109
0.106869
-0.751888
-0.510126
0.62215
-0.36575
-0.292094
-0.0149603
0.396714
-0.386819
-0.617841
0.716453
-0.0892462
0.519203
0.914157
-0.623662
0.872707
-0.73867
0.919987
-0.384098
-0.796794
0.343042
-0.131209
0.487519
0.874119
0.75657
-0.130566
0.387297
0.283294
0.245987
0.909035
0.273595
0.196361
0.925041
0.306916
-0.0903388
0.131199
0.708085
0.141997
-0.377767
0.36141
-0.839987
0.89925
-0.337693
0.937254
0.857344
-0.819039
-0.972465
0.491737
-0.366941
-0.303265
-0.300129
-0.309496
-0.296057
0.232952
0.195975
-0.75031
0.157438
-0.335307
-0.708207
0.578425
-0.714151
0.13048
0.558331
-0.765197
-0.815111
-0.391636
0.857233
-0.477377
-0.0523061
-0.175348
-0.79186
0.984953
0.437656
-0.877304
-0.111103
-0.730251
-0.363902
0.590595
0.849216
-0.775679
-0.845293
-0.445467
-0.0374758
0.399869
-0.951057
0.507523
0.205028
0.693974
0.629215
-0.348996
-0.0706528
-0.37424
0.189063
0.720961
0.254288
-0.245039
-0.157931
0.252484
-0.55882
-0.614189
-0.0597834
-0.358736
-0.199419
-0.461887
-0.301323
-0.85241
-0.783754
-0.942319
-0.324332
-0.531973
0.337008
-0.172478
0.156274
-0.822529
-0.106461
-0.531892
-0.535427
0.169001
-0.9052
0.0398826
0.887332
0.129395
-0.0189193
0.696199
-0.125218
0.558101
-0.442893
0.796443
-0.919263
0.560644
0.423652
-0.402394
-0.511639
0.98604
0.756527
0.709699
0.763244
0.734554
-0.351733
0.462944
-0.577742
-0.354632
-0.769047
-0.76325
-0.0751806
0.951937
-0.543319
-0.349452
-0.165602
-0.713201
0.728785
-0.0958901
0.659822
0.911446
0.601042
0.404821
-0.555492
0.199658
-0.952952
0.0941344
0.89566
-0.186717
-0.869273
0.112286
0.240804
0.296095
-0.963509
0.777926
-0.116918
-0.457425
0.157653
-0.150139
0.26336
-0.751536
0.115226
0.310222
0.455414
0.432924
-0.399209
0.104928
0.954697
0.631112
0.592314
0.0882031
0.776936
-0.76737
-0.951595
0.267526
-0.0269129
-0.302234
-0.0249392
0.938985
-0.430613
0.538617
0.209323
-0.552254
-0.0807755
0.929671
0.665004
0.755148
-0.840037
0.683874
0.983043
0.0569106
0.49788
-0.785574
0.0864334
0.939363
0.218315
0.761516
-0.63835
0.165678
-0.972197
-0.00511148
-0.031952
0.855689
0.930927
0.419859
-0.382599
0.201096
0.932451
-0.908198
0.766566
-0.0748598
-0.616315
-0.564893
-0.906207
-0.610976
-0.814261
0.181611
0.276815
-0.535028
0.843612
-0.0741549
0.139902
-0.800452
0.00380871
-0.350342
-0.912212
0.245578
0.790548
0.812961
-0.00592024
0.0979426
-0.668943
0.482766
-0.0263769
0.862858
0.685975
-0.448937
0.227551
0.357745
0.314097
-0.882383
-0.608586
-0.38285
-0.315773
0.125801
-0.91757
-0.737455
-0.763102
0.656758
0.172131
0.37867
-0.534685
0.860494
-0.259619
0.795552
-0.486568
0.626153
0.451554
-0.422172
0.821333
0.403185
-0.808679
-0.750411
-0.8742
0.541822
0.12766
0.582515
-0.321051
-0.416558
0.740896
0.100137
0.344452
-0.888205
0.497732
0.120408
0.991223
-0.450867
0.00951988
-0.652893
-0.717555
-0.0537426
0.37888
-0.562627
-0.912614
0.472369
0.686724
-0.841118
0.444492
0.00417128
-0.258283
0.0318645
-0.569309
0.216099
-0.91593
0.496541
0.078961
-0.96999
0.462754
-0.676901
0.407451
-0.282607
-0.822069
0.193906
0.269251
0.48901
0.166966
-0.991627
-0.603011
0.877772
-0.865343
-0.38846
-0.198842
-0.603035
0.176009
0.191882
0.551433
0.76679
0.583467
0.390615
0.719819
0.221868
-0.142723
-0.487775
0.105617
0.778805
0.551099
-0.305065
0.0275621
0.336835
0.89556
0.398757
0.999476
-0.777587
0.702473
0.185923
0.415969
0.729819
0.294157
0.482131
-0.838791
-0.245478
-0.887404
-0.417953
0.526781
0.866557
-0.349148
-0.439521
0.324726
0.260654
-0.0444728
-0.759534
-0.0714823
-0.721079
-0.527397
0.258912
0.780961
-0.72466
0.755209
0.689122
0.530483
-0.689811
-0.529294
0.0647642
-0.71372
-0.0390389
0.608285
-0.312579
0.524481
-0.650098
-0.547057
0.246399
-0.905876
-0.297956
-0.48692
-0.0701273
-0.287747
-0.726341
-0.939371
-0.734154
0.689383
0.0831071
0.191196
0.123346
0.186392
0.965387
-0.222636
0.232896
-0.0972525
0.865236
-0.723664
0.153081
0.863794
0.760019
-0.909594
-0.625095
-0.524368
-0.96644
0.980287
0.35332
-0.460394
0.518388
0.0706111
-0.34406
-0.57695
-0.139631
-0.0450034
-0.0334443
0.716154
0.538893
-0.611053
-0.867593
0.611149
-0.302119
-0.276324
0.151148
-0.532315
-0.164366
-0.802239
0.0730769
0.187135
0.999285
-0.851447
0.866384
-0.660252
0.0683151
0.37281
-0.176068
0.636054
0.25443
-0.000691439
-0.47778
-0.13022
-0.207794
0.544711
-0.254404
0.619097
0.90586
0.104682
-0.607325
0.752544
-0.0346663
-0.691252
0.749684
-0.611985
-0.0156346
0.653322
0.307912
0.119639
0.509542
0.592004
-0.583123
0.930073
-0.532086
0.602504
0.803409
0.68189
-0.398535
-0.826977
0.043127
-0.764707
0.734116
0.399653
0.781236
0.902598
0.127512
0.876194
0.847959
-0.77759
0.235421
0.686881
-0.059186
-0.154938
0.810348
-0.0051726
-0.829147
0.128462
-0.92446
0.770311
0.834272
-0.312692
0.228626
0.37725
0.278603
0.529168
0.478969
-0.452329
0.540973
-0.767877
0.169823
-0.628753
-0.179355
-0.408678
-0.986746
-0.690116
-0.542903
0.446827
0.86057
-0.699949
0.631614
0.927215
0.608887
-0.313609
-0.304766
0.0835501
-0.0688601
0.100072
0.509975
0.895318
0.419177
0.872388
0.354971
0.889644
-0.844035
0.186448
0.600392
-0.0545213
0.714487
-0.559265
0.135736
0.944055
0.844438
-0.565009
-0.346375
-0.476842
0.686805
-0.0457098
-0.445826
0.933112
0.438513
0.316731
-0.794694
0.516187
0.0244358
-0.290765
-0.558328
0.901768
0.265788
-0.682264
0.62743
0.299687
-0.233582
0.610139
0.794185
-0.166981
0.453239
-0.272925
-0.33549
0.755083
-0.822891
-0.880476
-0.861275
0.637481
-0.392234
-0.311082
0.856712
-0.735436
0.620286
-0.177103
-0.129245
0.172513
-0.941382
-0.0123777
0.246532
0.618873
0.241492
0.140392
0.118504
-0.632223
0.374908
0.0188212
0.164331
0.187112
-0.615801
-0.270629
-0.45201
0.907123
0.256948
-0.0165168
0.567565
0.00194474
-0.581598
-0.131497
-0.925666
0.724464
-0.153999
-0.129486
-0.996981
0.621449
0.18482
0.731116
-0.433922
0.453309
-0.20907
0.690402
-0.49063
0.990967
0.871914
-0.726833
-0.242378
0.698715
-0.13446
-0.656524
0.534302
-0.999371
-0.977615
0.920983
0.0171389
-0.0981809
-0.824204
0.360241
0.281909
0.657694
0.0853286
-0.214133
0.147891
0.887252
-0.0849148
-0.14264
0.131071
0.770088
-0.828934
-0.906249
0.940781
0.691614
-0.998303
-0.730612
-0.450719
0.532388
-0.367338
0.527133
0.282932
-0.963814
-0.66573
-0.309476
0.690076
-0.909508
-0.622127
-0.555953
0.975451
0.528132
-0.573785
-0.0308332
0.245249
-0.0516954
-0.0145844
-0.671
-0.217869
-0.151281
0.991155
0.850305
-0.276724
-0.975973
0.128186
-0.132449
0.90313
-0.54078
-0.488514
0.209761
0.077991
-0.408259
-0.608819
0.0270482
0.357215
-0.212967
-0.010591
0.818145
0.508545
0.800905
-0.311377
0.701862
0.318799
-0.487134
0.0689502
-0.755925
-0.595619
-0.106927
-0.682851
0.826416
-0.880519
-0.483368
-0.63981
-0.59062
-0.499274
-0.148526
0.792493
0.53469
0.877039
-0.927121
-0.312211
-0.388595
0.59556
0.354667
0.872538
0.0488385
0.242049
0.490492
0.214783
0.846976
-0.74545
0.383749
-0.497287
-0.946392
-0.414717
0.184369
0.540051
0.543123
0.64552
-0.71242
0.204212
-0.581386
-0.757984
-0.230718
0.673843
-0.131491
-0.802096
-0.92352
0.347109
-0.181591
0.383942
-0.507864
0.841198
0.603471
-0.666124
-0.949491
-0.348737
-0.486902
0.00263954
0.705908
-0.517245
0.408302
-0.934327
0.124663
0.034414
0.252145
0.394719
-0.439017
-0.746109
0.249795
-0.268394
-0.737483
-0.367113
0.411238
0.553
-0.469967
0.266834
-0.953129
-0.834982
-0.787244
-0.988881
0.554335
0.938135
0.662399
-0.00159279
-0.088637
0.0176129
0.501007
-0.956788
0.0958876
0.127041
-0.787889
0.960996
0.32089
0.366727
0.951273
-0.766579
0.0545482
-0.169352
-0.943729
0.443883
0.916036
0.945072
-0.973293
0.989221
0.448031
-0.118704
0.304402
0.4146
0.0301908
-0.21162
-0.950444
-0.924438
-0.393882
0.146819
0.0201237
0.530339
-0.138277
-0.150422
-0.917816
-0.567855
-0.968813
0.199488
0.38462
0.0639174
-0.696629
-0.0725576
-0.256946
0.168319
-0.804401
-0.904421
0.0769458
-0.155779
-0.0241411
-0.187222
-0.212422
-0.320592
0.954958
0.267957
0.0278723
0.641427
0.819308
-0.445307
0.161835
0.0343486
0.0983265
0.966678
0.298299
0.11679
-0.0852671
0.348034
-0.147843
-0.36369
0.662653
-0.45679
0.918783
0.185989
0.469642
-0.502331
0.322831
0.891841
0.651839
0.022539
-0.964004
0.095837
0.145813
0.89354
0.804647
-0.515901
0.272839
-0.894831
-0.953224
0.00201492
0.296555
0.720328
-0.694664
-0.638795
0.879061
-0.504726
0.783672
-0.694444
-0.149251
-0.725188
-0.532429
-0.897498
0.484954
0.548807
0.485091
0.270017
-0.480143
-0.455826
0.868431
-0.81208
-0.975664
0.812945
-0.26826
-0.218791
0.738235
0.242329
-0.086581
0.408838
0.814432
-0.165659
0.235437
0.136812
-0.214591
0.0954785
-0.266495
-0.146864
-0.95261
-0.0841185
-0.607086
-0.203773
-0.828419
-0.322986
0.563042
-0.884983
0.582654
0.06618
0.938532
-0.712296
-0.247065
-0.622338
-0.584329
0.394962
0.141311
0.292731
0.504712
-0.315847
-0.510638
0.00964853
0.462479
-0.990776
-0.424434
-0.386737
-0.0379191
-0.661151
-0.884206
-0.892774
-0.236717
-0.809871
0.421681
-0.967796
-0.864399
0.727692
-0.280703
-0.556438
-0.551556
-0.498284
-0.630675
-0.920873
0.604899
