0.789129
-0.00842366
-0.31033
-0.252189
-0.458514
-0.662978
0.262787
-0.500311
-0.988129
0.843801
-0.309802
0.685689
-0.493179
0.578854
0.823487
0.57728
0.828099
-0.81249
0.658512
-0.868739
0.566088
0.717151
0.909077
-0.131528
-0.191777
-0.756134
0.431221
0.925334
0.166466
-0.906252
0.684104
-0.997715
0.253115
0.547559
-0.0872427
0.714558
0.0232621
0.135163
0.745059
0.142854
-0.28114
-0.965076
0.444244
0.686264
0.155863
0.932746
-0.323613
-0.481561
0.209129
-0.857817
-0.818665
-0.745
-0.408179
-0.69757
-0.459578
-0.236558
0.372312
0.610027
0.95926
-0.130869
-0.882641
-0.62598
0.5129
-0.451266
0.806132
0.301872
-0.667072
0.745802
-0.368685
0.889855
-0.712611
-0.0861105
0.0135837
0.955042
0.68536
0.426751
0.462206
-0.109823
0.667471
0.186458
0.308004
-0.067876
0.244743
0.0257197
0.618198
0.694362
-0.530567
-0.620327
0.0910251
-0.511008
0.575124
0.602154
0.0439126
-0.583298
-0.105304
0.643175
-0.975769
-0.526768
0.780841
-0.185225
-0.341542
-0.0139362
0.670623
-0.631338
0.906414
-0.665034
0.136575
0.94407
-0.446212
0.928677
-0.384034
0.0355153
0.848619
0.639728
-0.69509
0.445371
-0.908344
0.123554
0.487531
0.259671
-0.542922
-0.763865
-0.785215
0.149209
-0.185503
-0.562305
-0.600692
-0.308615
-0.0144202
0.843816
0.74178
0.208586
0.552344
-0.315113
-0.560615
-0.445473
-0.672864
0.871463
-0.533668
-0.102999
0.585875
0.380511
0.0747098
0.970109
-0.461033
-0.58551
0.545524
-0.604993
0.319218
0.75613
0.99341
-0.25436
-0.238513
-0.0365066
0.868765
-0.0777282
0.194746
-0.0708326
0.328357
-0.495212
-0.893984
0.69179
0.25499
0.12522
0.334096
-0.865554
-0.539022
0.249305
0.423736
-0.364092
0.886723
-0.461947
-0.730908
0.775375
0.857269
0.0217751
-0.419412
-0.0596328
-0.713701
-0.754149
-0.598084
-0.69076
0.715375
-0.87175
0.522571
-0.374916
0.181932
0.762598
0.898908
-0.261021
-0.508304
0.599278
0.107239
0.578689
0.199528
-0.180024
0.31424
0.740389
-0.89975
-0.00178342
0.577571
0.0824872
-0.0405036
0.99832
0.375632
-0.864412
0.505747
-0.429581
-0.773164
-0.535162
-0.99387
0.962218
-0.581392
0.915638
-0.809136
-0.27554
-0.755313
0.41098
-0.0428633
-0.897468
0.574421
-0.853979
-0.914749
0.223893
0.946534
0.601851
0.170073
0.505075
-0.765798
0.414182
0.452303
-0.0878186
-0.189699
-0.273574
0.538134
0.0139956
-0.0316276
0.490572
-0.161031
-0.0515831
0.83606
-0.284149
-0.128151
0.293229
0.970138
0.989308
-0.728402
-0.548867
-0.896687
-0.0869302
0.227177
-0.51605
0.941936
-0.0910614
0.535611
-0.421012
-0.744977
0.276246
0.98403
-0.254905
0.526781
0.0701615
-0.819054
0.90959
-0.38099
0.535706
0.904193
0.330482
0.07461
0.603884
0.619283
-0.267596
-0.676023
-0.720732
0.941272
-0.215294
-0.325585
-0.565882
0.7139
-0.690485
-0.455488
0.998435
0.855887
-0.769515
-0.953769
-0.717877
-0.9571
0.111656
-0.128956
-0.742118
0.488744
-0.0628191
-0.0287569
0.488455
-0.947797
0.762261
0.662677
-0.200484
0.826993
-0.956038
-0.285926
-0.552393
0.417306
-0.507819
0.148653
-0.278117
-0.716715
0.2364
-0.681069
-0.518384
-0.170945
-0.427803
-0.00362715
-0.558279
-0.98308
-0.0517257
-0.63612
0.973937
-0.658234
-0.0168345
0.078138
0.30218
-0.298426
-0.503196
-0.435528
0.879971
0.514736
0.230826
-0.109927
-0.813396
-0.143695
0.573296
-0.800316
0.515606
0.993745
-0.118519
0.0237765
-0.970763
0.865947
0.877082
0.409455
0.319365
-0.248455
0.310591
0.847654
0.0149243
0.125801
-0.832779
0.413931
0.386658
0.63033
-0.582023
0.0824414
-0.261785
0.654188
0.681436
0.44828
0.933702
-0.0376761
0.0227542
0.5138
-0.173768
0.491668
0.65928
-0.956085
-0.125106
-0.502956
0.680592
0.305456
-0.144399
0.555957
-0.178707
-0.716622
0.950456
-0.170174
0.250932
0.100777
0.260694
0.800246
-0.658807
0.910257
-0.474607
0.682435
-0.549935
-0.576092
0.716278
0.441821
-0.149676
-0.179562
0.480221
0.318797
-0.3222
0.857002
0.0163721
0.580939
0.166915
-0.608437
-0.108065
-0.207852
0.0574191
-0.310007
0.357893
-0.5609
-0.325449
-0.397137
-0.338409
-0.386126
0.722857
-0.260155
-0.18057
-0.342478
0.198953
-0.728598
0.813527
-0.218695
-0.266779
-0.649353
0.0442403
0.826961
0.0354268
0.227135
-0.508977
-0.361257
-0.808036
0.965721
0.292278
0.234453
-0.700285
0.854967
-0.448041
0.513286
-0.635333
0.72151
-0.949985
0.926665
0.344099
0.122071
-0.680696
-0.886472
-0.82307
0.270825
0.0511149
0.0800066
-0.354429
-0.208966
-0.726508
-0.936948
0.192844
0.13605
0.622402
0.164669
-0.966094
0.467356
-0.967397
-0.873
0.488384
-0.853174
-0.13937
0.0583137
-0.482403
0.0185259
-0.605628
0.476041
0.117536
0.925688
-0.71009
0.473139
-0.802543
0.87146
0.949424
0.395879
-0.175341
-0.879145
-0.69754
-0.817384
-0.326316
0.768666
0.294139
0.23946
0.665676
0.373999
-0.654809
0.0503753
0.193545
0.495754
-0.594837
-0.199324
-0.0797818
0.426348
0.890926
-0.789236
0.96026
-0.157281
0.430573
0.0878671
-0.346281
0.558259
-0.96434
-0.415593
0.814936
0.341759
0.217663
-0.225725
0.701067
0.837646
0.68504
0.494564
0.878335
-0.64115
-0.398011
0.23697
-0.375653
-0.643113
0.0724473
0.365876
0.569171
-0.227839
0.629924
0.939648
-0.221344
0.673872
-0.974903
-0.269908
-0.0580549
0.20828
-0.492245
-0.206162
-0.229156
-0.250351
0.284197
-0.318051
-0.184791
-0.95746
-0.642161
-0.746689
0.745697
-0.843346
0.84597
0.031202
-0.558365
-0.423525
-0.766552
-0.61157
0.352233
0.32383
-0.365852
-0.394048
0.482485
-0.160046
0.0882703
0.503133
0.514105
-0.931109
0.84375
-0.861732
-0.893973
0.996828
-0.0372644
0.227234
0.835698
-0.546434
-0.846854
0.238692
-0.121613
-0.988098
0.256803
0.404139
-0.175193
0.742079
-0.69822
0.0758912
0.946076
0.996155
-0.036403
-0.0150596
-0.0251828
0.203173
0.659882
0.960585
-0.592873
0.662876
0.771393
0.830674
0.832158
0.820188
-0.755465
0.842415
0.406441
-0.776998
0.989556
-0.444728
-0.267223
0.163645
-0.784719
-0.759691
0.66852
0.375888
-0.479852
0.367518
0.420794
-0.102486
0.44804
-0.400683
-0.155013
-0.978142
0.589482
0.610056
0.81726
-0.113074
0.912583
0.420819
-0.516227
-0.883339
0.46813
-0.0312966
-0.356296
-0.10615
-0.27262
-0.408144
-0.0960099
0.459776
0.861515
-0.406757
-0.113098
0.82443
-0.939084
-0.545787
-0.749636
-0.00815123
-0.865602
0.774778
-0.596131
-0.624033
0.664425
-0.371344
0.99014
-0.180558
0.806521
0.597199
-0.453869
0.263248
0.226117
-0.376253
-0.0503269
0.794122
0.754752
-0.172686
-0.128622
0.682834
0.150039
0.01747
0.0924841
0.502186
0.331404
-0.369617
-0.0732208
-0.0768112
-0.0286502
0.043562
-0.83277
-0.753266
0.832046
-0.867536
0.919845
0.92984
-0.223183
0.551198
0.496747
-0.380447
-0.801202
0.75231
-0.733302
-0.384132
-0.668107
0.369787
-0.0150063
-0.987036
-0.542698
0.354374
0.0967913
0.89656
-0.855757
0.927956
0.141774
0.195867
0.849823
-0.274568
-0.284257
0.38608
0.908346
0.82166
0.942856
0.910228
-0.0886928
0.748013
0.584272
0.859078
0.121774
0.0188198
-0.576301
-0.790393
0.0628125
0.716281
-0.664721
0.306221
-0.793895
0.259347
-0.663252
-0.76814
-0.738233
-0.285365
-0.120863
0.346241
0.752793
0.932979
0.640472
0.960063
0.505598
-0.990445
-0.897876
-0.710894
0.973773
0.319628
0.424633
-0.247611
-0.318834
0.406541
-0.218898
0.706075
0.613504
0.0367619
-0.731188
0.139614
-0.535806
-0.996976
-0.554699
-0.540791
-0.387452
0.139049
-0.598854
0.631569
0.339068
0.0486979
-0.189186
0.73309
-0.410882
-0.433829
0.818588
0.159568
-0.592215
-0.92802
0.196837
0.702659
-0.843992
0.00493139
0.323933
-0.87288
-0.238445
-0.242107
0.111241
-0.099176
-0.890253
0.34396
-0.506903
-0.828001
0.796515
0.63103
-0.11443
0.366871
0.600094
-0.59685
-0.617615
-0.110705
0.983314
-0.830218
-0.861241
-0.977481
-0.944513
-0.898117
0.443177
-0.393606
-0.655482
0.0449554
0.195816
0.114058
-0.974868
-0.8058
-0.269004
-0.562654
-0.230374
0.255066
-0.91968
-0.423704
0.254388
-0.666031
0.500879
0.284113
0.45739
0.589734
-0.955418
0.329161
-0.0967556
-0.905157
0.239125
-0.358354
-0.715576
-0.749371
0.728018
0.702429
0.678046
-0.800991
0.413069
0.987358
-0.604877
-0.170963
0.484382
-0.733803
-0.345972
-0.206774
0.587536
-0.767498
-0.299436
-0.696829
0.588302
0.784971
0.986053
-0.367995
-0.640179
-0.0895761
0.611842
-0.82563
-0.829994
0.237667
0.835844
-0.303528
0.510599
0.616523
0.0418383
0.758453
0.804512
0.925897
0.138515
-0.977536
0.884116
-0.536576
0.254706
-0.13832
0.236508
-0.853943
-0.47389
0.610054
0.748058
0.818545
0.909295
-0.483476
-0.801502
-0.927519
0.245708
0.111562
0.0404486
-0.23948
-0.439327
-0.601832
0.486926
0.211343
-0.977752
0.347979
-0.424048
0.976007
-0.0892988
0.968663
-0.728076
-0.651487
0.299661
-0.456961
-0.124474
0.213446
0.939455
-0.225359
0.0830263
0.954029
-0.162198
-0.469514
0.020626
-0.722439
0.108688
-0.872077
0.280569
0.65781
-0.58268
-0.213636
-0.634048
-0.762058
0.796261
0.757292
-0.464499
0.62855
-0.558398
0.878687
0.873815
-0.297436
0.135831
-0.749367
0.920083
0.794348
0.165675
-0.118259
-0.721613
-0.0798056
-0.15281
-0.593598
0.95938
0.492118
-0.732628
0.214077
0.0231214
0.830134
0.143312
0.987236
0.595672
-0.932545
-0.438668
-0.208482
0.389685
0.358468
0.819633
0.446206
0.577973
-0.2948
-0.549941
0.778025
0.664211
0.596602
-0.108249
0.100373
0.49896
0.87648
-0.631104
-0.00553708
-0.0448502
-0.178197
-0.154126
-0.524588
-0.463022
-0.942309
0.862371
-0.274951
-0.113911
0.117995
-0.499091
0.742666
0.795732
-0.457343
-0.119225
0.412841
-0.993559
0.0322128
-0.434854
0.905109
0.708254
0.00157337
0.598837
-0.201638
0.352515
-0.45104
0.780066
0.079064
-0.757918
0.899164
0.534162
-0.452039
0.432368
0.0178327
0.688249
0.250282
0.86411
0.997554
0.518795
-0.968338
-0.703468
0.234233
-0.17469
0.607272
0.191994
-0.762776
-0.853773
-0.318213
-0.249536
0.337696
-0.736937
0.430965
0.387631
0.592741
-0.867047
-0.524656
-0.886338
0.491918
-0.72334
0.970522
0.611695
-0.629407
0.136063
0.172637
0.394212
0.0830863
-0.0932124
-0.78101
-0.387383
0.612126
0.697387
-0.595084
0.572486
-0.20769
-0.95024
-0.632986
0.674838
-0.736097
-0.95759
-0.894359
-0.135782
-0.77004
0.027049
0.879727
-0.708206
0.0401615
0.551717
0.176293
-0.292728
0.943502
0.0533057
0.0107744
-0.717477
0.96904
-0.653314
0.148015
0.416036
0.0840005
0.64134
-0.910664
-0.804999
0.938519
-0.580365
-0.173447
-0.75646
0.554725
0.570077
0.558657
-0.345439
0.572194
-0.180017
0.96347
-0.027621
0.488252
-0.541358
0.66439
0.0440962
0.270972
-0.698183
-0.0801768
0.881564
-0.071512
0.91769
0.532043
0.280714
-0.666698
0.737697
0.14135
0.231931
0.833668
0.223189
-0.132954
-0.546037
-0.291748
-0.618402
-0.435277
-0.56515
-0.051689
-0.171264
-0.162467
0.0713125
-0.626747
-0.150327
-0.304238
-0.26907
0.748442
-0.960773
-0.202682
0.995846
-0.787942
0.255927
-0.110126
0.81326
-0.193315
-0.494134
-0.20346
-0.428529
0.990826
-0.86787
-0.541276
-0.952151
0.816348
0.673997
0.505781
-0.227025
-0.595659
0.682021
0.0123842
-0.945527
0.133758
0.137463
-0.947378
0.872252
0.518001
0.806477
-0.0744804
0.0719526
-0.0842268
-0.288161
-0.59626
-0.774827
0.440315
0.307856
0.0310524
0.720618
0.701608
-0.927821
-0.621036
0.691954
-0.955703
-0.308979
0.721986
0.140284
0.678702
0.0126064
0.932128
0.983476
0.827726
0.271455
0.688738
-0.388365
-0.601002
0.538351
-0.0560359
0.994281
-0.489565
-0.6371
-0.15674
0.404934
-0.665795
0.401535
0.917637
0.271084
0.364092
-0.909267
-0.624213
0.45841
-0.0853962
-0.0712651
0.932649
0.745725
-0.954581
-0.657326
0.41553
0.157053
0.252408
-0.731085
0.987299
0.548794
-0.450325
-0.968609
0.675164
0.932538
-0.958409
-0.515218
0.176077
0.373557
-0.401823
0.0458005
0.130547
0.540214
-0.755324
0.611625
0.168998
0.119035
0.270928
0.682223
-0.244765
-0.551613
-0.400476
0.25308
0.424552
-0.950064
-0.109078
0.713834
0.615576
-0.721344
0.896827
0.938875
-0.544127
-0.589644
0.913287
0.140433
-0.476795
0.438706
-0.465915
0.801521
0.951703
0.178709
-0.629469
-0.878801
-0.0317624
-0.166374
0.466532
0.686583
-0.944067
0.713712
0.409353
-0.229996
-0.914624
0.438847
0.52377
0.425379
0.968651
-0.282092
-0.473713
-0.153353
-0.222534
-0.15399
-0.0934148
0.547424
-0.848494
-0.98
0.753176
-0.572814
0.957971
0.160203
-0.93905
0.0790847
-0.0852672
0.936522
-0.210109
-0.795351
0.598974
0.482662
0.888269
-0.103542
-0.592147
-0.925958
0.90594
0.084482
-0.144846
-0.756781
0.301651
0.857169
-0.247725
-0.393891
0.619332
0.0342919
0.718069
0.608952
0.303726
-0.286008
-0.12543
-0.0897327
-0.728817
-0.103779
0.487619
-0.927171
-0.702057
-0.561985
0.291295
0.946112
0.820041
0.544261
0.208518
0.156387
-0.143205
0.465443
0.173369
-0.605769
-0.105924
-0.992819
0.992013
-0.610179
0.397181
0.774005
0.462442
0.278367
-0.0529608
-0.874301
0.160728
0.280004
-0.542543
0.835484
0.192954
-0.834824
-0.607772
0.108435
-0.225946
-0.662778
0.858184
0.534315
-0.558791
-0.881978
-0.165116
-0.553626
-0.9887
-0.4081
0.824921
0.382696
0.994198
-0.803131
0.349912
0.558415
0.143352
0.9891
-0.706523
-0.633206
-0.249807
0.758533
-0.415432
-0.420494
0.923208
-0.144663
-0.442202
0.0691337
-0.671068
-0.526285
-0.230176
-0.651601
0.851281
0.925025
0.727776
0.953294
0.799896
0.0178989
0.382241
-0.957615
-0.309091
0.569354
-0.155256
-0.301728
-0.909582
0.230178
-0.51159
-0.948473
-0.741632
0.892249
0.0306573
0.824948
0.843887
-0.23779
0.685846
0.601193
0.333259
0.292176
0.143516
0.755638
0.953672
0.58937
-0.0638483
0.182904
-0.810905
-0.837799
0.2459
0.590934
-0.67138
0.00455369
0.807967
-0.14687
0.778527
-0.78967
-0.32132
0.618338
0.920623
-0.860382
-0.495098
-0.925386
0.359955
0.427141
0.948531
0.531563
0.454176
0.0186269
-0.568138
-0.0165327
-0.930176
0.912846
0.976915
-0.555252
-0.488175
-0.802622
0.86101
0.963283
-0.113264
-0.932016
0.715287
0.764017
0.653168
0.161682
-0.765377
0.782541
0.9856
0.954749
-0.292397
0.370454
-0.305922
0.531636
-0.117425
-0.118029
-0.706699
0.854827
-0.767748
0.457191
0.374176
-0.225505
0.911777
0.238776
-0.197182
-0.658932
-0.110413
-0.371427
-0.212437
-0.804597
-0.0529141
-0.552117
-0.72903
-0.940196
0.751015
0.141731
-0.921682
-0.705379
0.729892
0.0693268
-0.643919
0.496639
0.626292
-0.68379
-0.224118
0.895039
-0.386167
0.306256
-0.924307
0.640122
0.601146
-0.351185
0.2565
-0.519167
-0.457761
0.545166
0.634923
0.210552
0.101218
0.94021
0.0880143
0.982344
0.388164
0.416019
-0.419102
-0.452739
0.872682
0.087125
-0.97168
-0.607702
0.42988
0.80244
0.214518
-0.619106
0.952249
0.552134
-0.7575
-0.822737
-0.561141
0.680363
-0.310608
-0.77663
-0.167493
-0.407632
-0.15422
0.657024
-0.565374
0.918422
-0.927074
-0.933966
-0.428746
0.905623
-0.964298
-0.992846
0.882451
0.926382
-0.43826
-0.932826
-0.567129
0.413157
-0.343081
0.711327
0.600855
-0.312004
0.301496
0.890091
0.47168
-0.903226
0.32585
-0.274757
0.439466
0.633447
-0.385381
0.547063
0.363149
-0.467627
0.717985
-0.874283
-0.792082
0.0824652
-0.0301121
-0.461513
0.0246774
0.574944
-0.657226
0.985507
-0.0696002
0.413013
-0.682291
-0.919754
0.838046
-0.566297
0.962857
0.483593
-0.57081
0.0273364
-0.00948829
-0.0677229
0.58381
-0.086635
0.364048
-0.962071
-0.625266
0.0555193
0.244807
0.315003
-0.362616
0.698051
-0.976081
-0.479747
0.337701
-0.00877891
-0.927223
-0.974831
0.936538
-0.0674504
-0.844272
0.213599
0.497245
0.647235
0.126751
-0.703076
-0.30032
0.0566819
0.63747
0.825869
0.777356
-0.989709
0.60682
0.589308
0.592032
0.323815
-0.72685
0.384594
-0.966324
-0.766814
0.939839
-0.276079
0.451262
0.697384
0.0983514
0.919403
0.47685
-0.988857
-0.361336
0.981054
-0.0323659
0.962412
-0.425998
-0.210222
-0.984571
0.0457495
-0.432288
0.792769
0.729
-0.881074
0.620105
-0.111756
-0.806608
0.826858
-0.97832
-0.821188
0.476245
-0.321466
0.70892
-0.590657
0.260455
-0.806338
-0.958004
-0.60145
-0.975125
-0.0235383
-0.56614
0.348074
0.6042
0.357691
-0.821741
0.638635
-0.912215
0.484137
0.567889
-0.881758
0.509418
0.591982
-0.663629
-0.981469
-0.171272
-0.420682
0.247669
0.947813
0.0394331
0.555359
-0.731335
0.726901
-0.271238
0.965992
-0.302128
0.401429
-0.623196
-0.932487
0.8907
0.54735
0.761136
0.469928
0.788718
0.72686
0.68065
0.462228
-0.703282
0.104908
-0.186598
-0.563742
0.932941
-0.634439
0.0337077
-0.39196
0.358451
0.706225
-0.366933
-0.328066
0.823302
0.192532
0.081402
0.558181
-0.713597
-0.0851336
-0.928725
-0.102324
-0.579628
0.358651
0.323387
-0.260969
-0.838071
0.300863
-0.579192
-0.29332
-0.302924
0.29131
-0.489745
-0.445934
0.716324
0.227743
0.776296
-0.726542
-0.597282
-0.0801679
-0.760327
0.251982
-0.34419
-0.0115549
-0.8225
-0.122569
-0.284777
-0.0571786
0.806435
-0.110504
-0.154902
0.390569
0.0939897
-0.906876
-0.340083
0.871175
-0.754754
-0.437884
0.321136
0.785484
-0.692238
0.365448
0.769833
0.924807
0.923569
-0.184327
0.59211
0.134913
-0.227434
0.0408396
-0.76562
0.451098
-0.44853
0.0838559
-0.782148
-0.74179
0.260525
-0.888479
0.698973
-0.19447
-0.667042
0.0128971
0.232862
0.409478
0.667413
-0.693824
-0.642577
0.751283
0.780226
0.330034
0.325831
0.740413
-0.657906
-0.887334
-0.0678179
-0.265774
-0.789989
0.756253
-0.743338
-0.587246
0.981547
0.871981
0.0954837
-0.00853728
0.202359
0.899188
0.920815
0.961067
0.45359
-0.516935
0.753593
-0.450512
-0.17118
0.168356
-0.898349
0.275459
0.363382
0.870845
0.768917
0.769202
-0.870255
-0.631051
-0.40126
0.783774
0.430365
0.0890187
-0.550427
-0.237764
-0.527191
0.956096
-0.27941
0.525247
-0.821968
-0.438563
-0.161237
0.747429
0.703543
-0.987606
0.045668
0.182016
0.352437
0.315136
-0.905466
0.307314
-0.591085
0.934976
-0.439187
-0.329514
-0.566098
-0.587621
0.632419
-0.15021
-0.316077
-0.684441
-0.550048
0.879333
0.653166
-0.841907
-0.201055
0.389243
-0.520083
0.0590743
-0.3407
-0.593028
-0.71349
-0.527309
-0.356212
-0.0957168
0.145883
-0.711014
-0.382894
0.186347
-0.626196
0.52652
0.476706
0.836869
-0.702902
0.304888
0.0887887
-0.77767
0.997122
-0.666688
-0.374231
0.940609
-0.324638
-0.460884
-0.230736
-0.489622
-0.456797
0.24527
-0.743794
0.836283
-0.740061
-0.257548
-0.182783
0.396385
-0.168617
0.0920381
0.345009
0.367244
0.477659
-0.668082
0.0962056
0.129462
-0.920278
0.842755
0.26234
-0.725141
0.656641
0.379596
-0.297507
0.201287
0.859713
-0.7428
0.593113
0.391912
-0.473468
-0.101792
0.0185695
0.392407
-0.849614
0.742197
0.779945
0.588993
0.966132
0.916701
-0.585725
0.272587
0.992853
-0.808648
-0.0525153
0.332194
0.189726
0.0937567
-0.144087
0.688468
0.931203
-0.263886
-0.971897
0.396673
-0.334835
0.794502
-0.78597
-0.147598
-0.644431
-0.149058
0.57281
0.781784
-0.246299
0.622135
-0.875573
-0.469351
-0.151148
-0.667113
0.180516
0.571034
-0.829014
-0.238796
0.144829
-0.74565
0.755528
0.536539
0.858023
0.179982
0.06067
0.354628
0.730165
0.0189068
-0.797639
-0.802137
0.43912
0.00338025
0.551771
0.27911
-0.2766
0.676017
-0.917074
-0.270156
0.614401
-0.576139
-0.634545
-0.963594
0.118832
-0.363142
0.335003
-0.797388
-0.450094
-0.498152
-0.691914
0.628143
0.546349
-0.814005
-0.676865
-0.231161
0.155696
0.915916
-0.60761
0.880837
0.320706
0.0248649
0.793498
0.538273
0.273952
-0.032835
0.348722
-0.756654
0.892687
0.738948
-0.0424448
-0.13285
0.482884
0.213263
0.792385
0.883289
-0.566607
0.529283
-0.281996
0.527068
0.0172573
0.0690951
-0.972118
-0.19286
-0.209867
0.16895
0.604206
0.911715
0.141294
0.978381
-0.646908
0.394336
-0.156446
-0.698723
0.892852
0.557893
0.362938
-0.81474
-0.92911
-0.122983
0.73783
0.447258
0.332263
0.00789426
0.531674
0.722603
-0.872936
-0.00522878
-0.797827
-0.144329
-0.880001
0.825711
-0.450569
0.488235
-0.0149962
-0.629054
-0.256477
0.185067
-0.175353
-0.866501
-0.52601
-0.115887
