-0.0634683
0.0209148
0.778685
-0.646931
-0.196168
0.530153
0.260822
0.224734
-0.632908
0.811065
0.768792
-0.0872652
-0.448576
0.738894
0.301972
-0.224089
0.57112
0.304671
-0.359124
-0.614206
0.472502
-0.181342
-0.313872
-0.845943
0.615326
-0.013259
0.682439
-0.498198
-0.788229
-0.15318
-0.823666
0.433164
-0.665603
-0.358689
-0.69576
0.49408
0.45197
-0.508202
0.829736
0.824393
-0.895547
-0.752474
0.0646919
-0.89459
0.522035
0.00289812
-0.19344
0.0979329
-0.0454549
0.285697
0.231315
-0.640646
-0.0151897
-0.448551
0.247477
-0.202745
-0.376772
-0.714371
0.0194478
0.896011
0.526848
-0.519743
0.126849
-0.00689302
0.31683
-0.921046
0.357028
0.313768
0.496005
-0.1208
-0.425351
-0.477822
0.208039
0.517887
0.869616
-0.500107
0.204898
0.61612
0.69539
-0.922686
0.73645
0.238644
0.713277
0.480641
0.545484
0.607961
0.711339
-0.384854
-0.571307
-0.729626
-0.508928
-0.00202937
0.450351
0.413099
0.243748
-0.77314
-0.350621
-0.491576
-0.22454
-0.801012
-0.129792
0.0780132
0.121103
-0.458416
0.589017
0.409989
0.715542
-0.842228
0.572071
0.58624
-0.106062
-0.772619
-0.465127
0.631795
0.688816
0.369127
0.616271
0.637071
0.329739
-0.0183379
0.686462
-0.723256
0.85876
0.463414
-0.506525
0.0167184
0.113461
-0.324178
-0.399989
0.637321
-0.796528
0.759662
0.271278
-0.106059
-0.420476
-0.0307917
0.688592
0.224284
0.139333
0.45884
-0.129393
0.837948
-0.115978
0.749944
0.217691
-0.0829918
-0.265835
0.741524
0.528469
0.884801
-0.835875
-0.583709
0.176038
0.47339
-0.616685
-0.254602
-0.420684
-0.717767
0.582587
-0.614677
0.243083
0.0239328
0.411711
-0.48047
0.841919
-0.68071
-0.596283
-0.73983
-0.365435
0.341616
0.771652
0.713995
0.396754
-0.922797
-0.339342
0.825571
0.047679
0.681621
-0.742529
0.592823
-0.892172
-0.736889
0.0440382
0.0915526
0.889155
-0.850313
-0.16257
-0.472408
-0.159353
-0.201456
0.374205
-0.728866
-0.531644
0.54823
0.807797
0.269133
0.196364
0.292133
-0.261891
0.130329
0.674964
-0.405855
0.572796
0.300557
-0.298341
-0.0777318
0.0529522
-0.672106
-0.576872
0.292252
0.521869
0.237526
0.825897
-0.311284
0.796269
-0.169621
0.0484166
0.111572
-0.0111485
-0.487004
-0.210884
0.433497
0.369169
-0.459044
-0.291945
0.268465
0.496493
-0.543702
0.678446
0.527532
-0.315145
-0.0942607
0.212874
0.919805
-0.919003
-0.814867
0.423258
-0.578435
-0.645353
0.0894513
0.182694
-0.0432224
-0.621182
-0.3103
-0.921336
-0.360982
0.736907
0.622161
-0.834401
-0.0437053
-0.598262
-0.235232
0.668415
-0.771133
0.73635
-0.497471
-0.800719
0.230671
0.624107
-0.817828
-0.193456
-0.114111
0.8092
0.507327
-0.37998
-0.318964
-0.843009
-0.220753
-0.38785
0.602705
0.182007
0.228319
0.503242
0.111087
-0.0829965
0.295641
0.191862
0.854019
-0.368291
0.4467
0.11009
-0.556996
-0.484092
-0.31169
0.827689
0.187162
0.637448
0.225323
0.379933
0.235996
0.872352
-0.530575
0.290425
-0.0954637
0.0776406
0.416735
-0.0582736
0.412455
-0.221321
0.303022
-0.386958
-0.228585
0.116923
-0.0951274
0.897906
0.171548
0.369173
0.0709354
-0.377477
0.538021
-0.57913
0.766998
0.315195
-0.488869
-0.185719
-0.190398
0.208409
-0.514055
0.781949
0.370549
-0.349759
-0.624641
0.921183
0.089045
0.351646
-0.535989
-0.205639
-0.462777
0.315105
0.516159
-0.904681
-0.177673
-0.0607907
0.709567
-0.711018
-0.589073
-0.850643
-0.202011
-0.689498
0.588209
-0.46867
-0.921874
-0.797227
-0.528751
0.739771
-0.826632
0.522674
-0.200722
0.360235
-0.00673235
-0.23497
0.852476
0.00016184
-0.285454
0.000908341
0.654264
-0.12821
-0.524998
0.254501
-0.820546
-0.655035
0.182946
-0.433717
0.452689
-0.763188
-0.737669
-0.871523
-0.147588
0.0415227
-0.0908838
0.221175
0.0199361
-0.0335417
-0.801451
-0.902117
-0.563866
0.647971
-0.379018
0.0845556
0.836063
0.241731
-0.724481
-0.472849
-0.0317481
-0.830405
-0.785734
0.336743
0.2956
0.743617
-0.327979
0.840867
0.526895
-0.327089
-0.623265
0.21463
0.870152
0.108199
-0.0301147
-0.417231
0.584439
