0.0414551
-0.467962
-0.0673121
0.364544
-0.170398
-0.0836062
-0.0292533
-0.0487551
0.509966
-0.745544
0.135541
-0.329949
-0.64362
-0.390571
-0.212185
0.747327
0.300396
0.229312
-0.560606
-0.418636
-0.729046
0.622375
-0.19488
-0.106281
0.566174
0.719369
0.584723
0.584877
-0.28342
-0.273029
-0.00708114
0.532444
-0.0876654
-0.0938761
-0.128165
0.250452
-0.644661
0.125485
0.691126
-0.0847185
0.407012
-0.461364
0.353775
0.162788
0.544805
-0.61041
0.490949
0.59049
-0.163595
-0.407345
0.239728
-0.45607
-0.66758
-0.0606791
0.471451
0.494894
-0.0507042
-0.670642
0.451686
-0.479373
0.735149
-0.499927
-0.297147
0.592867
-0.134391
-0.171989
0.521559
0.549728
-0.558583
0.0500925
0.462496
-0.0196961
0.262049
0.578758
0.578022
-0.0656555
0.111158
-0.0983793
-0.511855
-0.089587
0.554058
0.13136
0.347287
-0.22282
0.410028
0.170558
-0.314512
0.700492
0.11637
-0.46617
-0.183718
0.747418
0.516317
0.754101
-0.129388
0.663926
0.0927549
-0.508351
0.743182
0.137204
0.151103
-0.1989
-0.714106
0.529148
-0.478261
0.440949
0.581666
-0.0756472
0.547079
0.395685
-0.526729
-0.336502
0.191797
-0.592447
-0.496798
-0.0858816
0.0472754
0.0305107
0.31035
-0.695657
0.64676
-0.463086
0.25279
0.357772
0.657915
-0.201296
0.270489
-0.718203
-0.68828
0.723798
-0.438021
-0.0507989
-0.247024
-0.237861
0.616951
0.179457
0.471254
-0.321953
0.496936
0.386205
0.694909
0.0603674
-0.286301
0.633546
0.0473985
-0.745149
-0.604785
0.151341
-0.693959
0.310412
0.633893
-0.122387
0.438059
-0.681513
0.49128
0.282722
-0.400302
0.135564
0.0936247
0.706464
0.0203868
-0.715866
0.409504
0.355918
-0.262486
-0.529396
-0.3608
0.0302405
0.723753
-0.307408
-0.300214
-0.555066
0.333656
-0.0676531
-0.39305
0.0617478
0.108414
-0.0442124
-0.143577
-0.732944
-0.295334
-0.647974
0.536544
-0.173663
0.164487
-0.429442
-0.312933
-0.103141
0.336125
-0.0529343
-0.261046
0.648841
-0.452461
0.0848397
0.22274
0.188474
0.406719
-0.350594
-0.655205
0.548593
0.0878025
0.240351
0.576929
0.113912
0.404303
-0.243505
0.488338
-0.653549
0.0721688
0.0777768
0.598481
-0.462601
0.124515
-0.663771
-0.509072
0.689382
-0.0461618
0.400615
-0.751102
-0.607565
0.48374
0.500775
0.382633
-0.0221874
0.653154
-0.0471295
0.0953755
0.403875
0.158052
0.0913886
-0.338987
0.307418
-0.530197
-0.388794
0.032568
0.249862
-0.530173
-0.299225
0.69792
-0.714927
0.287884
-0.0454833
-0.491384
-0.336496
0.624909
-0.0127914
0.109856
-0.0346874
-0.132642
-0.0414891
-0.228312
0.126573
0.416014
0.644633
-0.446245
-0.429259
-0.160463
-0.378783
-0.0473106
-0.66898
0.712015
-0.608619
-0.255824
-0.234999
-0.293557
-0.357036
0.239612
0.233995
0.371779
-0.513044
0.336948
-0.430977
0.0400317
-0.362574
-0.284499
0.666559
0.413179
-0.0479984
0.594353
0.385476
-0.626755
-0.725251
-0.0875124
0.112975
0.326744
0.398923
-0.386525
-0.177937
0.0785026
-0.126257
-0.614336
-0.447416
0.192068
0.443879
0.391626
-0.730047
0.371079
-0.0848959
-0.0165238
0.653089
0.237648
0.389988
-0.169794
0.0366109
0.580347
0.621204
0.341197
-0.722217
-0.0787897
0.192437
-0.159327
0.207527
0.59026
0.316795
-0.379735
-0.234111
-0.664833
0.0706633
-0.586421
-0.175773
-0.102814
-0.151798
0.305933
0.123529
-0.720672
0.3473
-0.39175
0.245417
0.258084
-0.724844
0.0937393
0.170614
-0.227104
0.213475
0.669336
0.585429
-0.66537
-0.182127
-0.658297
-0.14114
-0.0380999
-0.116
-0.455045
0.208924
-0.386279
-0.155749
-0.671259
0.0872348
-0.202123
0.295121
-0.372354
0.539792
-0.308643
-0.452217
-0.135317
0.272309
0.112186
0.739417
0.488575
0.68804
0.650857
-0.579201
0.10945
-0.144182
-0.108743
0.1454
-0.00887016
-0.392146
0.675408
-0.481232
-0.364098
-0.136299
0.486834
-0.0535976
-0.407132
0.426519
0.575284
0.417891
-0.603698
0.30273
0.229635
-0.518178
-0.29611
-0.108139
0.403851
-0.372413
-0.394884
0.205757
-0.179058
0.444488
0.0215648
0.530043
0.223193
-0.112122
-0.0960483
-0.253263
-0.608814
0.165751
0.615078
-0.348962
-0.715531
0.146683
-0.183112
0.342639
0.438928
-0.490505
-0.334744
-0.0709657
0.555974
-0.338662
0.63242
-0.425702
0.150136
0.508147
0.585927
-0.0244912
-0.572407
0.744514
-0.664893
0.39308
-0.260128
-0.432036
0.749277
0.063332
-0.180656
0.490264
-0.0362194
0.376569
-0.677102
0.258983
0.297755
0.538981
-0.526653
-0.339783
-0.69166
0.253965
0.0535722
0.339789
0.162213
-0.333362
0.646095
0.477164
0.228286
0.185106
-0.454717
0.123951
0.536464
-0.25733
-0.632437
0.61907
-0.494793
0.393957
-0.25208
0.68659
0.715783
0.726854
0.0693164
0.645684
0.547513
-0.719741
-0.282321
-0.647882
-0.572434
-0.553138
0.0751656
-0.177453
0.663834
-0.683546
0.449844
-0.399813
0.477063
-0.26965
-0.284997
-0.226242
0.705158
0.310347
0.120233
-0.255794
-0.528945
-0.419626
0.311172
0.0943714
0.504154
-0.737994
-0.262787
0.16609
0.27332
0.164353
0.0568375
0.579508
-0.139614
0.0459795
0.0798838
-0.696588
0.392922
-0.0683029
0.38755
-0.737984
0.580631
-0.743992
-0.236833
-0.218259
0.606605
0.375478
0.380004
0.660638
0.0737088
0.689945
0.194059
-0.110261
0.404596
0.700225
-0.159162
0.514983
-0.329325
-0.463238
-0.45539
-0.677938
0.613915
-0.653606
-0.429809
0.45081
0.743615
-0.190368
0.711105
-0.655419
0.651171
0.00664011
0.289099
0.0227933
-0.614382
-0.536422
0.408898
0.6588
0.158242
-0.699866
0.0565896
-0.498979
-0.714832
-0.115253
0.274588
0.384813
-0.0334676
0.694804
-0.639569
-0.227785
0.497103
0.328925
-0.323612
-0.42079
-0.120666
-0.264325
0.723375
0.748402
0.454406
-0.504778
0.31496
0.628028
-0.745272
0.646892
0.0419675
-0.257398
-0.254145
0.385111
0.405022
0.379784
0.32082
-0.375254
-0.0272454
0.269543
-0.453127
-0.742285
0.404938
0.296951
-0.532478
-0.74008
0.734462
-0.700385
-0.719617
0.128861
0.631564
0.724595
0.152308
0.237138
0.427865
0.341874
-0.0365825
0.48098
-0.409841
0.553169
-0.439595
-0.448441
-0.40882
-0.372209
0.405008
-0.687173
0.452856
-0.371608
0.305127
0.449898
-0.656271
0.303786
0.319052
-0.739908
-0.133054
-0.368742
-0.0358027
0.483827
-0.0122029
-0.445862
0.0846215
-0.107778
-0.081686
0.39561
0.0757883
-0.449976
0.611553
0.674948
-0.271823
0.0325018
0.380127
-0.342992
0.00866807
0.0985489
-0.753671
-0.357878
0.170781
0.00550442
-0.317266
-0.633199
-0.355437
0.365327
0.54699
-0.641409
0.471282
-0.329937
-0.341145
-0.733405
0.327429
0.105674
0.463057
-0.0327981
-0.691429
-0.609705
0.521481
-0.417014
-0.390018
-0.0160949
-0.242838
-0.364274
-0.137994
0.340873
-0.65734
0.510038
-0.445372
0.23157
0.465354
-0.47673
-0.391255
0.588919
0.131364
-0.498038
0.471365
-0.354285
0.504419
0.737451
0.361491
0.0909351
0.312242
-0.405983
-0.524877
-0.516123
-0.619692
0.397677
-0.271637
0.578742
0.04186
0.205448
-0.243657
0.382139
0.558538
0.278981
0.498705
-0.327596
-0.577711
-0.24929
0.605502
-0.258936
0.363317
0.00799113
0.622559
0.638643
-0.0864416
0.664496
0.452516
-0.195638
-0.223846
0.613089
-0.64267
0.619716
0.407077
0.713233
0.259236
0.617914
-0.107809
0.515817
0.148612
0.141372
-0.195099
-0.247024
-0.267506
-0.316516
-0.708036
0.258291
0.451108
0.677353
0.679483
-0.467478
0.34695
0.327421
-0.618365
-0.11925
-0.187939
0.054385
0.0968408
-0.234496
-0.377695
0.729525
-0.397531
0.638128
-0.396894
0.274763
0.108305
0.0162239
0.545834
-0.31168
-0.515341
-0.452713
0.455966
0.730621
0.071771
-0.0131896
-0.706422
-0.00578479
-0.661931
-0.587022
-0.089075
0.250672
-0.624265
0.0906371
-0.0372962
0.213922
-0.206404
0.16154
-0.741516
-0.250327
-0.339554
0.258054
-0.420885
-0.241643
-0.432433
0.449851
-0.392835
-0.227044
0.0188036
-0.264562
-0.358743
-0.0585493
0.0538005
0.550476
-0.502718
0.195981
0.536611
0.162456
-0.323521
0.584811
-0.713746
-0.677692
0.0617542
0.125034
-0.632512
0.192856
-0.362058
0.00123558
-0.276049
-0.285862
0.702922
-0.498916
-0.191109
0.714546
0.424146
-0.227355
0.594026
0.501083
0.566815
-0.717254
0.279385
-0.393955
-0.376868
-0.60806
0.026495
0.598245
-0.676892
0.548563
-0.207865
0.0890083
0.56375
-0.314787
-0.553858
0.69884
-0.278879
0.000495233
-0.655411
0.18632
-0.578149
-0.0433311
-0.52779
0.207314
-0.0261752
-0.163273
-0.26442
0.160927
-0.73394
0.103612
0.234226
0.722784
-0.658259
-0.0346619
-0.56058
-0.509405
-0.411543
0.413558
0.752651
0.35414
-0.420673
0.290041
-0.245318
0.449723
0.0859117
0.0339226
0.422651
0.558711
0.102792
-0.0287801
-0.0921951
0.107601
0.162492
-0.721844
0.330384
-0.521981
0.658755
0.0666692
-0.337921
0.238586
0.65635
0.203271
0.229481
-0.549693
-0.556909
0.174852
0.17258
-0.676305
0.352859
-0.541042
0.30301
-0.351242
-0.148081
-0.387606
0.178217
-0.602735
-0.626172
-0.641193
0.324079
0.4603
0.254879
0.609876
0.745578
-0.543818
-0.473868
-0.00711547
0.703794
-0.377992
0.552483
0.110253
0.424253
0.680842
-0.568277
0.716229
-0.161937
0.568113
0.137962
0.420536
-0.264236
-0.18541
-0.61213
-0.657407
-0.629492
-0.219177
0.716889
0.0989269
-0.093435
0.553484
-0.438998
0.617168
0.649478
0.705977
-0.275327
0.150192
0.650207
0.681292
-0.0459737
0.341976
-0.451284
0.0712499
0.600526
-0.587072
-0.088758
0.389412
0.400637
0.414994
-0.0314772
0.332614
0.700257
-0.666375
0.625561
0.423524
0.603209
-0.609654
-0.557733
-0.235563
0.224219
-0.670718
0.528956
-0.319205
0.358463
0.0539436
0.179636
-0.388301
-0.324698
0.00256623
-0.395202
0.338245
0.119797
0.331823
0.541702
0.685115
-0.27172
0.0505854
0.272336
0.451882
-0.375307
0.276392
-0.416188
0.216579
-0.17054
0.451772
-0.514123
0.542471
-0.622115
0.0218962
-0.398659
-0.62172
-0.0021022
0.173593
-0.128734
0.0939955
-0.341771
0.600895
-0.67617
-0.0106396
-0.109194
0.388806
0.185496
0.0378839
0.290348
0.0460617
0.0687701
-0.573573
-0.176793
-0.0277217
-0.236437
-0.414879
-0.604042
-0.328468
-0.192082
0.541618
-0.0535178
-0.479433
0.261526
-0.453436
-0.0653784
0.208811
0.565372
-0.3307
-0.74904
-0.470084
0.641446
-0.387199
-0.119955
-0.133589
-0.392425
0.170229
0.575521
-0.484713
0.0101357
-0.676422
-0.545521
0.0976033
-0.0500906
-0.028773
0.220136
-0.627751
-0.1974
-0.589032
-0.303989
-0.537972
0.111749
-0.111057
-0.635409
-0.379888
-0.243029
-0.103852
-0.0224349
0.285041
-0.284685
-0.235922
0.545332
0.715571
0.0542278
-0.279692
0.647108
0.0674936
0.267891
0.289097
-0.116464
-0.495116
0.388673
-0.132813
-0.628565
0.174792
0.45069
0.322852
0.238417
0.356528
-0.213573
0.592477
0.70483
0.0409356
-0.352115
0.483641
-0.0160523
0.448415
-0.71431
0.179585
0.724177
0.48866
-0.326477
0.26373
0.413944
0.144621
-0.384217
0.313701
0.200637
0.349118
0.456192
0.671971
-0.656336
0.273483
0.462592
0.462704
-0.698263
-0.101456
-0.547643
-0.557207
-0.20629
0.362454
-0.472252
0.0990334
-0.276453
0.569989
-0.0465922
-0.0388543
-0.514561
-0.073168
-0.226922
-0.33313
-0.402144
0.387762
-0.288308
0.120376
0.0846905
-0.121429
0.0346916
-0.229602
-0.403039
-0.181195
0.732366
0.0372428
0.151578
0.335659
0.132493
-0.140468
-0.74803
0.0727976
-0.184988
-0.646927
0.739027
0.409719
-0.163566
-0.498536
0.410487
0.604977
-0.495797
-0.244966
0.129155
-0.358885
0.724203
-0.207807
0.238052
-0.697773
0.32592
-0.320242
0.0883961
0.700679
-0.0234771
-0.430703
-0.396763
-0.717977
0.417008
0.256548
-0.587706
0.112755
-0.58969
0.445117
0.212938
-0.131814
0.463367
-0.608309
-0.703659
0.47644
-0.292391
-0.248007
0.310118
-0.718136
-0.155125
0.492491
0.254415
0.0734886
-0.523199
0.530665
-0.204172
0.0935791
-0.0979948
-0.622103
-0.215821
0.573726
0.684001
0.240753
0.0939438
-0.422948
-0.653286
0.662915
0.404058
0.192705
-0.591444
-0.658152
-0.353717
0.250798
-0.527144
-0.167928
-0.148659
-0.348888
-0.286907
0.0501355
0.562946
-0.49811
0.230524
0.17792
-0.128801
-0.266272
-0.682681
-0.54856
-0.485858
0.622248
-0.741553
-0.696333
0.317186
-0.127153
-0.575435
0.511138
-0.0651397
-0.684759
-0.71939
0.299171
0.409821
0.0787027
-0.336718
0.185258
-0.54498
0.586887
0.286472
-0.158463
0.0208393
-0.566778
-0.587979
0.301294
-0.714316
-0.0561944
-0.593218
-0.485379
0.314671
0.268789
-0.00599594
-0.0958862
0.51903
-0.370186
0.651932
0.716424
0.0842052
-0.652458
0.748655
-0.424297
0.679885
0.422623
-0.655912
-0.685734
0.713078
0.319706
0.474783
-0.398877
0.265729
-0.427929
0.22207
-0.571831
-0.681107
-0.0644294
-0.1443
0.217792
-0.0701
-0.200678
-0.0447933
0.70773
-0.108551
0.0655515
-0.182206
-0.75283
0.625292
-0.177364
0.62317
-0.297061
-0.423131
0.23441
-0.430423
0.0655328
-0.422455
-0.294151
0.459778
0.0708222
-0.164885
0.578097
0.428324
0.173894
0.201352
0.176685
0.394513
0.0839111
0.0377735
0.488793
-0.699551
-0.359846
0.498457
0.613612
0.0562001
-0.685173
0.200484
0.221363
-0.137562
0.611305
-0.678311
0.244745
0.613565
-0.0133904
-0.10078
-0.365164
-0.375592
0.279142
0.150952
-0.0658059
0.470847
-0.736572
-0.633187
-0.189269
0.434174
0.62272
-0.712538
0.19661
-0.435387
-0.186354
0.396315
-0.0603944
-0.172957
0.159324
-0.452624
-0.155511
-0.354621
-0.170372
0.0192858
0.176276
-0.285506
0.430361
-0.078457
-0.172846
0.297839
-0.258899
-0.534437
0.163496
0.0881214
0.167455
-0.273233
0.21222
-0.22259
-0.690269
0.536281
0.67525
0.0153832
0.682097
-0.719203
-0.662492
-0.684259
0.641698
0.276026
-0.455833
-0.0280262
-0.51445
-0.0692807
-0.470911
0.0916475
-0.245726
0.502048
-0.592203
-0.479598
-0.738082
0.755049
0.488522
0.395863
0.74046
-0.357066
-0.176713
-0.269648
-0.66728
-0.0374925
-0.517635
-0.268223
-0.525959
0.25258
-0.169034
0.753404
0.138086
-0.681999
-0.270057
-0.627271
0.467061
-0.53193
-0.302091
-0.712573
0.479218
-0.699647
0.638284
0.264812
0.652852
-0.207133
-0.103799
0.523942
0.0439186
0.455562
-0.250687
-0.268579
0.493598
0.183006
0.347983
0.524424
0.512016
0.0386922
-0.675566
-0.19676
0.0362085
0.694865
-0.442971
0.456718
0.172458
-0.412466
0.452279
0.0774268
-0.201119
0.63267
-0.687
0.503606
0.33807
0.618058
0.330783
0.694084
-0.0066584
0.623862
0.235788
-0.0795939
0.348796
0.708177
-0.50831
0.0331569
-0.167795
0.598725
-0.142943
-0.640313
-0.39614
0.259048
-0.721709
-0.696909
-0.23448
-0.456484
-0.715332
-0.704838
0.464186
-0.618224
-0.561872
-0.0660575
0.018315
-0.457608
0.0877613
-0.737319
-0.392994
-0.38469
-0.27652
-0.206446
-0.256552
0.671376
-0.268879
-0.295827
-0.242627
0.347452
0.739935
-0.386791
0.0539745
0.605134
-0.317996
0.726173
-0.282204
0.315349
0.452401
-0.184523
0.619807
0.621358
0.450428
0.340645
0.0438725
0.575753
0.25426
0.259282
0.433997
-0.749213
-0.217484
-0.618107
0.457672
0.462287
0.044982
-0.152546
0.00236552
0.445596
-0.636917
-0.508959
0.175357
-0.516026
0.188283
0.186201
0.0493215
0.187631
-0.0162191
0.433572
0.204123
-0.0729501
0.291564
0.350237
-0.0888506
0.443645
-0.269372
0.604585
0.572303
-0.018868
-0.661589
0.660998
0.726039
-0.00178307
-0.433041
-0.0773121
0.329411
0.11688
0.243383
0.623369
-0.594123
-0.350194
-0.351755
-0.204311
0.206175
0.490448
-0.289088
0.733847
0.569481
-0.309564
0.218831
0.231523
-0.116571
-0.545696
0.533735
-0.545924
-0.218103
0.162722
-0.168782
-0.751441
-0.301174
0.266947
0.586566
-0.586259
0.379644
-0.662913
0.645308
-0.715492
-0.253171
0.470464
0.306386
-0.374241
-0.684698
0.674155
0.39799
0.32163
0.0577564
0.138621
-0.6427
0.753659
0.166059
0.525548
0.43001
-0.140296
-0.425157
0.27057
-0.18523
-0.513658
0.327318
-0.599888
-0.0567633
-0.398778
0.103712
-0.328274
-0.0298269
-0.187894
-0.605305
0.676753
-0.468579
-0.173018
-0.740643
-0.309461
-0.191665
-0.127752
-0.145068
-0.285913
-0.741746
-0.145685
0.514081
0.11198
-0.744371
0.416965
-0.324339
-0.171511
0.00438671
0.583088
0.627265
-0.684267
0.204493
-0.57258
-0.752621
-0.0935544
0.047742
0.631668
0.557316
0.329862
0.655716
-0.254651
-0.556417
-0.356411
0.492984
0.31911
-0.0126044
0.573276
-0.590472
-0.568835
0.610732
-0.351795
0.601096
0.312098
-0.67769
-0.708318
-0.674167
-0.559838
0.222985
-0.330683
0.587881
-0.729178
0.749003
0.0872888
0.0865141
-0.150165
-0.446792
0.703189
-0.440361
0.0440453
0.489148
-0.124875
-0.443464
0.218734
0.365501
-0.708789
0.43281
-0.7177
-0.546145
0.529032
0.728654
0.04834
0.0111043
0.353384
-0.145279
-0.246331
0.0794163
0.321906
-0.100189
0.747105
-0.00658906
0.735305
0.0923802
0.11135
0.496815
0.335924
0.363161
-0.345998
-0.492561
0.671513
0.513183
0.277912
0.206962
-0.0671387
0.560591
-0.0730017
0.0752484
0.2844
0.685483
-0.500247
-0.504629
0.616757
-0.511161
0.671417
-0.615674
-0.173014
0.680349
0.697908
-0.179459
0.716078
-0.109856
0.280602
0.368501
-0.20668
-0.0150779
0.50146
-0.113149
0.752248
-0.617479
0.397485
-0.250462
0.753412
0.615376
0.430853
0.239279
-0.580844
-0.553658
-0.585971
-0.539542
0.0732083
0.134529
0.738304
-0.694106
0.00885848
0.711001
0.586362
-0.663441
0.349735
-0.336295
-0.417941
-0.172587
-0.514125
-0.22527
-0.7281
-0.565131
0.243536
-0.0626388
-0.484988
-0.207247
0.704527
-0.410582
-0.0699245
-0.123908
-0.393281
-0.531505
0.333155
0.629489
0.674272
-0.130246
-0.653796
-0.523478
0.196214
0.641066
-0.306436
0.233035
0.221962
-0.0819488
0.209254
-0.384186
0.553114
-0.0801392
0.478409
-0.752241
0.657347
0.359277
-0.181318
0.527768
0.358889
-0.526223
0.591321
0.0920046
0.283028
0.360039
0.544205
-0.719163
0.0204291
-0.541224
-0.0624817
0.478646
-0.304253
0.211879
-0.646576
0.420755
-0.0217534
-0.189533
0.182474
0.544955
0.0888798
0.651186
-0.504785
-0.0225836
-0.440467
0.651379
0.700176
0.0206472
-0.440664
-0.469698
-0.655086
0.506048
-0.307319
-0.648302
0.281011
-0.663173
-0.697797
0.0273034
0.402923
0.28686
-0.745156
-0.388363
0.0945234
-0.744864
0.243396
-0.707763
-0.740625
-0.727381
-0.597623
-0.282047
0.364698
-0.519627
0.577665
0.340388
0.311554
0.2897
0.00172953
0.19046
0.42402
-0.545406
-0.117961
-0.432253
0.275554
-0.45968
0.480274
-0.0821861
0.533572
0.079288
-0.155529
-0.244244
0.632532
-0.371308
-0.129484
-0.043324
-0.293616
0.168309
-0.749294
-0.259067
-0.274656
0.395169
-0.537763
-0.315228
-0.257407
0.252058
0.180178
-0.442648
-0.46527
-0.708657
0.20426
-0.345655
-0.145989
-0.194686
0.112133
-0.380199
-0.553005
0.320266
0.236065
-0.631992
0.685615
0.503104
-0.335968
-0.138059
0.393419
0.324142
-0.0431079
0.459758
-0.524728
-0.490632
0.526043
-0.573046
0.749189
-0.345878
-0.695354
0.104562
0.619158
0.526978
-0.43283
0.166349
-0.361466
0.462335
-0.329339
0.358995
0.572467
-0.70941
-0.285592
0.509059
-0.58934
-0.23105
-0.259696
0.439918
0.114412
0.365334
-0.390144
0.720321
-0.11943
0.4391
-0.716997
0.148447
-0.283546
0.679298
-0.463563
-0.520386
-6.03516e-05
0.620844
-0.332101
-0.54785
-0.568494
0.44083
0.462905
0.132546
-0.686981
-0.237189
0.477739
0.0461904
-0.066506
-0.0854546
0.157347
0.329143
-0.560294
0.593414
-0.622349
0.570282
0.353182
-0.69478
0.623172
0.340923
0.375647
0.228325
0.516631
0.00371662
0.542367
0.492496
-0.718229
-0.0117176
0.670581
-0.718128
0.637142
0.429052
0.500365
0.115748
-0.688631
0.0541159
-0.116066
0.458983
0.380621
-0.0458901
0.612773
0.171789
-0.269448
-0.551665
0.0382782
0.00923921
0.579965
-0.671867
0.584005
0.588966
0.0116686
-0.156303
0.399433
-0.0727251
0.41143
0.713663
0.481837
0.411169
0.197879
0.622651
0.10286
0.217743
0.598795
0.430097
0.751504
0.227097
-0.372294
0.212851
0.50769
-0.563951
-0.179173
-0.308725
0.395382
0.7118
0.456648
-0.185246
-0.045084
0.235245
0.347969
0.676841
0.644272
0.408195
0.476067
-0.0400913
-0.206121
0.727109
-0.197345
-0.203208
-0.172917
-0.250816
0.420427
-0.55274
-0.664688
0.387098
-0.0864856
-0.51848
-0.130848
-0.499427
0.689684
-0.172254
0.483599
0.0347763
0.196466
-0.669531
0.0756468
-0.0172665
0.733744
0.396285
0.282861
0.36978
0.299311
0.00287273
-0.552207
0.0566672
-0.135996
-0.429801
0.63063
0.0414164
-0.690428
0.654902
-0.585898
0.210437
-0.738105
-0.719479
