-0.105312
-0.988026
-0.711844
-0.725505
-0.355047
0.0518516
0.581039
0.0816912
-0.747261
-0.722679
-0.972118
-0.755401
0.684746
-0.448054
-0.95307
-0.167121
0.758799
0.25541
0.672356
0.236205
0.433648
0.804695
0.492266
-0.492322
-0.696275
0.639892
-0.664724
0.831053
-0.717919
0.831907
-0.838271
-0.617006
-0.430079
0.962036
-0.474208
0.221296
-0.113566
-0.153827
-0.45866
-0.955829
0.474872
-0.386051
-0.387674
0.956201
0.725968
-0.874613
0.0470453
0.995716
-0.763865
-0.330344
0.259142
-0.718588
0.435205
-0.0702836
0.724471
-0.858262
-0.760283
-0.590484
0.273476
-0.112531
0.58814
0.40382
0.60188
0.467117
-0.750778
-0.462614
0.51847
-0.218088
0.0563433
-0.113911
-0.785975
-0.855303
0.5579
0.565315
0.959528
-0.61555
-0.565147
-0.0731361
-0.311935
0.696194
0.186085
0.525573
0.417429
-0.22994
-0.963383
0.200747
0.209686
0.398482
0.373928
0.130872
0.0174185
-0.668583
0.15564
-0.782396
0.00551729
-0.546974
-0.576333
-0.893423
-0.650461
0.16819
-0.168592
0.500769
0.100162
-0.0467231
-0.341416
-0.583684
-0.453557
0.50261
-0.70959
-0.824282
-0.82579
-0.687818
0.198055
-0.00478117
-0.589892
0.881845
-0.581053
-0.101057
-0.699336
0.383551
0.556723
-0.424923
0.855173
-0.0984754
-0.248225
-0.613968
0.768831
0.855802
-0.308351
-0.935519
0.37709
0.101454
-0.17268
-0.435427
0.200994
-0.329039
0.625939
-0.0409894
-0.372787
0.366863
-0.640301
-0.483998
0.992097
0.392946
-0.295388
0.333144
0.680344
0.194235
0.865448
0.151741
0.439872
-0.330171
-0.196424
0.118361
0.971037
-0.513981
-0.704246
-0.443644
0.739686
-0.916015
0.360955
0.0530382
-0.0145486
0.0522688
0.865669
-0.730007
-0.729618
0.580164
0.365562
0.811576
0.814936
0.00481788
0.856196
0.141038
-0.837669
0.294402
-0.62536
-0.127357
0.42875
-0.432422
-0.153629
0.904635
0.991023
-0.434633
-0.606366
-0.787209
0.882448
0.546952
-0.0170234
-0.253532
0.246836
0.666673
-0.665328
-0.00480618
0.915376
-0.0752686
-0.642033
-0.705586
0.983957
-0.76886
-0.594279
0.850511
0.215745
-0.802585
0.905482
0.831413
0.428059
-0.57121
0.42526
0.869875
-0.713812
0.867234
0.93675
0.504771
-0.996357
-0.0382257
-0.119551
-0.635799
0.140355
0.945385
0.804206
0.853521
-0.807274
0.452153
0.475109
0.939851
-0.179211
0.141034
-0.218794
0.710843
-0.770637
0.516707
-0.535233
-0.65685
0.632623
0.895781
-0.942826
-0.699427
-0.664782
0.0356891
0.613801
-0.988868
-0.12884
-0.858545
0.462833
0.421179
-0.872059
0.246485
0.121637
-0.0227464
-0.872913
0.791564
-0.394244
-0.833369
0.725543
-0.31695
-0.0784078
0.491426
0.308133
-0.517559
0.38407
-0.953943
0.94925
0.704721
0.286649
0.28605
0.570626
-0.131431
-0.269079
-0.968974
-0.489881
0.55963
0.237144
0.0166933
0.499621
0.108696
0.677647
0.0951303
0.977206
-0.52979
-0.237901
0.643885
0.0630571
0.889233
0.134558
-0.802584
-0.0812948
0.061765
0.365006
-0.607647
-0.0408059
0.640876
0.388156
0.448425
0.877395
-0.425752
0.351571
0.822732
-0.276
-0.549545
-0.0284899
0.0787372
-0.345316
0.334985
0.0386086
-0.0927904
0.614565
0.175693
0.756248
-0.108494
-0.0510162
-0.456147
0.358223
-0.670313
-0.430497
0.37765
0.24228
-0.988328
-0.0846497
-0.532597
0.105803
-0.0853661
0.727583
0.69591
-0.179557
0.498382
0.110467
-0.921474
-0.817418
-0.12511
0.641586
-0.170126
0.087202
-0.153354
-0.832342
-0.509707
0.433295
-0.431183
0.393964
-0.666508
-0.568403
-0.818147
-0.588033
-0.927468
-0.42839
-0.158555
0.494347
-0.488678
0.879167
0.992689
0.368199
0.611303
-0.174686
0.662884
-0.638881
-0.951398
0.769171
-0.464381
-0.0768462
-0.0927463
0.210547
-0.38719
-0.587414
-0.649384
-0.822339
0.552255
-0.864132
0.996071
-0.829055
0.0665099
0.880323
0.163791
-0.927158
0.233974
-0.522451
-0.403157
-0.789523
-0.874568
0.625026
0.112375
0.645297
-0.167795
0.694065
-0.85296
-0.493614
0.541079
-0.546196
0.715904
0.849817
0.135626
-0.00636549
-0.639699
-0.377171
-0.462155
-0.512582
0.800337
-0.896283
-0.944506
-0.698762
0.427358
