-0.653122
0.884264
-0.861138
0.161888
-0.472613
-0.6075
-0.752028
-0.479333
-0.399675
0.617124
-0.581758
0.856768
0.272812
-0.142987
-0.360779
-0.26278
-0.554871
0.39233
0.757319
-0.36197
0.130049
-0.3846
-0.58536
0.431322
0.503728
-0.202506
0.878981
0.387284
0.214568
-0.741178
0.541751
0.161754
-0.322387
-0.206375
-0.222164
-0.62971
0.225495
0.813113
-0.789067
0.395819
0.386943
-0.198195
-0.576555
-0.717173
-0.754013
0.558236
-0.632695
0.764634
0.0440023
0.854321
-0.708243
0.598026
-0.214769
-0.502964
-0.0386587
-0.856145
0.243706
-0.845227
-0.310436
-0.364314
-0.0034447
0.41716
0.743715
0.206386
-0.185869
-0.579557
0.405127
-0.621572
0.515229
0.402389
-0.667655
0.076276
0.134556
-0.159626
0.772538
0.0172938
0.468124
0.498447
0.718379
-0.789718
0.558986
0.0165124
0.726804
-0.379335
0.12391
0.0272671
0.0756396
0.81091
-0.452754
-0.562642
0.520183
-0.655819
-0.34145
0.112524
-0.0903577
0.184229
0.711833
-0.796355
-0.763952
0.891746
0.489585
0.285116
-0.577097
-0.637743
0.0284111
0.314663
0.842086
-0.0990032
0.36142
0.757209
-0.715534
0.187263
-0.43185
0.690625
-0.280295
-0.829297
0.719398
0.686486
-0.657533
0.601776
0.374504
0.473387
-0.865656
-0.269717
0.716359
0.676056
-0.755674
-0.314695
0.612381
-0.186065
-0.740375
0.194271
-0.564081
0.576782
-0.107972
0.541938
-0.159102
-0.131312
-0.546057
-0.143935
-0.866995
-0.398455
-0.507883
-0.805103
0.645692
0.382819
-0.387888
0.0951839
0.34402
0.522839
-0.645038
-0.351534
0.907842
-0.655451
-0.865499
0.0748153
-0.66994
0.735711
-0.172876
-0.906188
-0.828272
0.2672
-0.00741863
-0.590881
-0.657795
0.913738
-0.682569
-0.207917
-0.150068
-0.682178
-0.0988122
0.733403
0.768293
0.00268857
-0.161912
-0.800257
-0.104687
-0.831277
0.614318
0.638501
-0.149614
-0.0629309
-0.477622
0.709383
0.660749
0.0382074
-0.879024
0.144823
0.694825
-0.689157
0.485127
-0.214218
-0.602587
-0.899053
0.218954
-0.175397
-0.205253
-0.719608
-0.630792
0.403422
-0.163692
-0.209648
0.43176
-0.272771
-0.337312
0.766091
-0.317053
0.0858405
-0.896343
0.356113
-0.213722
0.0726061
-0.483229
0.525522
-0.380518
0.405738
0.135742
0.849344
0.903611
-0.636385
-0.372459
0.411893
-0.239504
-0.456279
-0.307777
0.446527
-0.122208
0.375858
-0.579353
0.574346
-0.808468
-0.447126
0.0407776
0.0805624
0.62602
0.267645
-0.882651
0.179893
0.108192
-0.887378
-0.041432
0.202816
-0.0507223
-0.456438
0.0547355
0.122148
0.491121
-0.318189
-0.215431
0.553987
-0.584482
-0.245395
0.331849
0.307149
0.221492
0.813379
-0.144524
0.144846
0.855621
0.198109
0.0272824
0.650699
0.918487
-0.0873271
0.025202
-0.353077
0.0303517
-0.780498
-0.679395
-0.806604
0.622756
-0.490773
0.480008
0.190122
-0.213857
0.424961
0.54689
-0.723322
-0.529798
0.767882
-0.780565
0.866426
0.425389
0.86333
0.536437
-0.0726747
0.571053
0.593175
-0.0655162
-0.202782
-0.0577209
0.763165
0.0815811
-0.802886
0.704832
-0.67483
0.14576
-0.181472
0.895971
0.392243
-0.709887
0.282858
-0.386617
0.120422
0.771207
0.375993
0.248408
-0.532374
0.351975
0.264695
-0.759123
-0.478231
0.22414
-0.256187
0.910285
-0.513854
-0.276816
0.769948
-0.668074
0.467877
-0.769776
0.882635
0.125074
0.816891
-0.18195
0.0179806
0.178102
0.701852
-0.0624094
-0.543899
0.809446
0.225303
0.700682
0.0502629
0.646081
0.900941
-0.661358
0.330785
-0.920267
0.227313
-0.378953
0.373417
-0.321123
-0.257721
0.81887
-0.372057
-0.289332
-0.465706
-0.232873
-0.669971
-0.0208655
0.383395
0.137368
-0.2345
-0.32049
-0.18823
0.0540162
-0.882958
0.19081
0.758222
0.432677
-0.48658
0.739524
-0.865529
-0.215371
0.423043
-0.083475
-0.215404
0.58602
0.853591
-0.156314
-0.909797
0.863589
-0.443269
-0.804916
-0.274012
0.802845
-0.441861
0.610911
0.5998
-0.531575
-0.509098
0.320655
-0.775726
-0.365145
0.187313
0.207285
0.876583
-0.804947
-0.421582
-0.834872
-0.232746
0.766785
-0.111742
0.739847
-0.448934
-0.171159
0.705011
0.389507
0.359248
