0.749859
-0.305296
-0.0675989
-0.0897405
-0.392431
0.590757
0.387928
-0.723678
-0.336895
0.236244
-0.551685
-0.379542
-0.570262
-0.542839
0.0467412
0.18789
-0.267189
0.471484
0.0357361
-0.140884
-0.0123145
0.345123
0.194026
0.386721
-0.306129
0.762237
-0.108884
0.758736
0.271219
-0.0245745
-0.329334
0.0438026
-0.569108
-0.607304
0.134587
0.18822
0.661825
-0.503517
0.162234
-0.107174
-0.06023
-0.658601
0.487958
0.609866
0.0824572
0.129208
0.353932
-0.227838
-0.421147
0.171012
-0.0838762
-0.196499
0.357065
-0.560267
0.434153
0.0888839
-0.0453169
-0.336933
-0.431618
0.0460947
0.588458
-0.348895
0.767579
-0.718551
-0.736076
0.179174
-0.509966
0.650051
0.659328
0.269149
0.497552
0.561876
0.0509018
-0.533554
0.403824
-0.16074
-0.734493
0.724774
0.163357
-0.48049
0.39322
-0.33022
0.667518
-0.0948743
0.20304
0.579865
0.727672
0.420357
0.664483
-0.343626
-0.0270133
0.302611
-0.230617
0.111585
0.591977
-0.558412
0.546096
0.182052
-0.65271
0.571863
0.383467
0.0139294
-0.440473
0.378951
-0.313043
-0.523142
-0.362157
-0.391918
0.242912
-0.266123
-0.717226
-0.0340374
-0.418768
-0.421889
-0.599354
0.50498
-0.236248
-0.639591
0.474214
0.136929
0.363579
-0.484394
-0.409194
-0.0581648
0.260576
-0.094253
0.27491
0.176174
-0.588961
-0.520144
-0.545339
-0.355536
-0.499612
0.694762
-0.313098
-0.194909
-0.455947
-0.133597
-0.409528
-0.228531
0.652475
-0.708329
0.648362
0.505557
0.231496
0.561909
0.100583
0.526335
0.0507584
0.0273432
-0.439625
-0.214788
0.372066
-0.0462137
-0.743454
-0.612923
-0.647138
-0.567525
-0.163612
-0.420879
0.044903
0.414963
0.15936
0.115316
0.694409
-0.0929329
-0.748002
-0.199141
0.186096
0.702109
-0.244554
-0.16649
-0.530145
-0.610068
-0.182655
0.643783
-0.00505893
0.57249
-0.0785529
0.215942
-0.344346
0.724513
0.758196
0.703559
0.244555
0.318789
0.432451
0.0168068
-0.562681
-0.0327057
-0.229228
-0.728672
-0.667343
0.383106
-0.00488021
-0.463405
-0.300239
-0.296336
0.39757
0.718492
-0.352302
-0.268003
-0.59356
-0.138941
-0.702935
0.440706
0.44755
-0.0946066
-0.0386054
0.0385087
-0.5297
-0.590187
-0.433736
-0.217593
-0.690603
-0.447344
0.566219
-0.229617
-0.53247
0.0384723
-0.657259
0.229376
-0.415111
0.675709
0.069941
0.494359
0.55759
0.435307
0.529682
-0.0251397
-0.473353
-0.45831
-0.735338
-0.586463
0.0043293
0.544043
0.534484
-0.677019
0.515447
0.267664
0.712128
-0.0313064
0.513102
0.318365
0.17811
0.343423
0.424585
-0.0131224
-0.0794611
0.76972
-0.358594
-0.658687
-0.310929
-0.704812
0.0647918
0.255736
-0.254025
0.0642342
-0.76139
-0.111656
-0.308555
-0.190611
0.365048
-0.418725
0.0201159
-0.590418
0.26968
-0.780827
-0.0881725
0.467824
-0.080737
-0.234075
-0.710386
0.354973
0.372959
0.0386642
-0.387698
0.682227
0.45262
-0.767368
-0.726111
0.733435
-0.599293
0.392193
0.094211
0.0311888
0.298448
-0.53072
-0.274995
0.0888319
-0.617793
-0.371388
0.294477
-0.501131
0.403093
0.503232
-0.239599
-0.030809
0.470756
-0.660476
-0.520664
0.316194
0.0947283
-0.27136
0.644838
0.192176
-0.149082
0.741132
0.200057
0.684347
0.19636
-0.101249
-0.423131
-0.0609813
0.40533
0.321318
0.230442
0.637543
0.12158
0.00336451
-0.633185
-0.531158
0.766635
-0.146172
-0.379874
0.704925
-0.264182
0.492719
-0.755655
0.483172
0.691279
-0.624511
-0.386908
-0.477751
0.556549
0.281709
-0.7428
-0.409927
-0.512673
-0.13634
0.0456729
0.463703
0.210642
0.151072
0.0452468
-0.318082
0.0305496
-0.693791
0.204761
-0.184557
0.480921
-0.307026
-0.252998
-0.320608
0.431852
-0.746036
-0.784273
-0.0314595
0.648272
0.114076
-0.779133
0.542987
0.607059
0.636699
-0.201234
-0.476865
-0.0483415
-0.47518
0.0695301
-0.599186
0.00375114
-0.236759
0.744958
0.534302
0.146143
0.242239
0.0378292
-0.411977
0.317092
-0.100894
0.470317
0.287687
-0.655238
0.114758
0.386964
0.128483
-0.059304
-0.584
-0.738941
0.473571
-0.668031
0.68192
0.329448
0.71098
-0.454921
0.319338
-0.24986
-0.713011
-0.507077
0.417557
