0.0543061
-0.230222
0.50569
-0.193432
-0.260058
-0.19461
0.305667
0.52745
0.378975
0.862764
-0.488729
-0.232221
-0.0372552
-0.4382
-0.377678
-0.220804
-0.0977176
0.64457
-0.416975
0.527997
-0.1245
-0.871836
-0.0439885
0.340385
0.118149
0.726999
-0.0424986
-0.325913
0.830565
0.824698
-0.342798
-0.522413
-0.760724
0.577634
-0.558625
0.236884
-0.424596
0.0565205
-0.770546
0.480463
0.184898
-0.0113939
0.452215
0.761085
0.373203
0.762281
0.765371
-0.63925
-0.716602
0.248977
0.874993
0.455916
0.392502
-0.342749
-0.881759
-0.666434
0.769871
0.72715
0.891858
-0.797094
-0.305568
-0.15035
-0.767345
0.835832
-0.554857
-0.0205313
0.754984
-0.219041
0.555112
0.778833
-0.067122
-0.906662
-0.571054
0.433457
-0.037945
0.915055
-0.190743
0.783466
-0.484345
0.165057
0.607904
0.0516765
-0.601645
0.516797
-0.175907
0.817138
0.76756
-0.448252
-0.918237
-0.624791
-0.889669
0.118255
-0.376777
0.834378
0.460479
-0.764806
0.78129
-0.11452
0.776266
-0.351854
0.162731
0.487922
0.370873
-0.0577574
-0.904119
-0.289575
0.791597
-0.206357
0.731531
-0.755146
-0.551602
-0.510082
-0.0152945
0.16367
-0.902642
-0.18459
-0.404781
0.151233
-0.654864
0.000919798
0.220075
-0.0239836
0.847013
0.112139
-0.175392
0.607418
-0.682449
-0.347859
0.858773
-0.486945
0.879658
-0.910571
-0.650465
0.695609
0.371621
-0.366914
0.547994
0.656767
-0.101229
-0.631728
-0.368255
0.0112713
0.218061
-0.602053
-0.234203
0.908489
-0.0380988
0.834023
0.738273
-0.639072
0.407365
0.891551
-0.142171
0.679342
0.738398
0.562638
-0.037085
-0.494756
-0.576777
0.440687
0.772403
0.869042
0.737966
-0.0858942
0.314889
-0.456912
0.43069
0.102603
-0.224849
-0.0291296
0.830468
-0.20374
0.42154
-0.331625
0.150152
0.521075
0.582357
-0.395252
-0.0984399
-0.0259135
-0.436103
-0.308655
-0.572188
-0.6423
-0.611621
0.0453156
0.648797
-0.243459
0.648158
-0.824
-0.714883
-0.633634
0.456076
-0.431539
0.0634851
-0.417168
0.874793
-0.729627
0.849958
-0.526
-0.469404
0.091244
0.20655
-0.24979
0.0136682
-0.190742
0.913947
-0.539879
0.616728
0.366707
0.644732
-0.431455
-0.832182
-0.0531775
-0.229842
-0.41503
-0.115237
-0.910131
0.464384
0.286939
0.284613
0.0225995
-0.50284
-0.371994
-0.825387
-0.744135
0.287555
0.143032
0.6358
-0.504487
-0.272238
-0.353918
-0.252336
0.25387
-0.811986
0.470626
0.272248
-0.194675
-0.151683
0.301728
-0.519648
0.248993
-0.489312
0.608569
-0.289448
-0.302835
-0.703562
-0.726632
0.726459
0.595056
0.918921
-0.548302
0.215963
-0.461675
0.275514
-0.561786
-0.410281
0.0373451
0.873613
-0.505293
-0.815873
0.912134
-0.505159
0.724351
-0.80499
-0.515355
-0.617394
-0.562223
-0.90613
-0.491179
0.274092
0.0313963
0.128547
0.014885
0.34225
0.49524
-0.303017
0.301632
-0.0271453
-0.757109
-0.526909
0.481923
-0.697345
-0.719392
0.52481
0.087484
-0.856708
-0.578203
0.478847
0.549384
-0.343402
-0.513463
-0.479661
0.636826
0.751862
-0.715424
0.465674
-0.810774
0.622225
-0.223978
-0.651159
-0.0765261
0.826585
-0.607469
-0.0124684
-0.434875
0.607346
0.30623
0.163588
-0.78821
-0.191767
0.787664
-0.550189
-0.0758531
0.604645
-0.245743
0.906206
0.621701
-0.20123
-0.525226
-0.656911
-0.261123
0.755494
-0.71832
-0.733203
-0.0182683
-0.60491
0.806041
-0.317942
0.228779
-0.3755
-0.57421
-0.269664
-0.550359
-0.265466
0.665885
-0.623065
-0.634644
-0.0403624
0.247614
-0.229423
0.577756
0.106537
0.842788
-0.181599
-0.134615
-0.85923
-0.510005
0.908877
-0.919448
-0.516644
-0.17689
-0.661308
-0.590126
0.800714
-0.164685
-0.152098
-0.093423
-0.146496
-0.117378
-0.203288
-0.880433
-0.435599
-0.228294
0.241935
-0.623749
0.290883
-0.668469
0.258304
-0.690225
-0.548281
0.162979
0.392962
-0.0305374
0.588051
0.835218
0.246907
0.0326167
0.548306
0.423066
-0.477608
0.689998
-0.437705
0.653372
0.676299
0.702463
-0.772048
-0.239557
0.538488
0.142973
-0.500805
0.218008
-0.572337
-0.392907
-0.500764
-0.212059
-0.815807
0.163742
0.89022
-0.185997
0.856838
0.00892352
-0.49915
0.638351
-0.141509
-0.0329864
0.56842
0.42896
-0.847624
0.440232
-0.445495
0.310396
0.675343
-0.156379
-0.836011
0.232863
0.461763
-0.0436273
-0.616422
-0.00848886
0.879072
0.611928
0.0469964
0.899426
-0.311915
0.773927
0.36243
0.725884
0.892927
-0.744283
-0.828118
0.145131
-0.323268
-0.252831
-0.615256
-0.024034
-0.0739769
0.180561
-0.510396
0.179362
0.238712
-0.666729
0.821685
-0.509476
0.381734
-0.675452
-0.778622
0.0738498
0.743565
0.26058
0.192831
-0.418313
-0.865547
0.0635056
0.201147
-0.341938
0.452159
0.869592
-0.492351
0.761835
0.0642218
0.915249
0.914625
-0.922997
-0.914175
-0.0259105
0.63444
0.00712647
0.0764306
0.524989
0.665446
0.0860034
0.754637
0.278601
-0.716048
0.395586
-0.553188
-0.328625
-0.751619
-0.0403432
-0.825985
-0.890842
0.318593
0.678967
0.418777
0.704511
-0.619814
-0.149054
0.376669
-0.247377
-0.916009
-0.208514
-0.86286
-0.336772
-0.394669
-0.674188
-0.155716
-0.772528
0.834032
-0.239002
-0.827929
0.795007
0.424553
0.664232
-0.148537
0.771443
0.421295
-0.627602
-0.609476
-0.766576
0.556867
-0.323858
0.0574399
-0.824721
0.156223
-0.887822
-0.042214
0.189581
0.165179
0.527133
0.923031
-0.484155
0.121351
-0.3689
-0.919245
-0.839312
-0.673292
-0.165206
-0.549177
-0.176018
0.910935
0.799793
0.133568
-0.174682
-0.459963
-0.523898
-0.0522683
0.150575
-0.739954
0.773363
0.666339
-0.547493
-0.209533
-0.854253
0.35131
-0.714664
-0.229197
0.16408
-0.34559
-0.852556
-0.0441177
-0.488087
0.341531
-0.000454736
-0.0743094
-0.444393
-0.520336
-0.235183
-0.276808
0.814509
0.534607
0.880681
-0.149516
-0.325502
-0.115753
0.402283
-0.643565
-0.69088
-0.596296
0.554299
-0.0656795
-0.862734
0.398014
-0.602529
-0.329435
-0.099944
-0.567128
0.0952019
0.41782
-0.170544
-0.276849
0.46438
-0.924106
-0.503139
-0.894237
-0.549026
-0.540129
0.748019
0.139887
-0.832749
0.882164
0.512687
-0.760641
-0.898607
-0.737568
-0.0678455
0.411401
0.559065
0.0559924
0.162067
0.555347
-0.86045
-0.0307376
-0.153498
-0.0249481
-0.477794
-0.14287
-0.0908247
0.306383
0.585245
-0.528665
-0.379544
-0.109637
-0.033577
0.568168
0.742176
0.78303
-0.805663
0.136101
-0.827056
0.26766
-0.0515556
-0.408939
-0.759391
0.266034
0.339468
0.442992
-0.477686
-0.830649
0.537903
0.0340023
0.894347
-0.315644
-0.131734
0.886504
0.401527
0.773412
-0.541588
0.208598
-0.761812
0.276341
0.16183
-0.333358
0.866623
0.260291
0.579712
-0.75302
-0.383968
0.112574
0.318938
-0.052008
-0.7463
0.696868
-0.668888
-0.19875
-0.197082
-0.505197
-0.136882
0.182798
-0.353793
0.269105
0.369941
0.137923
0.527754
0.589824
0.61004
-0.0365604
-0.703898
0.893946
0.24614
-0.641094
-0.489787
0.151102
-0.180005
0.326962
-0.539343
-0.919199
-0.811804
-0.110901
0.621206
0.0907302
0.00593466
-0.835948
0.65621
0.493886
-0.577295
-0.074218
0.69208
0.271297
0.127395
-0.0779451
0.454866
-0.894473
0.500086
-0.172027
-0.761072
0.821367
-0.811645
-0.375546
0.287311
-0.250983
0.47202
0.581318
0.604213
0.420666
-0.0379006
-0.901022
-0.907214
-0.477253
0.216901
0.446286
0.0353809
-0.0912316
0.6207
0.674122
-0.279205
-0.216752
-0.468169
-0.320206
0.618387
-0.0289148
-0.832134
-0.564
0.343436
-0.36132
0.39919
-0.579566
0.0684626
0.46035
-0.741175
-0.408013
0.746691
0.504827
-0.406548
-0.258953
-0.410811
-0.277015
-0.347935
-0.186273
0.919992
0.537432
0.282359
0.656981
-0.0929924
-0.582661
-0.000927755
0.742975
0.24459
-0.356894
0.626325
-0.18816
-0.622855
-0.186703
0.732831
0.463336
0.0427743
0.548913
-0.531315
-0.588474
-0.640269
0.176489
0.872918
-0.326663
-0.800189
0.23282
0.149486
-0.876771
0.413493
-0.288789
0.650633
-0.0555475
-0.451696
0.146538
0.522711
0.242985
-0.874081
0.54697
0.557694
0.151281
-0.672229
-0.846241
-0.122169
-0.691273
0.565025
0.341134
0.185528
-0.197829
-0.607908
-0.513641
0.450252
-0.852566
-0.91551
-0.706114
-0.184439
-0.349694
0.122943
0.773833
0.127544
0.532703
-0.674697
-0.854571
0.717496
-0.146007
0.16403
0.253579
-0.183553
-0.320993
-0.79481
-0.892708
0.439253
-0.153559
0.549344
0.427996
-0.00263368
0.568492
0.30315
0.753156
-0.0670541
0.17198
0.272437
-0.0658917
0.382384
0.13942
-0.251741
0.0448446
-0.718746
-0.363683
-0.880134
-0.725382
-0.480847
0.157776
0.508149
0.0286931
-0.311874
0.878164
0.0015106
0.59477
-0.81839
0.871661
0.0855151
-0.114505
0.457175
0.496431
0.11463
0.811555
-0.191152
-0.434859
-0.48888
0.594286
-0.282973
-0.461499
0.0189474
-0.602102
-0.921544
-0.799573
-0.905951
-0.376997
0.595733
0.0827014
0.534378
0.619515
0.664262
-0.170902
0.735287
0.0239417
0.175866
-0.711715
-0.338218
-0.837183
-0.626021
0.464634
0.282462
-0.742904
0.659632
-0.0324864
0.713509
-0.154132
-0.00659729
-0.408578
0.00134561
-0.873916
-0.509204
0.326333
0.478049
-0.447383
0.426386
0.395517
0.0353679
-0.307775
0.28255
-0.751372
-0.411547
-0.210139
0.655227
-0.135983
0.164059
0.134158
0.736986
0.560957
0.170007
-0.136488
-0.693596
0.779897
-0.380467
0.0883059
-0.793906
-0.44045
0.345425
0.84903
0.817245
-0.178096
-0.921292
0.60321
-0.27966
-0.510885
-0.102463
0.617672
0.339396
-0.430167
-0.78075
0.696122
-0.449879
0.397455
-0.418833
-0.543695
0.135862
-0.297079
-0.34907
-0.866802
-0.89977
0.629084
-0.744518
-0.135967
-0.222745
-0.411483
-0.457556
0.624931
-0.665463
0.195582
0.543081
0.679157
-0.350828
0.885062
0.545801
0.410784
0.82025
0.745939
0.0137226
-0.212696
0.742844
-0.00837714
0.692998
0.473048
0.0137074
0.328659
-0.816387
0.30344
-0.656533
-0.464157
-0.300075
-0.40586
0.296844
0.552226
0.394659
-0.890574
0.616465
-0.0415447
-0.320011
0.841393
0.0173217
0.159099
0.648462
0.569248
0.516262
0.481469
-0.728425
0.244882
-0.497554
0.704555
-0.216722
0.675025
0.110277
0.886796
-0.236042
0.382071
-0.891126
0.702721
0.845644
-0.330371
-0.715569
0.841684
0.351336
0.769792
-0.193716
-0.701293
0.772635
0.442392
0.047562
-0.155366
0.343278
0.854794
-0.0647338
0.539449
-0.495416
-0.853129
-0.607057
0.115668
-0.778773
-0.169661
-0.87879
0.52402
-0.594384
0.0527359
0.645142
-0.07031
0.914481
0.922183
0.879445
-0.402799
-0.252955
-0.850257
-0.0189163
0.00859334
-0.794099
-0.319263
0.830595
0.176085
-0.0226798
0.277555
0.0203936
0.576662
-0.7802
0.300369
-0.0127304
-0.330508
0.428738
0.111317
0.0229728
0.180873
0.587649
-0.549584
-0.0758855
-0.0249238
-0.850704
-0.89398
0.145825
-0.337393
0.124785
0.688567
-0.894613
-0.579846
-0.148085
-0.460192
0.845765
-0.255297
0.228482
-0.661045
-0.623962
0.684996
0.257524
0.907659
0.226869
0.731753
-0.872776
0.365844
0.897437
0.0877116
0.47178
0.788693
-0.387948
0.586109
0.0786582
0.722078
-0.771621
0.015808
0.335493
0.187376
0.581085
0.691642
-0.570827
-0.0884821
0.0449979
0.374157
-0.71916
0.735158
-0.400489
-0.316271
-0.36209
-0.145956
0.604033
-0.68984
-0.267643
-0.174119
0.511822
0.48135
0.388743
0.0844742
0.0659912
-0.369609
-0.359083
-0.781623
-0.276057
-0.464449
0.045968
0.673042
0.662798
0.172466
0.361079
0.279594
0.689797
0.539751
0.628851
-0.0716469
-0.749641
-0.38879
0.677777
-0.410291
0.658335
-0.287815
0.419746
-0.824336
-0.267578
-0.704734
0.263563
0.453399
0.0410683
-0.436822
-0.864612
-0.0113154
0.576338
-0.920218
-0.553673
-0.72703
0.186441
0.385827
0.215968
-0.880571
0.624264
-0.76537
-0.614432
-0.630693
0.722033
0.765107
0.817394
0.327055
-0.745744
-0.141246
-0.328484
0.882242
-0.214138
0.831347
-0.303791
-0.462508
-0.04817
-0.254746
-0.874919
-0.00881917
0.18089
-0.445501
-0.717831
0.403585
-0.743966
0.557279
-0.341126
0.822505
0.902189
0.224602
-0.910487
0.645445
0.12552
-0.0436543
0.0741357
-0.541848
-0.921021
-0.441768
-0.636482
-0.743118
-0.132284
-0.192775
0.343442
0.268241
0.162349
0.284919
-0.777287
0.600333
-0.820501
-0.444271
-0.0761058
-0.00263313
-0.623619
0.854812
-0.120519
0.698445
-0.0849207
0.190948
0.520119
-0.452453
0.811762
-0.631189
0.553765
0.544326
0.808199
-0.796721
0.434967
-0.523199
-0.821124
-0.316623
-0.0964926
0.306766
0.389105
-0.527323
0.630433
0.89849
-0.574373
0.684533
0.0326206
-0.774695
0.490164
0.356283
0.4053
-0.287451
-0.277875
-0.649511
0.658948
-0.162343
-0.194138
0.403848
-0.786174
0.494378
0.642234
-0.0139297
-0.205198
0.513229
-0.261367
-0.0182751
-0.501164
-0.590984
0.11336
0.162196
0.531711
-0.763248
-0.474279
-0.591746
0.579483
-0.673148
0.177564
-0.419729
-0.480529
0.0397391
-0.764457
-0.78803
0.141803
0.52142
-0.848973
0.839939
0.792139
-0.817951
0.171114
0.239406
-0.583787
-0.0797689
0.0627141
0.904218
0.339349
-0.498271
0.847505
-0.81288
0.0643741
-0.359859
0.878419
0.547606
0.889376
-0.867282
0.511452
-0.03435
-0.351667
0.462034
-0.3755
0.388856
0.338939
0.474869
0.206019
-0.109318
-0.339073
0.565411
0.330116
0.55135
0.383884
-0.501802
-0.642364
-0.348785
-0.380483
-0.487716
0.828762
0.353199
-0.69518
0.0845526
0.200525
0.0809865
-0.558803
-0.76995
0.26943
-0.702484
0.843442
0.00072226
-0.029505
-0.47549
0.0187605
-0.0437469
-0.135821
-0.237156
-0.071315
0.309636
0.489694
0.731709
-0.583958
-0.457583
0.433812
0.688745
0.736226
0.27554
0.224449
0.799386
0.615884
0.145792
0.068443
0.329828
0.898567
-0.724291
-0.525689
-0.123242
-0.325164
0.128132
-0.649213
-0.0937835
0.908926
0.022197
0.547848
0.442437
-0.157288
0.0987267
0.539227
0.801186
0.406232
0.678006
0.697929
0.19558
0.672368
0.394358
-0.0153507
0.0424175
0.462051
-0.794065
-0.00748031
0.880955
-0.593592
-0.551942
-0.711897
0.68338
0.7441
0.305039
0.257236
0.337354
0.771589
-0.553789
-0.840459
-0.79512
-0.550426
0.00747643
-0.78566
-0.691314
0.773673
0.0763806
-0.693775
-0.78029
0.0209541
0.796038
-0.129872
0.263805
0.661653
-0.330595
-0.446106
-0.416593
0.629625
0.00912996
-0.168868
-0.0391033
0.835484
-0.0691692
0.88491
0.386936
0.510916
-0.249613
0.106914
0.133695
-0.408966
0.465882
-0.338576
0.397884
0.409826
-0.0567146
0.263189
-0.105397
-0.727956
-0.652178
-0.48548
0.520894
-0.329587
0.417174
-0.301974
0.344546
0.495422
-0.0583459
-0.192541
0.232707
-0.177231
-0.512124
0.482532
0.586407
0.473087
0.673553
-0.244877
0.0675022
0.119645
-0.12722
-0.451746
-0.814878
0.00388057
-0.275412
-0.878143
0.0262487
0.699058
0.468856
-0.54925
0.74482
-0.798223
0.160522
-0.437107
0.731815
0.229852
-0.758075
0.385265
-0.0698078
-0.805075
-0.92257
-0.353741
0.601715
-0.425123
-0.551535
-0.491256
-0.269858
-0.788175
-0.659541
0.818102
0.38496
0.632652
0.655508
0.805452
-0.037464
-0.427021
-0.136904
0.212392
0.491225
-0.613877
0.269613
0.901897
0.85991
0.311718
-0.695822
0.758383
-0.227372
-0.28115
0.342716
-0.0728347
0.301142
-0.48364
0.453654
0.369948
-0.687622
-0.887861
0.19091
-0.456916
0.708813
0.804867
0.20071
-0.863464
0.0452415
-0.420677
0.104095
-0.145761
0.808982
0.326616
-0.628631
-0.812129
-0.519428
0.798099
-0.336155
0.400781
-0.275345
-0.150656
-0.760568
0.322959
0.738898
-0.696397
0.742919
-0.675941
-0.343974
-0.667682
-0.771745
-0.89901
0.768731
-0.0786776
-0.920836
0.229937
-0.269258
-0.7305
-0.211159
0.630565
-0.430999
-0.734204
0.857996
-0.461094
0.702693
-0.46664
0.851709
-0.504481
-0.670206
0.416705
0.596803
0.16112
0.477064
0.632244
0.30927
-0.84963
-0.522973
-0.207551
0.693
0.280177
-0.453768
0.214883
-0.299968
-0.605345
0.10782
-0.450449
0.0771878
-0.857912
0.139465
-0.829378
0.791427
0.349337
0.0774935
-0.20611
0.219099
-0.164992
0.248055
-0.813079
-0.237514
0.175148
-0.274935
-0.405734
0.488424
-0.237409
0.847885
-0.26767
-0.306749
0.145466
0.0310743
0.445719
-0.789703
0.649177
0.215024
-0.883526
-0.489012
-0.738179
-0.739559
-0.269587
0.266428
-0.710755
0.238326
0.697333
0.336735
0.903635
0.700058
-0.795253
0.918754
0.0322168
0.377045
-0.478432
0.299181
0.520376
0.769644
0.913864
-0.537658
0.320042
-0.791549
-0.528724
-0.398783
0.756904
0.891123
0.017968
0.113629
0.311358
-0.677353
-0.380989
0.104957
-0.866955
0.450118
0.512725
0.897439
-0.162278
-0.744703
-0.610314
-0.921368
0.266285
0.463283
0.509567
0.306869
-0.06355
-0.339835
-0.24115
-0.247244
-0.819225
-0.21844
-0.772833
-0.797713
-0.612755
-0.697246
-0.455275
0.396323
0.671318
-0.28349
0.45055
-0.763987
0.637655
-0.909448
0.329515
0.806616
-0.269548
0.470609
0.0339443
-0.477667
0.492647
0.0797675
0.187328
0.912454
-0.197763
-0.246463
-0.776677
-0.456982
0.769563
-0.905117
-0.225637
0.633657
-0.584819
0.0137942
-0.155127
-0.697358
-0.10086
-0.40907
0.280926
0.902988
-0.284404
-0.790248
-0.0101801
-0.410348
0.074868
-0.0127354
0.22377
-0.325983
0.230206
0.760822
-0.0575209
-0.231967
-0.716863
-0.350922
-0.389034
-0.790917
0.70274
-0.600017
0.343055
0.799026
-0.827791
0.527741
0.272005
-0.220623
0.0929197
0.0957107
-0.60767
-0.516729
0.0572616
0.465299
0.075819
0.0469092
-0.189578
-0.11914
-0.158229
0.658281
0.459026
0.508974
-0.598883
-0.276651
-0.500208
-0.528754
0.690865
-0.52019
-0.670195
-0.421402
0.206405
-0.634274
0.0943488
-0.0936984
0.209071
-0.31611
0.456294
0.154295
-0.0819291
0.815248
-0.193134
0.589116
-0.352059
-0.901266
-0.209376
-0.790262
0.374447
0.750611
-0.586696
-0.0868999
0.415161
0.450239
0.20508
0.522149
0.191471
-0.503178
-0.920786
0.270326
0.745441
0.201812
0.888948
-0.89639
-0.229314
-0.566471
-0.375573
-0.623556
-0.63191
-0.400458
-0.604527
-0.516794
-0.0965286
-0.756028
0.479703
-0.74542
-0.0481144
-0.667495
0.807399
-0.442569
0.634605
0.300256
-0.159124
-0.299477
0.440396
-0.768734
0.504539
0.822251
0.732884
0.0888726
-0.141525
0.639803
-0.900473
-0.257217
0.437466
0.196179
-0.881292
-0.628969
0.673967
0.239739
0.857305
-0.446182
0.27546
-0.769285
0.136153
-0.842848
0.0421537
0.791091
-0.637553
-0.111123
0.258827
-0.807149
-0.823765
0.519985
-0.411589
-0.807226
-0.258196
0.642464
-0.87577
0.213589
0.00794746
-0.410963
0.311848
0.537348
-0.691547
0.193677
-0.211438
0.11586
0.830008
0.0407888
-0.871104
-0.426401
-0.368749
-0.774552
-0.684494
0.750317
-0.100471
0.00925527
-0.000283291
-0.290695
-0.739733
0.266535
-0.770815
-0.741607
-0.816074
-0.584516
0.178031
0.651536
-0.277982
-0.117288
-0.487148
0.271773
0.832114
-0.653204
-0.134488
0.47617
-0.319333
0.664346
-0.676455
0.0226201
-0.818905
-0.549335
0.700487
0.759767
0.242075
-0.14048
-0.0654279
0.0560892
-0.641505
0.317904
-0.478775
-0.0344681
0.100121
0.554737
-0.244548
-0.734743
0.894995
0.539995
-0.0715465
-0.106977
0.0038057
-0.675925
0.802538
-0.820058
-0.895974
0.401281
0.693126
-0.268062
-0.496629
-0.152027
-0.404621
0.176281
-0.0842751
-0.344327
-0.633406
0.523046
-0.822742
-0.296376
0.315861
0.643641
0.344349
0.104384
-0.29084
0.409114
0.317936
-0.155935
0.78898
0.496708
-0.685669
-0.267458
0.794826
0.511556
-0.812413
0.738019
-0.558915
0.874491
0.675757
0.312472
0.442046
0.327954
-0.833118
0.824069
0.187813
-0.361797
-0.372972
0.442036
-0.204623
0.873444
-0.81674
0.425489
0.444788
0.89944
0.543593
-0.00714687
0.429663
-0.876016
-0.334721
-0.890048
-0.0653761
0.254964
0.912886
0.388693
-0.387814
0.204647
0.554567
0.223016
0.29252
0.498906
-0.77812
0.87308
-0.227671
-0.178017
-0.6677
-0.391437
0.160562
0.234503
-0.208496
0.65521
0.608588
0.172375
-0.400178
-0.555881
0.60445
-0.748793
0.275011
-0.6371
0.645683
-0.23978
0.725668
0.668623
-0.625566
0.290353
-0.718253
-0.084718
0.611369
0.281116
-0.827724
-0.102487
0.668611
0.280836
-0.324013
-0.791545
-0.0943551
0.00744698
0.12643
-0.72719
-0.43783
0.177475
0.617624
0.797726
0.346234
-0.47039
-0.908533
0.908392
0.717314
0.2045
0.610298
0.204593
0.517744
0.318706
0.733169
0.0596403
-0.232422
-0.426326
0.346569
0.278534
-0.328742
-0.683421
-0.323272
0.286046
-0.388102
0.859267
0.241885
0.915738
0.342432
-0.331961
-0.0287265
-0.0267728
0.4173
0.0188179
0.463782
-0.605826
-0.865281
-0.72754
-0.682262
