0.46401
0.965176
-0.50468
0.765083
0.795435
-0.146744
-0.058669
0.53788
0.168966
-0.379968
0.367444
0.658442
0.924611
0.874189
-0.187946
0.717195
-0.625771
-0.260038
0.566459
0.922515
-0.590608
-0.450176
0.354545
-0.669509
0.395029
0.476211
-0.0803526
-0.428637
0.0965832
0.166728
0.598845
0.268208
-0.661285
0.164592
0.57186
-0.168785
-0.482122
-0.423606
-0.463444
0.220627
-0.0745921
0.837681
0.252108
-0.297476
-0.0824849
-0.61157
-0.610689
-0.606689
-0.594338
-0.938602
0.394917
-0.575298
0.755095
0.433361
0.105271
0.256045
-0.630047
-0.753216
0.921253
0.867671
-0.605432
-0.456336
0.892514
0.844433
0.434831
-0.691123
-0.33106
-0.660688
-0.563626
0.363797
0.734882
0.881748
0.786065
0.72678
0.874957
0.43625
-0.616967
0.687756
-0.294958
-0.897448
0.948477
-0.243189
-0.424327
-0.777024
0.778624
0.519769
-0.611549
-0.207708
-0.960242
-0.3019
0.808127
0.969205
0.705842
-0.234892
0.601354
-0.439198
-0.61134
0.693394
0.826953
-0.42961
-0.983433
-0.949964
-0.466471
0.24156
-0.370754
0.635658
-0.954404
0.511391
-0.974834
-0.421412
-0.549708
-0.341642
-0.299178
0.367415
0.742863
-0.518658
0.836815
0.646046
-0.658877
-0.338687
0.419642
0.708679
-0.757595
-0.996023
-0.326691
-0.0185697
-0.220532
0.750682
0.211755
0.274682
0.587445
-0.647003
0.407602
-0.822818
0.727398
0.739128
-0.253158
-0.610917
-0.0783506
0.993159
0.0278465
0.841702
-0.587095
0.335387
0.0252877
0.445778
-0.0411729
0.0889071
-0.089307
-0.886534
-0.943001
0.0106662
0.803555
-0.974475
0.909165
-0.207085
0.435049
-0.120832
-0.772287
0.820617
-0.190362
-0.212356
-0.736866
0.414486
-0.965131
0.72749
-0.198354
0.416244
-0.626379
-0.991422
0.414384
0.941081
-0.235888
0.548678
0.209919
0.30733
0.128323
0.263205
-0.208863
-0.236872
0.278428
-0.151934
0.323092
-0.202664
-0.749501
-0.978155
0.791026
-0.947062
-0.698034
-0.823063
-0.0040333
-0.794046
-0.475361
0.83153
0.500962
0.138733
-0.384159
-0.0594339
-0.499708
-0.980036
0.724117
-0.369198
-0.280327
0.472348
-0.450461
-0.0664839
0.892228
0.209482
-0.456998
-0.696147
-0.108718
0.70085
-0.505729
0.170309
-0.711743
0.677983
-0.0749967
0.332529
-0.794251
-0.983412
0.176043
-0.833845
-0.240709
0.733093
0.010484
-0.287504
0.0975307
-0.242582
0.971517
-0.648585
0.324513
0.0413647
-0.503319
0.927659
0.961323
-0.52245
0.745401
-0.491851
-0.48778
-0.0800902
0.42713
-0.404721
0.301734
0.30278
0.562123
-0.888395
0.566033
-0.583655
-0.17613
0.747478
0.0512154
0.510003
0.534605
-0.317181
-0.639086
-0.419369
-0.341074
0.701159
0.0781369
0.443179
-0.890594
0.199239
0.755485
-0.202947
0.233153
0.325232
0.720726
-0.968358
-0.268464
-0.00516229
-0.196536
-0.669408
0.0300163
0.222842
0.322255
0.526635
-0.0666803
-0.896271
-0.236395
-0.0319211
0.0597512
-0.0588231
-0.206435
0.434588
0.203184
-0.332078
-0.0228615
0.0058094
0.652724
0.215155
-0.327774
-0.2005
0.937572
0.415814
-0.279459
-0.28994
-0.759998
-0.841948
0.247736
0.219081
0.800865
-0.885243
0.473572
-0.0992068
-0.0188066
0.584753
-0.867541
0.140015
-0.812759
-0.366992
-0.625049
0.207372
-0.587538
-0.422211
0.765495
-0.82667
-0.45558
-0.0243806
-0.580388
0.804059
0.502935
0.619698
0.754211
-0.00480375
-0.700571
0.805371
-0.397985
0.967639
-0.259678
-0.710987
0.102951
0.564245
0.58195
0.851733
0.445609
0.473052
-0.717775
0.486028
0.540577
0.174106
0.435412
0.959411
0.166018
0.466462
-0.0919587
-0.658874
0.122468
-0.670803
0.813595
0.566484
0.558986
-0.229655
0.162313
0.429368
-0.454558
0.484037
-0.809048
-0.621273
-0.631153
-0.622516
-0.0511048
0.656659
0.273214
-0.167788
-0.296308
0.342964
-0.836742
0.98656
-0.588499
-0.959188
-0.251681
0.129908
0.659868
-0.751419
0.58116
0.869208
-0.733307
0.780976
0.17846
0.0318333
-0.737131
0.114538
0.582015
-0.975666
-0.376984
0.928988
0.71829
-0.761583
0.744108
0.528643
0.584487
-0.653894
-0.75436
0.819645
-0.535921
0.10543
0.432901
0.337057
0.955356
0.387105
