0.712873
-0.492982
0.955293
-0.37244
-0.841413
0.408058
-0.141407
-0.358096
-0.696491
0.826606
0.993881
-0.630982
-0.632937
-0.124978
0.268655
-0.669471
-0.781812
-0.639737
0.0357525
-0.536895
-0.421785
0.620316
-0.040108
-0.37544
0.0903188
-0.844362
-0.0458781
0.0906006
0.827077
-0.620018
0.900887
-0.113673
0.784559
-0.369055
-0.114425
-0.361714
0.615792
-0.243035
-0.445608
-0.650123
0.999081
-0.359571
0.282579
-0.661633
0.074342
-0.402077
0.662418
-0.981467
0.934073
0.67635
-0.414835
0.100042
-0.0757004
0.758304
-0.0916813
-0.246236
-0.418652
-0.386
0.195631
0.0459988
-0.705963
0.934096
-0.137908
-0.73933
0.200807
-0.103129
0.213439
-0.522764
0.878971
-0.151199
-0.734088
0.031526
0.0128831
0.944079
0.275626
-0.144158
-0.566072
0.740757
0.708034
0.600317
0.987787
0.962716
-0.656685
0.400393
0.453282
0.144525
0.0356856
-0.92732
0.202349
0.49204
0.27272
-0.644358
-0.0436922
0.244629
-0.895519
0.994179
-0.813311
0.202913
-0.704852
0.600736
0.0762246
-0.663575
-0.811124
0.518234
-0.706439
-0.244227
0.725517
-0.432588
-0.904348
-0.0958722
0.0603185
0.0326314
-0.339029
-0.120935
-0.544883
0.925966
0.118439
-0.11452
0.94376
0.0835178
0.197414
0.243371
-0.785537
-0.871488
-0.712151
0.941859
-0.819206
-0.136019
0.68567
0.512348
0.719308
-0.860168
-0.858523
-0.801351
-0.503752
0.323614
-0.490478
0.328018
0.157093
0.296212
-0.989755
0.962064
-0.356143
-0.64451
0.238789
-0.154592
-0.913531
0.915274
0.97008
-0.00758645
0.617269
0.695631
-0.970599
-0.937141
0.79461
0.71495
-0.804696
-0.363668
-0.566441
0.32627
0.762114
-0.893858
-0.00116488
-0.548832
0.363215
-0.673435
-0.365453
0.0606532
-0.539861
0.902996
0.623922
-0.465353
-0.525474
-0.0544989
-0.267116
-0.985848
0.0369787
0.742122
0.417459
-0.335277
0.195675
0.603072
-0.831503
0.989157
-0.269916
0.995591
0.978692
0.150654
0.20451
-0.189928
0.366434
0.483963
0.533357
-0.279488
0.0995488
-0.987904
0.61869
-0.708285
0.52439
0.651722
-0.316743
0.334373
-0.490107
0.642414
0.133475
0.480597
0.165531
-0.933058
0.384846
0.483467
-0.559059
0.864038
0.151905
-0.63229
-0.855318
0.414834
-0.517391
-0.612213
-0.727828
-0.918884
0.186658
-0.70457
-0.342897
-0.738901
0.84456
0.623196
-0.203063
0.0204039
-0.195402
-0.35524
0.820052
-0.251152
0.0945326
-0.894089
-0.245602
0.238434
-0.393491
-0.941646
0.638952
0.786711
0.413329
0.252994
-0.105557
0.0854473
-0.864482
0.839337
-0.889315
-0.118843
-0.483201
0.983852
0.587727
-0.715911
-0.137107
-0.871302
-0.634931
-0.375596
-0.75429
-0.310261
0.101868
-0.264294
-0.502222
0.299306
-0.495941
0.999898
-0.0409426
0.499245
0.528884
-0.586444
0.500601
-0.345445
0.417316
0.16581
-0.799206
0.0245572
-0.743859
0.380133
-0.695982
0.923695
-0.61191
0.969474
0.646751
-0.404973
-0.213836
-0.635341
0.740386
-0.15716
0.282721
-0.0285254
-0.726767
0.28733
-0.724565
-0.688811
0.77419
0.180048
-0.260383
0.0560561
0.00601758
0.169084
-0.799225
-0.438496
-0.367264
0.907707
0.121742
-0.249749
-0.34979
0.852749
0.400917
0.0829879
0.516566
-0.733599
-0.545895
0.965426
0.957162
-0.982514
-0.0460523
0.25053
0.424252
-0.876552
0.756279
0.870851
-0.501321
0.102756
-0.306466
0.878619
0.411529
0.543258
0.734588
0.0587755
0.30216
-0.649288
0.632742
0.296621
0.100179
-0.809197
0.221097
0.26593
-0.131594
0.0630872
0.974737
-0.340904
-0.566713
-0.0183444
0.965084
-0.687646
-0.564135
-0.887848
-0.80277
0.765443
0.994973
0.110375
-0.20869
-0.670043
0.964873
-0.542322
0.18263
0.954147
-0.15982
-0.833095
0.126317
-0.993066
-0.998566
-0.486071
-0.805129
0.126595
0.13502
0.350489
-0.754765
-0.966089
0.434425
0.853463
-0.689405
0.762928
-0.920567
0.10676
0.805164
-0.772944
0.632423
-0.375438
-0.103385
-0.922932
0.821801
0.603903
0.269642
-0.335374
-0.710961
0.229049
0.871935
-0.171763
-0.421091
0.130034
0.604701
0.417664
0.133709
-0.427131
-0.565861
-0.318849
0.567664
0.730729
-0.572742
-0.832246
