0.842339
0.124113
-0.152921
0.0800701
-0.645491
-0.637191
0.897573
0.611976
0.665335
0.814491
-0.936541
0.200459
0.636397
-0.136385
-0.739582
-0.77577
-0.50057
-0.0710559
0.1308
0.938168
-0.200088
0.509438
0.417662
0.468383
-0.13051
0.925411
-0.868295
0.765717
0.50057
0.217233
0.814262
-0.820398
-0.773267
-0.634402
-0.474169
0.163148
0.955298
0.225115
0.852791
-0.143033
0.651897
0.863362
0.15611
-0.871536
0.784437
-0.486688
0.830899
-0.445413
-0.607721
0.0185905
-0.489077
-0.278329
-0.870101
0.968772
-0.471173
-0.0725805
0.683146
-0.867915
0.342708
0.969975
-0.423249
-0.0515074
-0.84493
0.00435487
0.430013
-0.637056
0.985756
0.281889
0.492962
0.977051
0.240306
0.792518
-0.530367
0.185808
0.642402
-0.0872673
-0.509551
0.625988
-0.394204
-0.526383
0.747713
-0.583587
0.837717
-0.198101
0.934739
-0.339468
-0.313714
0.750876
0.0996044
-0.543647
0.943792
-0.6198
0.57119
0.696295
0.517317
0.673506
0.456411
-0.465299
-0.491246
0.473972
0.836306
-0.372627
-0.685654
-0.137464
-0.421444
-0.146939
-0.56633
0.778324
0.75944
-0.71375
0.145487
-0.141596
-0.772239
-0.853333
-0.689834
0.935651
-0.0462564
0.780457
0.0771348
-0.811169
-0.670006
-0.382555
0.0273757
-0.459425
0.667561
0.486261
-0.350101
-0.742674
0.259278
-0.362467
0.252248
0.831179
-0.461636
0.308025
0.450599
0.953509
0.81023
0.479058
-0.862138
0.725162
0.709732
0.869396
-0.816765
0.11136
0.646596
-0.964634
0.115935
-0.230372
-0.461146
-0.851038
0.154917
0.794004
-0.227033
-0.385548
-0.624587
0.217736
0.712279
-0.981919
0.00911413
-0.763101
-0.0934997
0.816748
-0.939597
0.141399
0.532187
0.9736
0.542969
-0.13281
0.37231
0.747899
-0.532768
0.556595
0.00950528
-0.933772
0.00433797
0.473059
-0.950814
0.775508
-0.835937
0.438112
0.956931
0.451785
-0.211272
0.726409
0.12832
0.0369686
-0.691495
-0.260963
0.487677
0.26532
-0.317112
-0.632651
0.592057
-0.969824
0.429121
-0.820109
-0.505032
0.925344
0.46168
-0.324136
-0.514636
-0.717193
0.762038
-0.8274
0.794394
-0.650089
-0.193034
0.587984
-0.499642
-0.836265
0.0418739
-0.50636
-0.714311
-0.225071
0.0115271
0.564173
0.473646
-0.367575
-0.138086
-0.491342
-0.0721493
0.725345
-0.47083
0.534964
-0.948238
0.84132
0.666436
0.113113
-0.732319
-0.26247
-0.115023
0.322749
-0.460742
0.00589294
0.028945
0.885018
0.757684
-0.503857
0.65068
-0.86188
-0.89569
0.578681
-0.937663
0.306457
-0.564301
0.644801
0.961643
0.0990916
0.00330254
0.613307
0.754421
0.153404
0.533337
0.0713763
-0.771917
-0.315542
0.232823
0.978936
-0.0223582
-0.13861
-0.0228913
-0.391796
0.600811
-0.435215
0.867074
0.487113
-0.0434654
0.317303
-0.150819
-0.890733
0.505166
0.383689
-0.725757
0.141744
0.472111
-0.561883
-0.069892
0.503204
-0.0334822
-0.407928
0.26145
0.426836
-0.215797
-0.131983
-0.885514
0.476521
0.24977
-0.836792
-0.309151
0.733774
0.213991
-0.957694
-0.0665439
-0.930019
-0.934417
-0.562722
0.795185
0.6973
0.51514
0.0306303
-0.44802
0.681209
-0.462726
-0.710981
0.617616
-0.396981
-0.368604
-0.809802
0.936046
-0.197011
0.297051
-0.315064
-0.705736
-0.227532
0.745246
0.205966
0.643541
0.33314
0.239455
-0.382793
0.63151
-0.809432
0.511834
0.186432
-0.599162
0.623266
-0.534679
-0.803156
-0.662987
0.306406
-0.773126
-0.952342
-0.209855
0.380614
-0.656341
0.321214
-0.488015
0.213891
0.416286
-0.798612
0.64259
0.762494
-0.141842
-0.0903894
-0.0497301
-0.168188
-0.585367
-0.251585
-0.35946
-0.558949
-0.771083
0.659054
-0.701332
-0.180579
-0.278393
0.204335
0.89493
-0.564367
0.697483
-0.350969
0.280519
-0.689725
-0.096489
-0.242115
-0.333811
-0.496006
-0.813079
-0.731597
-0.407575
-0.199724
-0.193675
-0.0284374
-0.351693
-0.73925
0.495882
-0.0303827
0.180886
-0.490664
0.791994
0.594913
0.497388
-0.886489
-0.813661
-0.468201
-0.542986
-0.551583
0.116699
-0.698499
-0.520338
0.0600945
0.0407991
-0.36803
-0.757449
0.0018807
0.0312331
-0.743211
0.478676
-0.163144
-0.427139
-0.225887
