0.682526
-0.66181
0.4707
-0.169445
0.449056
0.140143
-0.345273
-0.125403
-0.317059
0.0454423
0.00133857
0.903735
-0.2262
0.395273
0.00314467
-0.201383
0.445615
0.0443275
0.29495
-0.630237
-0.646757
-0.301363
-0.0328902
0.423501
0.679683
0.498483
0.0201569
-0.870324
0.850317
-0.0741356
-0.667191
0.476422
0.113024
0.826116
0.467325
0.960382
-0.760956
-0.592584
0.233977
-0.186067
-0.571563
-0.549979
-0.641087
-0.621674
-0.169654
-0.350301
-0.896887
-0.61444
0.11917
-0.0839365
0.532435
0.151514
0.113123
-0.354973
0.887023
0.0865993
0.404226
-0.387143
0.00726065
-0.446621
0.5592
0.632355
-0.843219
0.340627
-0.285676
-0.114738
0.620195
0.00348439
0.0436445
0.223313
-0.315463
0.685201
-0.227733
-0.994557
0.581445
0.157976
0.50866
0.39089
-0.0522481
-0.59303
0.290553
-0.409541
0.0013322
-0.682491
0.387221
0.934263
0.936301
-0.337593
0.417231
0.356214
-0.885397
-0.327438
0.415728
-0.66072
-0.897965
0.231618
0.714197
-0.211506
-0.968168
-0.0315492
-0.22378
0.786762
-0.871035
0.837556
-0.0220148
0.473112
-0.335576
-0.225373
0.516135
0.426998
-0.497446
0.242347
-0.783657
0.372256
-0.665458
0.514571
-0.910446
-0.205344
0.103309
-0.813785
-0.300339
0.263571
0.529151
0.451154
0.579294
-0.807086
0.692484
-0.274648
0.739864
-0.290289
-0.793539
-0.848515
-0.0971991
-0.547102
0.867586
0.136088
-0.582219
-0.0788646
-0.128726
-0.353004
-0.324732
-0.53536
-0.650583
-0.179505
0.969326
0.956356
0.864792
0.189773
-0.379248
0.661832
-0.351837
-0.456008
-0.419669
0.767051
-0.983829
0.213428
-0.95826
-0.60012
-0.776118
-0.729586
0.357871
-0.0084006
0.951778
-0.071696
0.550943
0.592207
0.982265
-0.205704
-0.755055
0.15895
-0.839491
0.0568425
0.856879
0.355691
-0.156851
-0.122283
-0.513212
-0.541274
-0.208738
0.543247
-0.561404
-0.825756
0.719819
-0.517449
0.686403
-0.830829
-0.123342
0.407582
-0.768375
-0.361503
-0.899548
-0.376989
-0.333475
-0.800841
-0.676929
-0.618254
-0.156941
-0.623972
-0.467592
0.734563
-0.101364
0.094958
-0.693178
-0.385943
-0.70067
0.0219703
0.715139
0.882355
-0.492716
0.779899
0.963933
0.140672
0.56574
0.0382695
-0.444966
0.0492342
-0.0346838
0.315858
-0.806667
0.0979612
0.796225
0.619049
-0.675024
-0.130501
0.505219
0.806653
0.539242
-0.983245
-0.385644
0.441945
0.87444
0.64458
-0.948923
-0.951674
0.315785
-0.916561
0.655507
-0.50422
0.371815
-0.401597
0.896959
-0.156674
-0.766281
0.330611
0.875405
-0.354107
-0.598338
-0.49422
0.133723
-0.811584
-0.964907
-0.243344
0.896474
-0.749525
0.902287
-0.277543
-0.644482
0.78135
-0.258485
0.0891876
0.836923
0.718521
0.0890102
-0.139428
-0.899578
-0.044096
-0.321724
0.281128
-0.7983
0.327357
-0.970564
-0.982609
0.147897
-0.93024
0.568492
0.907431
0.467014
-0.206666
0.514937
-0.0151183
0.406738
-0.659825
-0.107477
0.881731
0.0431254
-0.537863
0.63345
0.446452
0.153272
-0.112208
-0.744038
0.601808
-0.0865039
-0.849435
-0.0855277
0.581194
0.666238
-0.217416
-0.696726
-0.476267
0.52292
0.166395
0.0756502
-0.847196
-0.781807
-0.868625
-0.46896
0.827982
-0.893027
-0.276049
-0.0815401
0.888236
-0.52697
-0.319551
0.323828
0.301895
0.883641
0.968384
0.299093
0.977251
-0.127705
0.0889131
-0.289848
0.831571
0.132373
-0.1681
-0.420314
0.590468
0.223384
0.810163
0.81168
-0.656663
-0.928773
0.721325
0.102299
0.495425
-0.391187
0.0443803
0.375073
-0.456997
0.552532
0.663701
-0.141336
0.766016
-0.77629
-0.757467
0.0290641
0.699417
0.532729
-0.193591
-0.910969
0.996312
0.650118
0.303349
0.605068
-0.951172
-0.91708
0.322295
0.988716
0.0307445
-0.0560725
-0.411503
0.669463
0.491644
0.992883
0.544354
-0.91443
-0.552947
-0.48893
-0.496497
-0.561775
0.37508
-0.471376
0.95776
-0.142149
-0.579428
0.825169
0.774603
-0.643825
-0.14119
-0.431608
0.505414
-0.504757
0.601694
-0.652637
-0.507613
0.533136
-0.674913
-0.657051
-0.832019
0.846716
0.948184
-0.779638
0.000939885
-0.658293
0.927268
-0.420903
-0.194723
-0.413455
-0.432859
