0.422196
0.232475
-0.721141
-0.0357662
0.787133
-1.09948
0.161116
0.29147
-0.183554
-0.623658
-0.897242
1.09706
0.859229
1.05911
-0.703982
0.0959819
-0.705253
-0.411782
0.33123
-0.702596
-0.946584
1.09022
0.318687
-0.406651
1.03473
0.903371
0.9913
0.912302
0.894464
0.906277
0.492225
0.954139
0.281567
-0.0035546
-0.977908
-0.0648052
0.769608
0.494911
-0.546142
1.00329
0.679622
0.279559
-0.052686
-1.08266
0.754094
0.682046
-0.732628
-0.365738
-0.83031
-0.00179411
-0.23057
0.466383
0.775664
0.356191
0.803081
0.121472
-0.17396
0.986877
-0.387273
-0.673129
-0.472845
-0.87611
-0.858744
-0.277124
0.472704
-0.669704
-1.12058
-0.910906
-0.373505
-1.06208
0.900258
-0.13197
-0.594449
-1.05847
-0.305875
0.305851
1.11467
0.455825
0.937636
0.986881
-0.327011
0.673382
0.148538
-0.179366
-0.204386
0.322674
-0.523257
-0.134977
0.656618
0.80129
0.743601
0.650749
-0.0882746
0.621378
-1.00393
0.9658
-0.871288
0.123405
0.0176135
-0.528513
0.265379
0.181587
0.234756
0.586718
-0.31724
0.827429
0.0352852
-0.822653
-0.678211
-0.515009
1.06011
0.126643
-0.852403
-1.07013
-0.778791
-1.10557
-1.1064
-0.976136
0.0972398
0.999711
-0.425213
-0.447141
0.217145
-0.536269
-0.179691
-0.636079
0.00129234
0.981702
0.406029
0.625217
0.0467964
-0.0916777
0.13492
-0.507704
0.481501
0.220971
0.806532
-0.926
0.261042
-0.153596
-0.681988
-0.164223
-1.00957
-0.31885
-0.387854
-0.142712
0.540581
0.899861
-0.944345
1.10435
0.389105
0.767404
0.950735
0.381338
0.220751
-0.905862
0.812523
0.706561
-0.132713
-1.08555
-0.748122
-0.531433
0.0795947
0.00941831
0.875958
0.0551886
-0.123034
-0.330705
-1.07163
0.775263
0.851064
-0.127552
0.721013
-0.278681
-0.860196
-0.382869
0.278681
0.273498
-1.02115
-1.04082
-0.524877
0.661954
-1.12721
-0.644602
-0.628249
1.06556
0.794707
-0.612585
-0.463342
-0.250335
-0.233934
0.388258
-0.863879
-0.90205
-0.61857
0.819606
-0.662427
0.979377
-0.7309
0.872603
0.435811
-0.3891
0.943784
0.269177
0.395865
-0.922869
0.0498737
-0.162644
0.326405
0.792495
0.765263
-0.0150158
-0.37829
-0.696056
1.02887
-0.27532
-0.452097
-0.0317917
-0.283376
0.600325
-0.689826
0.449156
0.0847334
0.431321
1.06125
0.419766
-0.163509
-0.0102303
-0.947407
0.493001
-0.0903278
0.627557
0.822216
0.0336251
0.870751
0.812829
-0.141234
0.745029
1.05838
-0.356382
0.0118401
0.871769
0.650821
-0.664529
0.322264
-0.522371
-0.074832
0.83849
0.10367
0.621721
-1.09278
-0.377283
0.435195
-0.129839
0.0934715
-0.536129
0.357242
0.886593
0.158386
-0.513168
1.04264
-0.468422
0.645211
1.0215
-0.996864
-0.611958
0.325874
0.298074
0.249819
0.484028
-0.524177
0.581137
0.478411
-1.07041
-0.638943
0.409742
0.477424
-0.739584
0.157744
-0.344345
-1.06385
-0.0256941
-0.781174
-0.600409
0.741347
0.147501
-0.00122922
-0.345461
0.459044
-0.863116
1.08801
0.110857
-0.563002
-0.607659
1.07494
-0.0403409
-0.985539
-0.0511658
0.574571
-0.756803
1.08154
1.1225
0.299516
1.07427
-1.0201
-0.0460127
0.336803
0.936031
-0.296787
0.831169
-0.949519
0.480357
0.295998
0.0352404
0.53302
-0.53427
-0.950586
0.867598
-0.451108
-0.428962
0.276346
-0.0575969
-0.976293
0.867816
-0.076803
0.976257
-0.0186436
0.282871
-0.955827
0.41527
-1.05435
0.873253
-0.613485
-0.119303
-0.0703211
0.722897
0.0303565
0.0803232
-1.01292
-0.0141106
0.885175
-0.165593
0.0929529
0.146312
-0.794425
-0.588108
0.858009
0.684287
0.882552
-0.753127
-0.47034
0.774108
0.505188
-0.345856
0.545917
0.523037
0.275369
-0.784686
-0.0306618
-0.438776
0.470465
-0.104197
-1.03574
0.599964
0.249384
-0.426279
0.973345
0.445089
0.0469884
-0.371837
0.868185
-0.393135
0.742627
0.390296
-0.521209
-0.404343
-0.494299
-0.0941826
-0.937556
0.942478
-1.08652
1.12734
0.592192
-0.662228
-0.563457
-0.172404
-0.772778
0.710518
-0.882821
1.13014
-0.224181
0.0486883
-0.429111
0.0444732
-0.288436
0.660286
0.175339
1.07603
-0.521603
-0.463909
