0.829268
0.275555
-0.580373
-0.842756
0.972755
-0.172255
0.688942
0.763335
-0.790475
0.526623
0.662161
0.716128
0.955831
0.925105
0.0149248
0.702371
-0.322437
0.0479567
-0.672058
-0.0549912
0.483521
0.222395
0.468539
0.364299
0.498752
0.559852
0.508503
0.17678
-0.246829
0.167516
-0.460889
0.382043
-0.679628
0.393027
0.47581
0.710624
0.675184
-0.742176
0.1209
0.28937
0.13486
0.411276
0.831236
0.24985
0.517695
0.184765
0.949084
0.72139
-0.467056
-0.545874
0.437389
0.0783323
-0.959044
-0.951017
0.611867
-0.186301
0.288347
0.724939
0.29365
-0.800774
0.592159
0.611383
0.238061
-0.12749
-0.763533
0.0630369
0.012722
-0.841631
0.779096
0.0691094
-0.050618
0.318332
-0.13631
-0.699853
-0.113461
0.156789
0.654537
0.720021
-0.682889
0.640732
-0.53765
0.97837
0.401845
-0.191472
-0.247921
0.238001
-0.947693
0.826915
0.383577
0.100782
0.425709
0.768894
-0.103962
-0.351044
-0.166913
0.997693
-0.665474
0.831682
0.503441
-0.959074
0.032523
-0.231486
-0.444863
0.763818
0.315676
0.779773
-0.948018
0.885135
-0.233766
0.177007
-0.391974
0.733803
0.34717
-0.382679
0.108054
-0.0376946
0.638054
-0.73238
-0.231922
0.0669375
-0.742135
-0.490633
0.480308
-0.858336
-0.872534
-0.523045
-0.456149
-0.355221
0.122639
0.851415
-0.729849
0.503626
-0.801747
0.203543
-0.191303
-0.111668
-0.628004
-0.995959
0.91131
0.245327
0.771793
-0.535551
0.187687
0.588762
-0.585508
-0.876378
0.766166
0.151251
0.270621
0.00202391
-0.337915
-0.0956147
0.725696
0.884818
-0.764411
-0.885127
-0.768461
0.278443
-0.553607
-0.373632
-0.715151
-0.390672
0.500458
0.131111
0.682458
-0.322712
0.0206044
0.513665
0.309458
0.630015
0.839569
0.189083
-0.129562
-0.878267
-0.0861381
0.202153
-0.325118
-0.112191
0.82346
0.301503
-0.255148
0.442367
0.994624
-0.720687
-0.406726
0.0232174
0.867292
-0.169071
-0.701284
-0.162016
0.931604
0.415242
0.029915
-0.456475
0.52569
0.40332
-0.461802
0.444322
0.883929
0.729698
0.0805872
0.330157
0.245803
0.636744
0.405302
-0.446846
-0.61003
0.15636
0.21251
0.216812
0.43117
0.961559
0.920945
-0.909127
-0.429391
0.0263329
0.436976
0.600802
-0.526367
-0.300988
0.528784
-0.936233
-0.227551
0.42852
-0.18772
-0.721
-0.746241
-0.411036
-0.661809
-0.848413
-0.154127
0.606592
-0.335332
0.577356
-0.450406
-0.895165
0.818434
-0.489701
-0.161065
0.695343
-0.995106
-0.993098
0.157619
0.464457
-0.078563
-0.422772
0.941284
0.395122
0.369733
-0.0489658
0.180217
-0.654088
-0.560024
-0.982872
0.130627
0.171699
0.947226
0.867281
-0.597613
-0.551347
0.990731
-0.0891009
-0.750776
-0.243288
0.459746
0.987456
0.580319
-0.0574005
-0.48659
-0.881653
-0.516306
-0.250258
0.813001
0.82127
0.956948
0.20362
0.817046
0.355079
0.408886
0.492722
0.310725
-0.750066
-0.0332144
-0.0933237
0.950436
0.342141
0.707206
-0.865291
-0.236997
-0.0393388
0.978809
0.901737
0.520333
-0.293477
-0.339222
0.767286
-0.0991826
0.390143
0.870911
0.689503
-0.682162
0.182359
-0.819477
0.404103
0.356888
0.152085
0.196421
-0.0445901
-0.317339
0.749139
-0.591847
-0.454223
0.247778
0.260522
-0.633757
-0.0168903
0.64271
0.935983
-0.808018
0.630694
-0.318953
-0.640439
0.576114
-0.999038
0.573522
0.292403
0.443922
-0.674544
-0.521444
0.826066
0.809144
0.482347
-0.372197
-0.469897
-0.0830009
-0.272011
0.854395
0.397845
0.19373
-0.2319
-0.769468
0.264808
-0.815767
-0.209821
0.153015
-0.16372
0.365419
-0.294247
0.581519
0.43285
0.751166
-0.0438291
0.0286715
-0.83171
-0.851424
0.276514
-0.349911
-0.262239
-0.00649613
-0.1094
-0.361331
-0.364554
-0.90862
-0.970347
0.469708
-0.0399152
-0.219487
-0.568662
-0.64535
-0.910303
0.962439
0.514226
-0.358171
-0.60823
0.648596
0.0886662
0.709573
-0.686929
0.65653
-0.261445
0.645798
0.674535
-0.701316
0.988006
0.311439
-0.580044
0.376081
-0.491804
0.912504
-0.544713
-0.303697
-0.322659
0.209208
0.83959
0.048218
-0.852428
-0.427216
0.0412977
-0.122858
-0.926394
