0.719222
0.152947
-0.809247
0.930036
-0.0717481
-0.847403
-0.655602
-0.830939
-0.641819
0.368001
0.47543
-0.105956
-0.502555
0.640507
-0.433176
0.479888
-0.195716
-0.792671
0.869668
0.343984
-0.791298
-0.912749
0.229379
0.840005
-0.360916
-0.442754
-0.137267
-0.545584
0.128916
-0.868789
-0.374213
-0.480293
-0.182335
0.709221
0.0836957
0.349743
0.613216
0.25198
0.668583
-0.913814
-0.124841
-0.609938
-0.0156305
0.945772
-0.00307939
0.592881
0.140224
-0.356808
0.51773
0.269569
-0.0466285
0.32382
0.365811
-0.462059
-0.427696
-0.45205
0.887627
0.200968
0.369522
-0.633652
-0.606739
0.321536
-0.594375
0.457881
0.156705
-0.967745
-0.400383
-0.789154
-0.128256
-0.428342
-0.312147
0.920407
-0.267754
0.463182
-0.218871
0.60248
0.789654
0.633807
-0.977001
0.433555
0.0575367
-0.703211
-0.115325
-0.550837
0.159304
-0.407739
0.0387732
0.535932
-0.379184
0.566283
-0.455582
-0.816134
0.861499
-0.235905
-0.756618
0.586178
0.999048
0.89603
0.954587
-0.318129
0.435006
-0.552588
0.385231
0.69615
0.0489705
-0.735736
0.151383
-0.356404
0.906077
-0.0122277
0.547451
-0.137201
-0.274453
-0.629977
-0.910853
0.711416
0.366587
-0.664459
0.0297462
0.723514
-0.347711
-0.0304427
-0.819685
-0.695258
0.922333
-0.940207
0.656148
-0.106788
0.696683
0.0149082
-0.410035
-0.287821
0.588671
0.834512
-0.780892
0.356568
-0.706595
-0.651422
-0.189553
-0.0536114
-0.0488462
0.800813
-0.990069
-0.0394657
0.0106003
0.581258
-0.701362
0.649544
0.650343
-0.115377
0.538327
0.773689
0.715966
-0.116715
-0.158628
-0.0555492
-0.19539
0.583481
-0.318242
0.513246
0.582118
-0.62798
-0.607083
-0.715246
0.27738
0.656741
-0.173469
0.327959
0.812242
0.932032
-0.437743
-0.035538
0.561841
0.0473997
0.767572
0.231355
-0.619814
-0.942533
0.7153
-0.0565134
-0.83065
0.22451
0.766743
0.184704
0.97006
0.53001
-0.124945
-0.71254
0.949218
0.358321
-0.865131
-0.582685
0.708998
0.652442
-0.0652424
-0.116208
-0.0126905
-0.377226
-0.784695
0.521901
0.654512
-0.698985
0.0505829
0.920014
-0.569291
-0.168383
-0.884834
-0.83544
-0.54788
-0.65941
-0.119686
-0.431908
0.382361
0.825673
0.902209
-0.829869
0.324611
0.105384
-0.919646
0.638054
-0.951542
-0.486933
0.707419
-0.544257
-0.54974
0.50662
0.340077
-0.348729
0.18747
0.427488
-0.368305
-0.158707
0.986411
-0.364721
-0.246577
0.0689735
0.121017
0.838907
0.243641
0.368745
0.866845
-0.810824
0.617637
-0.895193
0.585693
-0.145704
0.527228
0.0341654
0.296307
0.685671
0.017439
0.993309
-0.801905
-0.640323
-0.230643
0.514242
-0.531557
0.749033
0.240552
0.243473
-0.263925
0.394249
0.5399
-0.453296
0.332527
-0.318045
0.662808
0.369296
0.951049
0.111664
-0.407056
-0.943863
-0.918913
0.36923
0.685428
0.79511
-0.0160884
-0.333952
-0.158355
0.419654
-0.358516
0.179153
0.623171
0.198062
-0.221599
-0.651042
-0.100654
0.327266
0.216268
0.424878
0.728422
0.573236
-0.0329628
0.760438
0.74944
0.241279
0.0608589
-0.772674
0.365172
0.714517
0.371059
0.108826
0.250706
0.576171
0.0973788
-0.134112
0.063112
-0.443905
0.614406
-0.537572
0.948777
-0.192059
0.185758
-0.772444
-0.386185
0.509612
0.739185
0.567859
-0.816703
0.883342
-0.973711
0.961122
-0.674477
-0.978725
0.795199
-0.851112
-0.303688
-0.701274
-0.42363
0.0808717
-0.612008
-0.931034
0.541793
-0.450094
-0.234461
0.66606
-0.893044
0.347974
0.62254
-0.169231
-0.144107
-0.215704
0.0124295
0.927506
0.934961
-0.199483
0.0147487
0.168714
-0.922129
0.246867
0.368716
-0.189678
0.465653
0.265027
-0.917345
0.133405
-0.389012
-0.0697332
-0.735495
0.420235
0.318481
0.782933
0.844015
0.571822
0.814654
0.121657
0.936816
-0.666019
0.664252
0.626053
0.627925
0.52498
0.980708
0.820213
0.439458
-0.797439
-0.926831
-0.133568
0.454255
-0.324862
0.542869
0.010087
0.164387
0.322545
-0.165913
0.936522
0.313645
0.922962
-0.066697
-0.0615572
0.923577
-0.680115
-0.31845
0.101326
-0.615042
-0.603673
-0.0150661
0.150612
-0.753892
0.615729
